"V1"	"V2"	"V3"	"V4"	"V5"	"V6"	"V7"	"V8"	"V9"	"V10"	"V11"	"V12"	"V13"	"V14"	"V15"	"V16"	"V17"	"V18"	"V19"	"V20"	"V21"	"V22"	"V23"	"V24"	"V25"	"V26"	"V27"	"V28"	"V29"	"V30"	"V31"	"V32"	"V33"	"V34"	"V35"	"V36"	"V37"	"V38"	"V39"	"V40"	"V41"	"V42"	"V43"	"V44"	"V45"	"V46"	"V47"	"V48"	"V49"	"V50"	"V51"	"V52"	"V53"	"V54"	"V55"	"V56"	"V57"	"V58"	"V59"	"V60"	"V61"	"V62"	"V63"	"V64"	"V65"	"V66"	"V67"	"V68"	"V69"	"V70"	"V71"	"V72"	"V73"	"V74"	"V75"	"V76"	"V77"	"V78"	"V79"	"V80"	"V81"	"V82"	"V83"	"V84"	"V85"	"V86"	"V87"	"V88"	"V89"	"V90"	"V91"	"V92"	"V93"	"V94"	"V95"	"V96"	"V97"	"V98"	"V99"	"V100"	"V101"	"V102"	"V103"	"V104"	"V105"	"V106"	"V107"	"V108"	"V109"	"V110"	"V111"	"V112"	"V113"	"V114"	"V115"	"V116"	"V117"	"V118"	"V119"	"V120"	"V121"	"V122"	"V123"	"V124"	"V125"	"V126"	"V127"	"V128"	"V129"	"V130"	"V131"	"V132"	"V133"	"V134"	"V135"	"V136"	"V137"	"V138"	"V139"	"V140"	"V141"	"V142"	"V143"	"V144"	"V145"	"V146"	"V147"	"V148"	"V149"	"V150"	"V151"	"V152"	"V153"	"V154"	"V155"	"V156"	"V157"	"V158"	"V159"	"V160"	"V161"	"V162"	"V163"	"V164"	"V165"	"V166"	"V167"	"V168"	"V169"	"V170"	"V171"	"V172"	"V173"	"V174"	"V175"	"V176"	"V177"	"V178"	"V179"	"V180"	"V181"	"V182"	"V183"	"V184"	"V185"	"V186"	"V187"	"V188"	"V189"	"V190"	"V191"	"V192"	"V193"	"V194"	"V195"	"V196"	"V197"	"V198"	"V199"	"V200"	"V201"	"V202"	"V203"	"V204"	"V205"	"V206"	"V207"	"V208"	"V209"	"V210"	"V211"	"V212"	"V213"	"V214"	"V215"	"V216"	"V217"	"V218"	"V219"	"V220"	"V221"	"V222"	"V223"	"V224"	"V225"	"V226"	"V227"	"V228"	"V229"	"V230"	"V231"	"V232"	"V233"	"V234"	"V235"	"V236"	"V237"	"V238"	"V239"	"V240"	"V241"	"V242"	"V243"	"V244"	"V245"	"V246"	"V247"	"V248"	"V249"	"V250"	"V251"
"1"	-0.277723841224984	-0.292303454617849	-0.302409196127273	-0.317833958084097	-0.328351802031896	-0.328086543639423	-0.338664220285313	-0.346207432361058	-0.351583630312789	-0.355294958869016	-0.35344944445371	-0.355725716339168	-0.365147219031669	-0.372244875271073	-0.354648331300561	-0.357220089807473	-0.361803091801425	-0.35853315379984	-0.361533969755407	-0.357136698979656	-0.359188107099202	-0.368393916674665	-0.376444648898668	-0.375656683110343	-0.368646519545435	-0.353858796995329	-0.387195648762071	-0.390614546010553	-0.38789280024057	-0.383121142939065	-0.391703965195541	-0.384163988272037	-0.379287202373339	-0.383520341361501	-0.396011988974478	-0.389721086115586	-0.392986792237776	-0.375224208920635	-0.396509202932848	-0.396064219301536	-0.384021699706674	-0.398494297922694	-0.42045867901168	-0.39783744037305	-0.412974870134666	-0.414464366039918	-0.399620558553874	-0.42933603698287	-0.422963125393815	-0.422670644396608	-0.434719454701496	-0.425805317627038	-0.433770662696081	-0.431419602005535	-0.421988351764801	-0.436235174425851	-0.424117616785316	-0.441133221795766	-0.444292159010823	-0.447505936422851	-0.449572532045923	-0.443114844216365	-0.452370053044307	-0.453404815041792	-0.455533826453758	-0.45277296248057	-0.440613831361073	-0.461347985924284	-0.444562772832732	-0.46034383057575	-0.458462076670569	-0.453645188092043	-0.473670288850642	-0.473800748640297	-0.466427219760726	-0.461972226420054	-0.481511594467526	-0.484593120016047	-0.45775244255625	-0.473727585660999	-0.469854643119884	-0.476703522559051	-0.474806141554986	-0.478963900918063	-0.485752937215663	-0.479707587756702	-0.480914296253573	-0.478543992195764	-0.488440316280156	-0.481771170633345	-0.496634081848084	-0.497369053611031	-0.507616256793921	-0.500529133414632	-0.48517023837934	-0.512864341360076	-0.497868376734915	-0.493885356887833	-0.503318525706777	-0.509799351008613	-0.512864105535828	-0.511114111984192	-0.506753451443057	-0.516669426619985	-0.509995132858015	-0.505834627199057	-0.504501980929847	-0.519143056208689	-0.50903294432431	-0.521030158139973	-0.503840041900843	-0.520626514802131	-0.527482183407884	-0.517190008877161	-0.529648965102372	-0.528702379182936	-0.526559557655726	-0.526456396178343	-0.527473145286197	-0.526959647114246	-0.534283048030061	-0.540550989198579	-0.531176036960507	-0.534370050780695	-0.543967397988588	-0.540626613913232	-0.523263243586547	-0.515668738823111	-0.53588411676149	-0.543921019409706	-0.540817224726372	-0.546727986009918	-0.542977869339918	-0.5439552237025	-0.549006950399821	-0.54637700479049	-0.543210761221615	-0.557833533314836	-0.566331659548547	-0.551399226392124	-0.556438929676173	-0.557770109480291	-0.563904841765107	-0.554568447525995	-0.57124445400377	-0.558976878006734	-0.5594401373667	-0.565752148239089	-0.571434869811855	-0.56764051353111	-0.567400791309903	-0.572764505417474	-0.575856376008956	-0.571659855425448	-0.574099150853367	-0.588076427629265	-0.584184461982055	-0.568224042177874	-0.580075202952687	-0.579219812844318	-0.585002241397171	-0.588170993021126	-0.583541416044129	-0.57589288815116	-0.588993983387601	-0.588997036364336	-0.589480325623912	-0.589322378229674	-0.587350820077903	-0.594501760507964	-0.585123506681847	-0.597919219224499	-0.586542764149075	-0.585132845229896	-0.59790867736881	-0.598734274522363	-0.591980408682757	-0.598514909321121	-0.600553370005862	-0.604853703423533	-0.592451380648669	-0.590105149333726	-0.606450232196736	-0.608214410471568	-0.600569901799282	-0.61435117176291	-0.608947631152162	-0.613034567838109	-0.60555633886342	-0.616996690551502	-0.61075300442406	-0.619073186298684	-0.612528611388357	-0.618762630000504	-0.623718895937528	-0.622011420906124	-0.6114291632144	-0.620424232160655	-0.626696956097322	-0.623939153596556	-0.627619104438236	-0.628806126447193	-0.627771232051976	-0.623614604402463	-0.6235433210825	-0.625748875831391	-0.632759397609112	-0.635166028131692	-0.634305561316994	-0.62483102085699	-0.630939089317013	-0.629422504855961	-0.634628909079175	-0.636853515913505	-0.638772198543072	-0.635408011319481	-0.642035377378854	-0.639453626603915	-0.641320869674765	-0.63991327803089	-0.639151513518133	-0.642896052429313	-0.645245421962623	-0.652836609034621	-0.645211339721778	-0.645129234572881	-0.655205616587705	-0.652159971352064	-0.638125667902403	-0.656120252095337	-0.653882504141939	-0.643591160692901	-0.650471578770574	-0.662532410784529	-0.656867485650241	-0.659588482371688	-0.655207770706123	-0.65346225478481	-0.661135363734131	-0.64760506428989	-0.651623891646084	-0.651473794571283	-0.654278540290238	-0.663757298379172	-0.658824002031596	-0.668290456593365	-0.657110685853517	-0.649169721207835	-0.665888013190798	-0.670082223662748	-0.663720665849483
"2"	-0.392951166393157	-0.333321510559021	-0.34611275911942	-0.336334201757859	-0.323872212792749	-0.330372461657147	-0.34504095469602	-0.313549996701985	-0.33302785861619	-0.341520820040353	-0.318540700188802	-0.321466196242412	-0.339513978546906	-0.29936814961754	-0.358284889080012	-0.369193777025156	-0.369722963439132	-0.389744301416871	-0.379386556882337	-0.393823040544672	-0.376731512530141	-0.348013344455215	-0.351197343055199	-0.354930130135936	-0.384415534854028	-0.403711026887952	-0.344978545098509	-0.372016515887572	-0.366748781546401	-0.360825226407677	-0.374175595676659	-0.367705331756255	-0.383939051625873	-0.384032052821363	-0.354747686139886	-0.338360563574214	-0.352194211391393	-0.385890623386381	-0.330756482069843	-0.327482638316207	-0.357422871645472	-0.325745910010601	-0.334941346557398	-0.397183017602047	-0.369799570711243	-0.349571514460785	-0.368840752306678	-0.36054425588973	-0.356394417005474	-0.393895802609591	-0.341791770723054	-0.3339245673767	-0.318418576060458	-0.342235125236149	-0.340952771240462	-0.302992812635909	-0.342141240675143	-0.344791441329652	-0.329526057584939	-0.331705528011429	-0.329246471899599	-0.350700525372417	-0.337056899340403	-0.323593268317162	-0.29810079591053	-0.337044239083421	-0.351325991886736	-0.291820590779652	-0.34287665770426	-0.31365557756764	-0.321121724984932	-0.32559437496536	-0.298441456877195	-0.309642938946833	-0.320831539028359	-0.330964419689017	-0.28340453566429	-0.279052707568233	-0.311319585362753	-0.292357185515083	-0.314300257847188	-0.294677067238254	-0.277397685308443	-0.293876346635904	-0.301254385743112	-0.28109235640069	-0.274990977336851	-0.293576333475374	-0.287531880989533	-0.298584438548643	-0.264409669541188	-0.262766599982469	-0.262829929061216	-0.273270221077613	-0.284996263517158	-0.263539621314848	-0.262147009535039	-0.293622154404033	-0.266395739651768	-0.289373901891892	-0.292872158398881	-0.263368793468424	-0.286045995434528	-0.264729818415878	-0.272397742295477	-0.285704650182053	-0.280804138963354	-0.282293444843403	-0.286704575009665	-0.262826867876102	-0.271372659147493	-0.25456998108496	-0.277675177841917	-0.264448187304819	-0.259095039258865	-0.268566047188104	-0.261968624821406	-0.275576560386964	-0.264388931457005	-0.26166622375943	-0.248368342627383	-0.248028448656994	-0.254718949027486	-0.260761848689587	-0.235836473218501	-0.246198485200522	-0.260804713513631	-0.285218030536192	-0.269347034986152	-0.270854919838122	-0.258815404344846	-0.235683250900689	-0.231539377151693	-0.245728343687149	-0.258585680106639	-0.247811537598847	-0.256696132059713	-0.236103431460948	-0.238137547551399	-0.231473533044089	-0.260879880245716	-0.245069023040457	-0.243201236926533	-0.238752955614061	-0.229099023125979	-0.26386685035156	-0.272716094716083	-0.238774676268219	-0.237731332622602	-0.249484946877917	-0.233395356469288	-0.224883600868949	-0.234324881781728	-0.233101238744131	-0.224833792360003	-0.22554644077088	-0.214589073950401	-0.234556844844281	-0.225243988527752	-0.233869378551672	-0.233584642183093	-0.2129109910003	-0.236527612984434	-0.238586569909091	-0.228810367391537	-0.230431633549958	-0.229879542758511	-0.220474932744006	-0.248420061238258	-0.207208361072808	-0.224771325068694	-0.23281959425641	-0.24494888299226	-0.244696811259509	-0.230561448339018	-0.220518926248979	-0.245131810023393	-0.214677221775963	-0.225224271479154	-0.219905767950283	-0.225414846876552	-0.228307351528349	-0.211716429694163	-0.20657643794408	-0.231775694366648	-0.211543166837752	-0.201897840636853	-0.217425203475529	-0.206705219992297	-0.189170112956628	-0.225071508516235	-0.199124579337702	-0.20032813988986	-0.22482012387927	-0.195599308518482	-0.209403677075967	-0.205211006856349	-0.197035286334311	-0.1887058545716	-0.177478358918433	-0.176976674668767	-0.193319024930034	-0.193947142035625	-0.179107687806424	-0.201652363893761	-0.19000590025428	-0.177487626920888	-0.179214191159491	-0.178593724973955	-0.180630529372369	-0.211872878909605	-0.170958464955161	-0.179357591263229	-0.170812810034002	-0.160345766380361	-0.19679324898074	-0.158942577131924	-0.17716466417701	-0.170318398460948	-0.187459074095416	-0.184022819622	-0.175002024547469	-0.167466057525065	-0.170419845547274	-0.169867705743111	-0.145359219775074	-0.151948635338806	-0.176635649040531	-0.164567822310554	-0.173765248524173	-0.173076281634271	-0.158210200826364	-0.164073049104449	-0.142964436018031	-0.178101756794243	-0.1575722515075	-0.148431542629717	-0.165534073807511	-0.142672333883104	-0.157653605560255	-0.162930292454859	-0.157088600965522	-0.147643404121109	-0.162121560143034	-0.14744523278039	-0.153494085296747	-0.151351755213431	-0.170682093895951	-0.166910288695682	-0.153162318457112	-0.155789891769571
"3"	-0.104501447868076	-0.115552731581514	-0.145971362427937	-0.139983407722463	-0.17468665916064	-0.166214379191915	-0.160736647463495	-0.1810865674496	-0.196507030275944	-0.200315785206949	-0.17762299779748	-0.186957293432051	-0.189957300477197	-0.170860583599929	-0.185768032115792	-0.187131938107907	-0.191374246855366	-0.225684153636423	-0.201360795984359	-0.20578721179813	-0.20054944951485	-0.184837623612237	-0.196548615312576	-0.196504259988665	-0.195157029807219	-0.216555681933469	-0.183885551103951	-0.20139460416466	-0.201887996244159	-0.198742724526985	-0.207770147077075	-0.214688560772365	-0.200123342225565	-0.214895612173517	-0.196210726410838	-0.205665617862624	-0.207071787486885	-0.218604357940341	-0.193115499020808	-0.234955981872122	-0.238693625910774	-0.225742754191133	-0.22368105150221	-0.236940391921205	-0.226830459150355	-0.226673136379617	-0.223379985754216	-0.224734321678792	-0.226509100114882	-0.217813584620421	-0.204121133650656	-0.229285815505867	-0.21213066460161	-0.220457915873671	-0.241891771051849	-0.218945394329219	-0.235870347369996	-0.223606334510147	-0.237908765097305	-0.212788789524384	-0.22872591375393	-0.225008491057161	-0.20962085534649	-0.211433397066982	-0.226957754986022	-0.232310724758441	-0.224880505731718	-0.229076110224128	-0.2245049693818	-0.219645417879033	-0.201263071916191	-0.218272668386231	-0.214026073612765	-0.221008278127352	-0.217657223546871	-0.228454471679034	-0.219633254832416	-0.221922425687879	-0.219647383314768	-0.217822889174102	-0.22200337147401	-0.216405747130464	-0.202218977891813	-0.221524183800367	-0.212878489788899	-0.212261561672401	-0.206022459167421	-0.200608559998883	-0.223491120079675	-0.197729981016129	-0.211027871225789	-0.221022042791066	-0.215102570699652	-0.226767044970579	-0.222165906224879	-0.213385648935814	-0.202829739810524	-0.217752937641681	-0.21304229397471	-0.210175255427316	-0.199405777754459	-0.192633491698467	-0.211158820744124	-0.193733971559349	-0.198199443278502	-0.194512551374761	-0.200108407250793	-0.200431960455207	-0.195873333983407	-0.207453515796198	-0.204173330468529	-0.193058288839849	-0.207407252420795	-0.20909503508144	-0.211399650053222	-0.210935267302908	-0.205893109080099	-0.206729532202407	-0.204845871047071	-0.221906555555776	-0.212970290295301	-0.206388178369781	-0.200417951985025	-0.202197750777835	-0.192627270732256	-0.186641045130697	-0.198673878691875	-0.187306112585113	-0.192205032123701	-0.192407788966479	-0.184679056041877	-0.187915590897696	-0.192646106539023	-0.175674549701372	-0.187042712321073	-0.183527983478859	-0.1853960593556	-0.188667372221003	-0.176967357652505	-0.177784982590924	-0.183061383262595	-0.192032172756532	-0.1882877843703	-0.17778681956452	-0.174711759293781	-0.179553693572689	-0.191486723925898	-0.179855963028821	-0.176069784367842	-0.176999951980187	-0.166181792674489	-0.170535469366836	-0.179164166238065	-0.167505373598619	-0.175138287460993	-0.178009881407104	-0.16726722952987	-0.164807436435704	-0.16589037230106	-0.159870233032438	-0.165173665357109	-0.158847138118564	-0.168344400141317	-0.164433377673278	-0.163466450605866	-0.164216759604466	-0.173176716092966	-0.173879663187661	-0.172712202329852	-0.157254004778008	-0.163479476189686	-0.169713253911052	-0.174489559417598	-0.163236730393405	-0.158795872170512	-0.158206807501046	-0.162284824745038	-0.14568109013194	-0.169432532407558	-0.160143265532741	-0.159528396800455	-0.15222098057675	-0.152659355367165	-0.140528413428672	-0.164206618928024	-0.148358371282544	-0.147150469415585	-0.145675172510584	-0.134828135368245	-0.138800975209429	-0.148299854276316	-0.147107589675156	-0.141759112406741	-0.143401573748215	-0.149044034950569	-0.136806453008841	-0.149485634285599	-0.132247407119068	-0.138578246412636	-0.134850996553739	-0.125756647276945	-0.139740334619345	-0.139912255681182	-0.133780359265912	-0.133427843344332	-0.133610755411259	-0.13969747388053	-0.132087214098297	-0.140922224942326	-0.1452624942926	-0.136535356249263	-0.136980936423892	-0.13794357040787	-0.129125608746841	-0.131653561388898	-0.127458717112365	-0.121169271586061	-0.12532773518541	-0.12401651791089	-0.12112150629653	-0.130334773809529	-0.120903590704507	-0.121061822329785	-0.12069210104344	-0.128750404662099	-0.114951352575517	-0.107544208340528	-0.121853076733198	-0.116292319244162	-0.123526796251418	-0.101901958800848	-0.114256358656913	-0.106121960239809	-0.10069421714771	-0.103588192343784	-0.116191023139177	-0.107778346659788	-0.10868145674087	-0.101205940803799	-0.115968646173473	-0.0955376510611254	-0.113166021726981	-0.10376933565514	-0.100578193090102	-0.0997039764632942	-0.0978165443778301	-0.0971252365281551	-0.101269317521968	-0.0998511108167327	-0.10298698097876	-0.0952272397649265
"4"	1.04361561693331	1.06844723072194	1.08160265324107	1.08239363080389	1.152188083949	1.11827241780148	1.11912475574694	1.16410347765097	1.17521309375276	1.16902240591524	1.13543915062421	1.15167665927668	1.15488049789448	1.14455153164416	1.14206785893848	1.14736179465475	1.13813398983691	1.19372022313025	1.16597543139074	1.19464044113634	1.15833496207694	1.182738629795	1.19446569572291	1.2346779778772	1.19565501931382	1.20621021384555	1.17437329571095	1.1783794338981	1.19876037400814	1.21303252901171	1.19842429954055	1.19862913572123	1.18371128160436	1.18298056526875	1.19383328339614	1.23857982678011	1.20189696752688	1.2112482111363	1.22521777129073	1.26254436406756	1.27552739113779	1.26905090985989	1.21941337688027	1.22278431111502	1.21127850701424	1.23770496148609	1.24126236121535	1.21608246704627	1.20444742572878	1.19007084940069	1.19454820726157	1.23473727368649	1.21543152580038	1.25038314216743	1.27522415111813	1.26091502830598	1.26482981042654	1.22048304240583	1.24611676417111	1.21450303568747	1.2341684318708	1.21946608503205	1.2034725662148	1.21445611302757	1.26378278053024	1.25856407516351	1.2455472059179	1.2771215839879	1.22817230874154	1.23016091722553	1.22549190157094	1.25311374651855	1.26950376713996	1.24220663328026	1.24346221707168	1.23534923702674	1.27368844411856	1.2539427575725	1.25453580397718	1.27941318304958	1.27203642670075	1.26693829476144	1.24531651133988	1.25890362749329	1.24271491347198	1.2529390672418	1.2640994663315	1.23955025785846	1.2896952668598	1.25268615469652	1.2800545264842	1.30144163984968	1.27332030490487	1.28440587450806	1.28727579745065	1.29049834884217	1.25526679483151	1.26644588635515	1.2823043657545	1.25932914505306	1.23576143756218	1.26263133299586	1.27245349549151	1.26205414342446	1.2678247930125	1.25659825618241	1.25237486716337	1.25144160306285	1.25148138881693	1.26905692553891	1.27679202678835	1.26911075431742	1.2697706707999	1.29251105713178	1.28302369004188	1.27851358931758	1.25689547799213	1.27360946455356	1.27927484395805	1.29423762154217	1.29590807643815	1.26133234959111	1.27880681476996	1.27023328443406	1.26134093398393	1.25360292784575	1.28415379564544	1.24887941165949	1.25460915968986	1.24858572293914	1.2480603803731	1.25094040757333	1.27683169292452	1.24004756165588	1.26157677041607	1.26307548395248	1.28496570600079	1.25394767129254	1.23943727260283	1.28135808299543	1.25405898797211	1.28363189124824	1.25856283724594	1.26522680589258	1.25723529990993	1.27472051374783	1.25836264872106	1.27025059569126	1.27060977721756	1.2390566061892	1.26446131960072	1.27160624455542	1.27473910563789	1.26522473114711	1.28878645996015	1.27129704254936	1.26403858816523	1.26866325883322	1.25533046280939	1.2560062535909	1.26080877917251	1.260403788306	1.25818242147707	1.25192112129023	1.239196551239	1.26248940763231	1.25922577338987	1.2804192513164	1.24925886560674	1.24966393155892	1.26431221461884	1.26807261239062	1.2721950039213	1.26281273979055	1.2500676784151	1.25312372587488	1.25551149838789	1.24692926884106	1.27007409690669	1.25115576725323	1.27172042475532	1.25261140659815	1.2585460277968	1.22616024927617	1.26138221331266	1.24419777109765	1.2589729063204	1.23806685786595	1.24273022242371	1.23827550061466	1.23529053933716	1.26736458608303	1.24722299280589	1.24254809132416	1.25279238625706	1.23981041870281	1.26612913754627	1.23220931601709	1.24563419045855	1.26121214280252	1.24883452563874	1.24200658360725	1.24895822784154	1.25651903220425	1.24872943037308	1.25777141921674	1.25619703674867	1.26551255125698	1.25520571195799	1.26817631593411	1.20661543613863	1.26706760412235	1.24002759220903	1.2370179718978	1.24563889388246	1.23637336980808	1.24473008441998	1.21998900785834	1.21829741786333	1.22855600565534	1.20960688610907	1.22314287635455	1.24546662110057	1.246068832169	1.23981026504483	1.25401589184094	1.22496734366463	1.2149574007867	1.23673897251697	1.23389661982874	1.21031483838869	1.22031794200426	1.22875283389173	1.22328915885553	1.21357125016942	1.23269934059038	1.22670238377235	1.22431954816745	1.23078003241651	1.24364984034625	1.20603995413279	1.23217492200872	1.23094671585769	1.20011520901346	1.22193951084153	1.22252178584953	1.20711180225245	1.23590825714659	1.2192911449675	1.20780472018449	1.21951897889129
"5"	-1.03399055374221	-1.04382626943743	-1.0441445154204	-1.0694725323565	-1.06460693493319	-1.03809943631337	-1.04674017978166	-1.04548795274943	-1.07833211259907	-1.08248044959432	-1.08588800532274	-1.08210316565006	-1.09598443895194	-1.07695412559861	-1.08957232570728	-1.09470736153569	-1.105152498957	-1.1104268985061	-1.10647247891413	-1.12230423254567	-1.11291891108308	-1.12348065268451	-1.13408166965908	-1.13141965200394	-1.13631627999083	-1.13996616497885	-1.13507122286322	-1.13290562224433	-1.14085477368642	-1.15792415361149	-1.14160642706319	-1.16262012124867	-1.16593927243592	-1.16006077645544	-1.16266190228699	-1.16741860588434	-1.1689393349475	-1.16420166784537	-1.166823992329	-1.16881912765369	-1.17270499867186	-1.17402871668676	-1.18034193954044	-1.18226885250519	-1.19221384753074	-1.1816937150261	-1.20892258892557	-1.21053917253762	-1.19884256529519	-1.20501354658766	-1.21282323945565	-1.22031728160973	-1.21683224792785	-1.21609115962184	-1.21707451318526	-1.21814014773331	-1.2296105706721	-1.23619573764866	-1.2456023664767	-1.24648451075305	-1.237431982652	-1.24440794018783	-1.24886696431729	-1.26607728351005	-1.24564564406757	-1.25636361873472	-1.26826901062931	-1.2640836195804	-1.27483921925163	-1.275695137228	-1.2713910999157	-1.27225665792485	-1.27642347747575	-1.27103684722276	-1.28436586104708	-1.28686193272688	-1.28915573927136	-1.29432861519001	-1.28376000116319	-1.29485365281658	-1.28847523502786	-1.29489662890583	-1.29564000056057	-1.31992261684734	-1.29768268768851	-1.30919743474253	-1.30856341736375	-1.31322113082086	-1.3030669352536	-1.32042813109279	-1.30695953599341	-1.32186509610295	-1.31966744616457	-1.32459850333133	-1.32073042608679	-1.33578353773662	-1.33359165984355	-1.33354442086353	-1.33693356076376	-1.33295174506467	-1.33549254088303	-1.34044242759227	-1.3405413673115	-1.3400573277884	-1.3437641633507	-1.35682821966135	-1.3472594161304	-1.35628746618863	-1.3580381045422	-1.35269059354932	-1.35978711813773	-1.35657249450352	-1.35365421835976	-1.36718429694387	-1.36619583619082	-1.37450589159062	-1.37189067298144	-1.37807402384826	-1.37995865904942	-1.382253591478	-1.38609360661407	-1.37309240171262	-1.37614451827941	-1.39210294862161	-1.38569256783379	-1.39028336585707	-1.38793823141879	-1.39245273716327	-1.3945673997702	-1.39323512291999	-1.39159786777465	-1.3953904309347	-1.39623253516006	-1.39880586893332	-1.41391673395711	-1.4070567559729	-1.4067402592503	-1.41577340628282	-1.40810604258782	-1.41024285468781	-1.41744582904671	-1.4113740204188	-1.41180515365686	-1.41126794041475	-1.42743686647863	-1.4193324850027	-1.41854871128897	-1.42385895794699	-1.42904740313485	-1.41830031215426	-1.43474218139942	-1.43425559030706	-1.44044498369209	-1.44009127086083	-1.44339246657198	-1.44360607372389	-1.45279876927694	-1.45126838673453	-1.45716019653633	-1.45766192293959	-1.45999002146846	-1.45508459575057	-1.4569749028284	-1.45919182245743	-1.46814566629301	-1.46380873901995	-1.47139683778034	-1.46574438329091	-1.47117240792428	-1.47186135834382	-1.48113535533625	-1.47284714808202	-1.47268118117608	-1.47084033135826	-1.47566316377895	-1.47375773648982	-1.48069429885795	-1.47948439121141	-1.47734097094489	-1.48920900729623	-1.48734466143255	-1.48868642351636	-1.49180255630895	-1.48908617398257	-1.49491039213388	-1.50006180378537	-1.50435741347552	-1.50770706378054	-1.51331435724402	-1.50850983472545	-1.51577441835396	-1.5092017970448	-1.50917987504366	-1.51152922183629	-1.51475265516681	-1.51196596820434	-1.52530700767205	-1.52644369685558	-1.51378435219332	-1.52211627540054	-1.5282256040593	-1.53126240783653	-1.52894202687007	-1.52761703161296	-1.52768454544143	-1.53798450741845	-1.53380134660567	-1.52759331631486	-1.52525893965521	-1.54708773687632	-1.53642097821843	-1.54203039945119	-1.54538978796834	-1.54750367101409	-1.54907203753645	-1.54974448949608	-1.54506876477567	-1.54599755584306	-1.55061246810079	-1.5530187049026	-1.54768609342698	-1.55416277542546	-1.56136033581498	-1.55742160957941	-1.55676023114561	-1.56159368128241	-1.56169531213767	-1.56470703186281	-1.57294102705287	-1.56796552636509	-1.57585989867039	-1.5716373027053	-1.57692113928737	-1.57409567581578	-1.58106091672166	-1.58131926694005	-1.58058227619254	-1.58214052003313	-1.58881952175907	-1.58730170093855	-1.59155753801148	-1.59109098800629	-1.58726858638419	-1.58547855093865	-1.58827068642345	-1.59047107627246	-1.59353831949136	-1.59395579020272	-1.59151452324681	-1.60419929220761	-1.60232351354138
"6"	1.49074704830103	1.49027259255113	1.48672747325136	1.49964380370879	1.48990029005723	1.45131853701191	1.49376115120274	1.48383859669242	1.51355909854323	1.51355742902651	1.48310318096119	1.48084208678934	1.53473322699532	1.48852483583898	1.50923386784388	1.50099685298427	1.54301864117883	1.54638049870304	1.53526594168816	1.54315150815463	1.53369066463152	1.53673285851723	1.56134447084558	1.51184638774296	1.53976989453851	1.5753218464223	1.53102098033815	1.55392112899215	1.54715610593102	1.55970849015353	1.55108489870658	1.57190877009157	1.57257375454916	1.58029854798398	1.54892359180722	1.54676090651918	1.57273771408174	1.57961119182039	1.54201100970614	1.53824760251963	1.58393078857452	1.56200469203634	1.59126102439717	1.58802849636374	1.59245769072072	1.57839514914125	1.58889593102478	1.61907979655542	1.58264293829447	1.59572234886496	1.60153847772933	1.60654971512058	1.59044566587486	1.60865436394945	1.59430667517921	1.58649487762765	1.60385311701595	1.62254165924752	1.64495496960818	1.62387610320589	1.62739239213602	1.63522641160021	1.64679172093466	1.66054011842297	1.62596789848604	1.65396275667402	1.64738263656035	1.63597889550799	1.69149024104976	1.67225893157891	1.65721271335886	1.64382982840498	1.66790986270062	1.66356780888394	1.69018598510904	1.68692796876904	1.67671891277766	1.6749080822476	1.66406921867124	1.66186400090632	1.65575167315308	1.68714076675225	1.67444000494751	1.71328434964394	1.67631999194394	1.68659444976691	1.68575379587687	1.6835649174888	1.67458589115715	1.70762373277666	1.65194811886003	1.67748733006045	1.70294527023419	1.69518309816525	1.68880908222761	1.72321054725369	1.69985449749886	1.70177584801013	1.71378825276504	1.71160172301831	1.71039063215109	1.70678753953272	1.72431050656243	1.7162296740298	1.71572246839883	1.73734405788135	1.72582796747709	1.7422283639293	1.75115803020032	1.7404341612637	1.74296701043959	1.74132156141226	1.74609659315299	1.74578368009605	1.7553553855322	1.76111129629524	1.7530201706839	1.77254998197391	1.76126196422649	1.77457353908538	1.75493364429554	1.75874017987323	1.75797400618272	1.76650618257166	1.76714060288799	1.78077746503959	1.76046095205962	1.78270658176472	1.78589154733144	1.78883979075816	1.78355658491216	1.77790246802982	1.75716928032649	1.77141666411736	1.81376955649006	1.79148112586243	1.78961323890838	1.80203628891904	1.7979127356949	1.776120381269	1.81058803090809	1.78302246594602	1.79061425189411	1.78484694230138	1.81034109311211	1.80684621799671	1.81749917656384	1.81853814459792	1.80946237386678	1.80682278901176	1.80770952083146	1.80034621443508	1.81525134416503	1.81051822142046	1.81740160353385	1.82018197850144	1.82333513941248	1.82808267932565	1.82455727355639	1.83409384527826	1.84442442897979	1.82751426631914	1.82903967387135	1.83189801429472	1.86378955100119	1.85563838564469	1.86758381883806	1.83892906130799	1.88936279263837	1.86561906202062	1.86774935015208	1.85088081068006	1.86727241262884	1.86022083335291	1.86882854658848	1.86869726265776	1.88686945845012	1.86597973787193	1.85222441638104	1.89077361975532	1.88064524680852	1.86093402134872	1.88342028273201	1.87804451216133	1.89294200446474	1.89015220475086	1.88653500637169	1.90998263676272	1.9042435110702	1.89099379512177	1.92741437593036	1.8983037087255	1.90589657843868	1.91845435978516	1.92362485682316	1.91900079609357	1.92608874498867	1.92605105353033	1.90420638451613	1.90880669749234	1.92211211195849	1.92790551870516	1.91893478180076	1.91129366762226	1.93020723410867	1.92976322410849	1.92772631645334	1.91253290311725	1.91911394549369	1.92966924178027	1.95487815877536	1.94410940946602	1.93986644242391	1.94698723950385	1.92007751577439	1.93780386719711	1.92591795151747	1.92121501127859	1.95061116773747	1.94840017588799	1.9556563220644	1.94481009850513	1.95477136399392	1.95226037084791	1.94087730645838	1.94479541840677	1.94792682897255	1.96413955187513	1.96513517981843	1.95555169002967	1.97006884735059	1.9657513659787	1.98370970586001	1.96485767982741	1.99215392539306	1.98432789844567	1.97879658517493	1.9787549941592	1.97736808597984	1.97480355730231	1.99161389063565	1.99602046143247	1.96873392058022	1.9939669717688	1.99045019325709	1.99710870817556	1.98420921137135	1.98496479279491	1.99453016571063	1.99041233821417	2.00553491813225
"7"	0.528135428068445	0.488907166507012	0.50657456919848	0.507858745009288	0.497256607337101	0.521548286997456	0.506414639700021	0.498978369424109	0.509346055158919	0.519830754251322	0.503735344748327	0.524524955199275	0.510861112535743	0.523892536408564	0.517346497097438	0.537566808057524	0.514179818923602	0.529659186710373	0.521058649403154	0.526249710733663	0.52945985870859	0.510597202043929	0.522511327152543	0.545991334443278	0.522850764638837	0.534975013196804	0.532021917226042	0.506356215908047	0.532944780274593	0.529608855821314	0.52638526251044	0.518900913884973	0.520322736538558	0.510713266057327	0.513758768486072	0.514682145805936	0.509679943469465	0.523819432804192	0.524993290032567	0.516460148338813	0.51600168839414	0.531900397778105	0.511614273964284	0.523085306519401	0.515439237646085	0.529912095825496	0.52369806560005	0.512589745835369	0.52204560103466	0.540338002570243	0.519719546496119	0.531533901313756	0.525179794731815	0.532605489600319	0.52969299137726	0.520359379106521	0.538138899087422	0.54459871416736	0.545124010383716	0.522355389798128	0.53256558403654	0.536920540340021	0.524105886643397	0.553881405412434	0.537537539672065	0.539796819002995	0.535142639092646	0.542259495718186	0.541330444895586	0.521194899661189	0.534218647656186	0.533968581084025	0.534376838187027	0.546569717972183	0.539802116654696	0.542391560023548	0.55173554045101	0.537378230463051	0.539813303959317	0.556269427262856	0.545764951457332	0.546557196013773	0.531766819877907	0.542536662571316	0.5191944842576	0.535516324284793	0.535153963940941	0.530911418137614	0.541613265882603	0.532590103600808	0.54136456694479	0.541822064549455	0.529983832927096	0.546359520830135	0.552284471955934	0.542206889860001	0.53524093950327	0.538582534919779	0.545352481765261	0.541476527163592	0.540701414669479	0.525220834375341	0.536114775592384	0.540635205457922	0.546318360484057	0.547107706204056	0.556165131894806	0.54510750919621	0.543823304301005	0.545754292006492	0.55032588113268	0.535447719183861	0.543249830199179	0.551710851783214	0.540235285797169	0.542525972238686	0.545830287708614	0.54453183392139	0.5386571421241	0.539640824532176	0.541773105037422	0.548817444286347	0.543855404026033	0.537260973569198	0.541502955591558	0.539765699209768	0.550349039942005	0.548781723119421	0.545317379617284	0.52970264520932	0.548975158882638	0.54599711699753	0.55090191145993	0.537948617942976	0.541265401401796	0.549942817484695	0.549429947296957	0.536779115528426	0.541196646225362	0.544832143037691	0.541979759776493	0.550023659591671	0.546246022731735	0.539501300996491	0.550159891896253	0.54200737374244	0.537031924330752	0.546232615540749	0.540604937928209	0.535795141549713	0.539911594975342	0.542140314019454	0.553298132261392	0.546887063056655	0.543809860853778	0.549811859231932	0.55370419624624	0.551943894099513	0.560372108301467	0.54380751010684	0.537139230610898	0.548596698392409	0.550715143996653	0.548825027226564	0.539790964857292	0.550668544305513	0.549498042880795	0.558625792872079	0.550937799055498	0.540706170909889	0.553662147873721	0.554234829954041	0.550968148435993	0.555904389529817	0.548812314537772	0.552532911390033	0.549271915037459	0.558487069689882	0.561063023253607	0.546895912497069	0.543980195639626	0.555887000827014	0.548784933316823	0.54775382301333	0.55268278473639	0.555518037983565	0.561577993397514	0.552240600531785	0.553618124083514	0.550030500915904	0.545980245817274	0.55208771435155	0.551630094055987	0.550433251597277	0.557319181599528	0.550397051922917	0.556426751128454	0.549108911953097	0.554438151283351	0.549508217491758	0.546714555240369	0.540410297775962	0.547989961697878	0.545802155828428	0.549612912810041	0.552725351266909	0.555654016863227	0.556700031856789	0.541412203466033	0.558484255820436	0.557110104968679	0.541360572507078	0.550568898187295	0.54992426179856	0.553190107290664	0.547037411282838	0.552821689783478	0.560175921562721	0.551285487640797	0.551629672464365	0.546078552458094	0.552498041110572	0.55498809207649	0.560804155268047	0.552699581516523	0.556617316966881	0.549446725238044	0.551132671186922	0.546129557586372	0.553053508097392	0.549979974344124	0.549696663059931	0.544749251202012	0.551920350361853	0.545759734489641	0.54800193027481	0.553031811591385	0.552239944239416	0.555110232116969	0.550278342532969	0.549853575064988	0.545749489139411	0.553259098788369	0.553688176731772	0.55339185909305	0.551278097404658	0.555331152147682	0.552600821789729	0.549337156863815	0.55027611034325	0.554289400559089
"8"	-0.740329687609946	-0.697308563101234	-0.709820318430668	-0.703518043772075	-0.716711964728065	-0.755352154643111	-0.693918643929655	-0.715268665501973	-0.724531700233498	-0.740841165107548	-0.717986354970434	-0.740415312678674	-0.697577787720364	-0.721761848085016	-0.705649436676505	-0.750803518788255	-0.699027899732134	-0.725656302185561	-0.726359635021112	-0.737714585266933	-0.708568223994868	-0.707286271483367	-0.704802613554573	-0.758330258849658	-0.700402429280087	-0.708903125156379	-0.713085933327056	-0.65872834404711	-0.692386762194475	-0.685986802504464	-0.67080208771419	-0.648468648261872	-0.666443455667193	-0.642443660764123	-0.66271595433119	-0.679576187363239	-0.643446291475758	-0.655570780190542	-0.678309147964095	-0.676557373164688	-0.669938289248066	-0.687120342349459	-0.654951922292381	-0.678386922939084	-0.670279695640713	-0.669583599723997	-0.697236576398594	-0.659544599945358	-0.666643821547834	-0.694238203390999	-0.666015296915988	-0.67818789532155	-0.689126137785715	-0.68150066299151	-0.686329899897711	-0.677078827074219	-0.711519522515817	-0.692283453872723	-0.677828994927444	-0.680105417874961	-0.692184117294449	-0.691129305348392	-0.656920703754043	-0.688928394633821	-0.701126846043357	-0.681146882703524	-0.691728281017032	-0.71040866349887	-0.671522641757308	-0.657934938810177	-0.690972169956932	-0.696370633515151	-0.710431763053585	-0.694279782406906	-0.691909256632975	-0.684791316877335	-0.718269404119163	-0.685691577453867	-0.700729927151485	-0.735070163011019	-0.706172606345719	-0.71409356344849	-0.680567365375142	-0.682438778335506	-0.66350347613036	-0.68299783058759	-0.683560055171563	-0.672116602928794	-0.710070540951488	-0.672765824419754	-0.713320288894847	-0.679816884346287	-0.666308477143741	-0.700252509961585	-0.706893182955962	-0.678843317397076	-0.677391689234948	-0.692237364655057	-0.699446888912213	-0.680322917857952	-0.676797174053164	-0.668727711295831	-0.663701749905667	-0.680074902896702	-0.683523085551102	-0.676405118180446	-0.674406101682524	-0.658195052645051	-0.653474343519677	-0.67819175533591	-0.68630981119529	-0.645223342157323	-0.673785993152604	-0.693220969893648	-0.668069595259486	-0.672956487990868	-0.664578288874101	-0.674432818591482	-0.677855902830804	-0.677382563476739	-0.683760869638933	-0.674761669246972	-0.668810526232934	-0.662023567746971	-0.653891941183778	-0.650427476464024	-0.674763283300851	-0.655009548654827	-0.660072396862085	-0.631008141503963	-0.667734452901023	-0.657363733652487	-0.680812524780778	-0.663892907410514	-0.652917603324433	-0.660375469033143	-0.659737244948951	-0.633312167593008	-0.64046286272765	-0.673363191789552	-0.651072943476519	-0.685326303676628	-0.658209443505945	-0.655895392787748	-0.652321968120708	-0.645981744065937	-0.632267917399695	-0.649783547065238	-0.651290358120653	-0.617947977932126	-0.64505570480997	-0.656199004198059	-0.663921264608896	-0.656985253985055	-0.657230908275667	-0.668298769449165	-0.66660655833594	-0.668729815438758	-0.67496879407181	-0.641291229056407	-0.635240710551856	-0.648551876008092	-0.64586000178633	-0.640830054350935	-0.621074638931503	-0.641976145527225	-0.640583098013035	-0.663239545887071	-0.621379866546002	-0.624563501024668	-0.634305005907871	-0.647393466881048	-0.645730756848355	-0.650095737773198	-0.626502355759732	-0.629038085964486	-0.645760938753618	-0.639269592085183	-0.661160476734561	-0.627881223634138	-0.635877171518645	-0.670366201920711	-0.638732552255402	-0.634950467430394	-0.638882183936166	-0.647241750791161	-0.652859098371436	-0.629234469611572	-0.632982941885623	-0.635728835064187	-0.616615744092377	-0.635642904147852	-0.620226688100003	-0.630916677146978	-0.63447893708305	-0.621032138561668	-0.641126318662913	-0.621189333053051	-0.638247629741857	-0.637222178438944	-0.631189896762017	-0.603592854693665	-0.628378962870923	-0.633625892300827	-0.631179445685512	-0.640614375059219	-0.639219793098656	-0.641586182376853	-0.620735290131004	-0.638374585198309	-0.608922979625004	-0.614575666125537	-0.61407552000561	-0.61327145686983	-0.632938076179204	-0.624349853786596	-0.637168094475464	-0.641757692227648	-0.616006468030466	-0.622955242230806	-0.605259223786801	-0.622693865528956	-0.616379310694149	-0.626575814621443	-0.621966924890153	-0.638109057457283	-0.61467385826549	-0.602870376490847	-0.614128686830971	-0.6119364559061	-0.610758631044009	-0.612102950936129	-0.597494821473004	-0.608545644040342	-0.59336816879955	-0.601505838100171	-0.613180383504307	-0.601406244121033	-0.622128701597343	-0.613125144400401	-0.605818223910887	-0.588792208124225	-0.615830358518889	-0.593263526951107	-0.605156340558666	-0.609024678579895	-0.611121765150869	-0.610952494147438	-0.602023999726998	-0.60618487025583	-0.602970326223963
"9"	1.6679485447029	1.69188418260846	1.70621384488387	1.71409895335367	1.73085319283753	1.71474110223179	1.75887763037941	1.75877416924492	1.7601547814596	1.7643037768556	1.76058638089236	1.78789765271179	1.79109104431842	1.7923792776914	1.79215822265892	1.79615596366333	1.81245571873135	1.80555560032454	1.80541435410538	1.81522336661402	1.85079464695758	1.83615742471289	1.84842294195344	1.83067147623379	1.84280970349844	1.8414514813	1.85605749572104	1.85589987884721	1.86082936897732	1.86153972751262	1.86763607910673	1.86445624039133	1.87380615618191	1.87350452836794	1.87931961208317	1.8741044511549	1.88061026689256	1.87827044016913	1.89353478889867	1.90131695840586	1.89768595060455	1.90944208947072	1.9114486192971	1.91050210513833	1.90491021886808	1.92061269720029	1.92243090160015	1.93292648335307	1.92446137914257	1.93192175655757	1.95028463546827	1.9417738784811	1.94144728738447	1.94905033139655	1.96885702608777	1.96461306021281	1.95004239721351	1.96238147745212	1.97595164245398	1.96292526071043	1.95747349960712	1.94564109363376	1.9689022719464	1.97643583460346	1.98518352820391	1.98271007293819	1.99305397162599	1.99133197225453	1.98302361672099	2.00308181060328	1.99588224918421	1.9851613170916	1.9832489868073	1.99223855680829	1.98647556303306	1.9962900123872	1.99439677935002	1.99621008698998	1.99186462289196	1.99608097989756	1.99202481822648	1.99556700653847	2.01031006210841	2.00283394881838	2.00984836798859	2.0104915128972	2.02213500263094	2.01267153715	2.00756582931862	2.01737416953473	2.01441166407393	2.01967818546343	2.0232603582862	2.01510931070266	2.01641790933953	2.03200997089687	2.0369747503045	2.02524271842133	2.03480118395768	2.03258774170499	2.02642199583655	2.04342487920234	2.03955178352469	2.03338532065583	2.04738081746427	2.04249065238381	2.04646701641757	2.04047088507918	2.04632430667204	2.049031379615	2.03502359298116	2.05256794699581	2.05709093771873	2.05024131703253	2.0549628977585	2.06105563773347	2.05453838671283	2.06051229638589	2.07740884173617	2.06858865211758	2.0606449488363	2.06086176829454	2.06061324162482	2.07027047415388	2.07575123773992	2.07523363950018	2.0758188658547	2.07893143987182	2.07578468934198	2.07615890795313	2.08252088027396	2.0776925831524	2.08802410714544	2.07914962787537	2.08396798282522	2.08095622960725	2.08451682469293	2.08545211846835	2.09423858537949	2.09311082060986	2.08998859475914	2.09058773690842	2.08531850499672	2.09280456385979	2.09753968931817	2.08892843344384	2.09451042918819	2.10180917772798	2.09976002226178	2.1043219889455	2.0997837369891	2.10316535006369	2.1036020899254	2.10180131825292	2.10448013896385	2.11529171661593	2.09759433266747	2.0999540081992	2.1122140828148	2.11214883917108	2.11090187132633	2.1097170164471	2.11199034442438	2.10364587189752	2.10917959917919	2.12310035280643	2.11996090668419	2.11835909934286	2.11736563692694	2.12500325616766	2.11966040928441	2.1142478863736	2.1210838900296	2.11873516260011	2.11622165391619	2.11579860095712	2.11517039345633	2.12994787580035	2.1246789915877	2.12670421067432	2.12921964346736	2.11866586476442	2.12665089914296	2.1188120866395	2.13541784507716	2.12569000202345	2.12338181284057	2.13650451914764	2.13856809744083	2.13630120349202	2.13784874022566	2.13977157748958	2.14287561282023	2.14500336787971	2.14775724992825	2.14555443183713	2.14990470584398	2.14391284099016	2.13910113037804	2.14082000945594	2.14274333226207	2.15129334610125	2.14479517046319	2.15138856437021	2.14720680218324	2.15318944745256	2.15519898052063	2.15067075336951	2.15022148948153	2.1552981686508	2.15350560772168	2.15391992699573	2.16226850137093	2.16393689930803	2.16011297928202	2.16429086685888	2.14917521706367	2.15341862790408	2.16169346367263	2.15151266065627	2.16564709236056	2.15984306709295	2.15946710348643	2.16546472978832	2.16334653622101	2.16287021324123	2.16758563982653	2.16394109434357	2.16842520359072	2.16908643233253	2.16248866064549	2.16653888576098	2.17057718802398	2.17291260277185	2.16764073974531	2.1736498098817	2.16819679709633	2.16913579699186	2.16830690979732	2.17860962768041	2.16646302316145	2.17754760929158	2.17351117348887	2.16487051617007	2.18596131118909	2.18142268802142	2.18451410031414	2.17858669194044	2.16908649635452	2.18006718662596	2.19263901943161
"10"	-2.26147253579276	-2.32678609877815	-2.31883417587599	-2.34038717104093	-2.36270446355354	-2.32465387236851	-2.39588018740701	-2.4112776391357	-2.39733995770863	-2.3833332593327	-2.37480653962356	-2.41414124029141	-2.44168031110581	-2.45323289140266	-2.42056032989	-2.40180211044939	-2.43511153818895	-2.43062177162101	-2.43011861739844	-2.44320473195998	-2.49209191779383	-2.49628224824759	-2.51397917704241	-2.47806763844181	-2.48723844706566	-2.49816820161958	-2.49957522320919	-2.51395702528691	-2.52548483482699	-2.53091530654267	-2.52731539144671	-2.53445106830177	-2.5358249432554	-2.53550399795908	-2.54554867199653	-2.54949289235704	-2.56231231486693	-2.56270518489074	-2.58798228289583	-2.59119075975442	-2.61312533207147	-2.61798190450492	-2.60018841010937	-2.57169474344254	-2.56507298969586	-2.60912551621261	-2.59000339356575	-2.60531427568908	-2.58714114099905	-2.5808001843974	-2.63141657744893	-2.64526574066385	-2.62725616736371	-2.66242638086565	-2.67478164265559	-2.68978146489129	-2.65384998576743	-2.64869588856046	-2.70030382329605	-2.6466249483632	-2.65689920637287	-2.63489130500319	-2.67713922367436	-2.69748453354945	-2.71333162293678	-2.70968576482057	-2.70658206027584	-2.72221607351689	-2.71621637812978	-2.73309674841615	-2.71305084099081	-2.69375809538767	-2.70502233092182	-2.72197497086625	-2.71600077967608	-2.71143118136731	-2.73503197886936	-2.72900093999019	-2.72031950952443	-2.72160898109553	-2.71599995366208	-2.73392033044176	-2.75284933313142	-2.75189360703403	-2.73722690125004	-2.75595714321294	-2.78038103078578	-2.75534174082793	-2.74884400811186	-2.76524630505203	-2.74989499021206	-2.78367734049243	-2.78486039433312	-2.76249526974222	-2.76407890346978	-2.80197987518044	-2.79391914071234	-2.75381569537436	-2.78804513513894	-2.77080452686227	-2.75967666172746	-2.80909789748925	-2.79969465184271	-2.79575371161605	-2.80884882293345	-2.81062247632186	-2.80693379271269	-2.8148692331958	-2.8304579808195	-2.81629429542909	-2.81517210629346	-2.85463034898217	-2.82044978465515	-2.82799100805418	-2.83309218213069	-2.83361868607618	-2.82531546121015	-2.83507597982434	-2.84501561005533	-2.84492620441922	-2.83460346884765	-2.83350049245943	-2.84720217356672	-2.84205250408283	-2.87363869279642	-2.86790542149819	-2.86494303033034	-2.87031996822768	-2.85742562465425	-2.86819435541017	-2.86807500548187	-2.86633724889381	-2.87610268184731	-2.84731163719013	-2.88185108839096	-2.8840486571027	-2.88946586322376	-2.89405547123744	-2.89470786711459	-2.89964364631231	-2.88539694298322	-2.87651595360383	-2.87163301763283	-2.8902723647005	-2.90327027073951	-2.9047610447454	-2.89067615459206	-2.92761807506442	-2.90799540172093	-2.90746724402176	-2.91152596730707	-2.91089460864041	-2.91130073146511	-2.9074644003101	-2.92730353073369	-2.91717961526021	-2.90988577132745	-2.9130747330224	-2.90673454479655	-2.93495060052847	-2.9303530458581	-2.93295550855829	-2.9256152507197	-2.92598854552066	-2.94476986689745	-2.95451515454876	-2.94583439509327	-2.94819430888391	-2.95974195480778	-2.97201968342165	-2.96456569030784	-2.94033293674706	-2.95551136882727	-2.94832101964791	-2.95192775702794	-2.96423832829205	-2.94398437475706	-2.9808779698933	-2.9485650323803	-2.97098229728042	-2.97928620291458	-2.93850581597295	-2.97303210442146	-2.95888709110087	-2.98346888609754	-2.96578779481424	-2.9845959808074	-2.98870404282573	-3.00707045599928	-2.99075377799919	-2.99421330449762	-3.01273917547883	-3.02197418220705	-2.99593190298907	-3.02321063579806	-3.01868734487304	-3.02288906107653	-3.01555881055806	-3.00622239282929	-3.02529154908914	-3.02154915750103	-3.03274754834704	-3.00653266970914	-3.03038197859706	-3.02832711349749	-3.02974829504079	-3.03588668462536	-3.03578578432553	-3.03028719829842	-3.04103095722961	-3.02270839687138	-3.05905467338779	-3.04269802027871	-3.05406553152941	-3.04005993657725	-3.03327599956299	-3.03577520183809	-3.01051074424429	-3.04188589027448	-3.03058665291983	-3.04275382264826	-3.03691986153994	-3.06428063049376	-3.06665580733027	-3.05855162490808	-3.06399857382272	-3.06781313620988	-3.05663145583001	-3.07523870921646	-3.05575320853062	-3.05766867986253	-3.06828674565362	-3.09076214000825	-3.087985844488	-3.07705525286637	-3.08804693035496	-3.08687133453564	-3.07776240638945	-3.08259573466577	-3.09622632383186	-3.08425491718848	-3.11170385815276	-3.08995575972074	-3.07841208269119	-3.11707132572655	-3.10715323321048	-3.0971740308774	-3.09993172254474	-3.08309367021498	-3.08807634292815	-3.12612382909645
"11"	-2.54856792292895	-2.55577134560716	-2.54054274537218	-2.5561344501019	-2.56649182632446	-2.56328944461859	-2.58383275935201	-2.61444136875197	-2.6141185237001	-2.60883676928121	-2.61088531479276	-2.61586468392634	-2.62203254916622	-2.62818930714434	-2.6348600664239	-2.65454990938951	-2.66059490509056	-2.64671670180319	-2.65184282719023	-2.6710916920407	-2.67005083628517	-2.68242119068768	-2.67449294861243	-2.68922099978505	-2.70447866598938	-2.70200640721967	-2.71020862316662	-2.70614312419439	-2.71861192756273	-2.72698399675053	-2.74180724600597	-2.74813601441493	-2.75814124718136	-2.7792122546279	-2.77142962328165	-2.75861110713616	-2.77047493644607	-2.77079863190068	-2.78069940546699	-2.79885469144248	-2.79789793032809	-2.79287626338413	-2.79150291213566	-2.81227411968161	-2.81110564279119	-2.82344929106143	-2.81971023228472	-2.82518463759849	-2.82267751276825	-2.84424887659668	-2.84269274440318	-2.8456704396535	-2.85806230161149	-2.87178320216609	-2.86792391886364	-2.85958651267593	-2.85882957862892	-2.87220677766193	-2.87922183218188	-2.88429169327609	-2.87574024146155	-2.88507991097893	-2.89531897440906	-2.903201004184	-2.92192564053583	-2.90957987248096	-2.91433993237688	-2.91995547255208	-2.90752392678374	-2.93235457685689	-2.92248265409709	-2.93254380151006	-2.93167028786422	-2.94329014627381	-2.94270517033206	-2.94844463213043	-2.94368183822594	-2.95309820734488	-2.95085801467762	-2.95243016840406	-2.96051501641234	-2.96120811241658	-2.96392270078117	-2.95957081483259	-2.96622767741178	-2.97980164475645	-2.97312071315811	-2.97482310044058	-2.98177452398367	-2.99274972137943	-2.98849482564636	-2.99979887066208	-2.99873466129847	-3.00722160129514	-3.00542491597149	-3.0107216135688	-3.01379612872567	-3.01341907643432	-3.01806534148963	-3.01967227551726	-3.02128763270992	-3.03141392918744	-3.02916441645049	-3.03130708137981	-3.04968891691289	-3.04137560892595	-3.0389345231877	-3.04791949660323	-3.0556741556863	-3.05212072947432	-3.06130945474718	-3.06281977742729	-3.06667135636892	-3.07612313712641	-3.06552862240891	-3.07391938591825	-3.05999996472387	-3.0737355052704	-3.07656505472961	-3.0903070154057	-3.08690101656405	-3.08340091564189	-3.09111843764022	-3.10311524148324	-3.09786199507995	-3.09659206559291	-3.10314789616869	-3.10519429152338	-3.10645836613348	-3.11045612604791	-3.11749340133462	-3.10910550968369	-3.11857764475522	-3.11467161669443	-3.1183343093895	-3.13425889433184	-3.11921447620468	-3.13547755328521	-3.13442846732103	-3.13328871076168	-3.14413430490789	-3.1446790500832	-3.13729421957803	-3.14484187912403	-3.14441527235871	-3.14132297719437	-3.14963571683285	-3.14792100465841	-3.15052353261641	-3.16382561458098	-3.15759461814052	-3.17246612024759	-3.1651986410674	-3.16607865991626	-3.16123050946921	-3.16865135665996	-3.17624089060365	-3.17340793133228	-3.18007774075434	-3.18176430658975	-3.18104255234241	-3.19082394212289	-3.19036442303972	-3.19262136100853	-3.19113387865478	-3.19447536833445	-3.19796595663311	-3.19550614066145	-3.20679476316375	-3.2072297858792	-3.20939835726607	-3.20614878297653	-3.21691328013847	-3.21682799942831	-3.2123930164502	-3.21970324220286	-3.22759220590985	-3.22297624552064	-3.23526466658899	-3.23165580723438	-3.2357810440828	-3.23391593094462	-3.23574256604455	-3.23358294241213	-3.24380284699119	-3.24345738555119	-3.24003866002909	-3.2451801700847	-3.25439634111295	-3.24866211598569	-3.25599996154807	-3.25850945450921	-3.26145485311277	-3.26343031037064	-3.26239651661954	-3.26688836514067	-3.26028739411506	-3.27287575874487	-3.26815720586058	-3.28028670560865	-3.27615180512394	-3.28279950130555	-3.28161650824993	-3.28926522187099	-3.27930596927185	-3.28769032589278	-3.29347574566966	-3.29185692005004	-3.28972089151056	-3.29493221747738	-3.2985587240532	-3.30791159318115	-3.30087117709992	-3.31191810146468	-3.30646155409233	-3.30748236092776	-3.30505666248844	-3.31883812634481	-3.30926579269728	-3.31448117902486	-3.31324192192102	-3.31942851255291	-3.32079457241016	-3.32330744542334	-3.32140013458289	-3.32310416556953	-3.32552685827572	-3.33429591322852	-3.33023969182702	-3.33471753312875	-3.3316008862549	-3.32993444061421	-3.3404616883869	-3.34444950519372	-3.33309392850168	-3.34439704806892	-3.35192228248094	-3.34639220782189	-3.35552031633738	-3.3541600284806	-3.35336473824654	-3.3594080229455	-3.35881816445455	-3.3649795016888	-3.36226144816322	-3.36302904932383	-3.36822424494126	-3.35667369567686	-3.36749395042665	-3.37033152669995	-3.37047899868796
"12"	3.7175044439026	3.71499330387587	3.71715145269505	3.7522116591541	3.76077545361144	3.7936734780312	3.78131623526416	3.81685551716445	3.83328457322441	3.84182481679771	3.85358751942195	3.86973928633727	3.85901811452238	3.87189119995997	3.88784492186159	3.93349510851687	3.91643197590597	3.91369285123614	3.93175688855907	3.95479286892171	3.9513654342478	3.94792897037397	3.92831034410002	3.96562874547607	3.98103469024698	3.97092953123713	3.98669978864006	3.98736056013742	4.00099237519056	3.98809616090528	4.01891173196508	4.01472338167377	4.04830627824092	4.06095431968483	4.06272761498726	4.02481548280569	4.04305433115749	4.05006694842662	4.0596764259592	4.08727106088191	4.07220070678276	4.0615598173615	4.08467216086817	4.14519521443717	4.13761700147653	4.12105430316991	4.1452919841947	4.14869558807884	4.16229010855776	4.21601271389617	4.18283842418105	4.17951819934429	4.19892897298871	4.20161197410593	4.19967870926938	4.18710273603588	4.21550249956947	4.22627857908603	4.21979085973431	4.243608697233	4.23592561444271	4.25556550626118	4.25287426786753	4.25814541580217	4.26935616536318	4.26322393082744	4.29672147469762	4.27260969171882	4.25790878578576	4.28692054338311	4.2867964289193	4.29744733123419	4.27597063020451	4.31212386165579	4.30183773612679	4.31407402625545	4.29597320614171	4.30752030980161	4.31650576043506	4.31695043734035	4.33478042855042	4.31890256582248	4.30901648131575	4.31404142401737	4.34063500427794	4.33956818674852	4.32502338897244	4.34618941119335	4.3546525735013	4.34382729261696	4.36837079445818	4.35174859222165	4.3515757522429	4.37993670793695	4.37089711128547	4.3556660245021	4.3811438773907	4.3930714152341	4.3759731018092	4.39577995151052	4.41261143381142	4.4069062215373	4.39258195097638	4.3978781211994	4.41801054936616	4.41633938485573	4.40059815381464	4.42890774389026	4.42594723087333	4.41569538734606	4.42627583768835	4.41897768915454	4.441139760585	4.44519276348124	4.42993860646133	4.4505505336852	4.43632854100352	4.4493569243893	4.4506716832437	4.45971876297685	4.46544448109456	4.46133787406359	4.46019364913163	4.48444469145288	4.46983027967014	4.46140937150585	4.47495392512127	4.48449714905887	4.48677946001847	4.50021009131471	4.49921014810585	4.47913301925347	4.49955003635105	4.49486762477835	4.49470798923197	4.51180204441721	4.48604804749282	4.51729576798857	4.52090562599406	4.51647158231513	4.53646222548478	4.54033805959571	4.52840770826776	4.52612542876115	4.52239575562681	4.53659149543346	4.54304918957329	4.53227762994714	4.53965142185662	4.55169107197938	4.54032664714345	4.56107290789447	4.55974300689725	4.55472982492434	4.54521250693725	4.56997779643196	4.56998205973418	4.5625315248979	4.5747532103764	4.58008674403391	4.57461519132052	4.57871936897989	4.59491926976167	4.59884887236751	4.59190428999114	4.58455026910651	4.59009493394148	4.5982835808061	4.59920714458208	4.59212095558992	4.59591182156738	4.61855120034636	4.62410796194782	4.62026351488482	4.60886765419139	4.61295785491365	4.63010350561884	4.61979215052593	4.64937589321019	4.6290608841394	4.6298768100526	4.65381072072024	4.63274421380078	4.64123439830905	4.65551067378747	4.65558526772509	4.64993516012867	4.65102038147845	4.65652440950431	4.65400340830956	4.66155435987957	4.66506464496431	4.66099665075954	4.67404851316202	4.66339221190001	4.67347133859415	4.65890275795514	4.67650483479408	4.67906998130685	4.68279919020249	4.66930344984111	4.69290993844535	4.68886923179758	4.69518865730251	4.69190039239311	4.69486165381472	4.70051264538781	4.70071778604826	4.69678883410533	4.70366576725601	4.71711734203981	4.69789754855343	4.7055909239931	4.70946926850015	4.72398083463103	4.73304328718846	4.71657702910387	4.74830854629061	4.71563001036883	4.73386064981745	4.72975734215914	4.73595653793605	4.7265223238275	4.73790531050675	4.75047260732046	4.71861506497565	4.73948057003382	4.75994602240398	4.74020782779272	4.75736012297959	4.75697859614499	4.74098976665012	4.74379456964245	4.753839932768	4.74965014018244	4.75559774408051	4.76296583029623	4.75682232547053	4.76858303164986	4.77099084891889	4.77710277689538	4.76730609923225	4.77726153113878	4.78241924170868	4.77366201318556	4.78355575501038	4.79134805473212	4.7775329514947	4.79133029802337	4.81363150708775	4.79174499726961
"13"	0.186399033613673	0.335265543142302	0.411589498121231	0.430394480442394	0.493268117948357	0.51327758303008	0.49204601983536	0.560182150612861	0.564605782205663	0.571535006131532	0.626547776037153	0.603185713021623	0.58331643583156	0.572827850014065	0.534773009144678	0.595200453790993	0.590207381172041	0.574467827237509	0.595138556421033	0.545104055243111	0.576070341779983	0.593974293318957	0.648117304204779	0.640421641305824	0.616647339998702	0.600778600957107	0.607667849977429	0.605664501944882	0.633516484460047	0.637390616267997	0.617088291041084	0.63683307185354	0.607969962692664	0.58946501872717	0.597873551200191	0.635235420508589	0.60295864601802	0.634277993726662	0.623667139848612	0.624663986687208	0.647080949401494	0.621134438069646	0.654503948833247	0.616189438702725	0.603493026813072	0.63489313029045	0.656585024990135	0.644255156323248	0.674085888310594	0.674795961806391	0.663432231197043	0.66263790126516	0.641977546340952	0.66597628151248	0.644894141787242	0.672212411834553	0.681401452084373	0.644786112494474	0.662518317999607	0.657185370491742	0.647294434155863	0.684836422751941	0.681152117562677	0.654436278315867	0.668178877938677	0.689614392066228	0.679175220828226	0.730269681644634	0.686976273779226	0.650088622221132	0.662792159833969	0.635913649615167	0.667364962253797	0.652767685148334	0.658745740387213	0.676224851448401	0.633740838551585	0.656978237138991	0.666498464176591	0.658164666849481	0.671890332651679	0.676146379691446	0.670920898453469	0.696423685283216	0.655001628472222	0.67340685720165	0.66726239428114	0.672987111243015	0.680313183935553	0.702984871149821	0.696212619510475	0.67973879682819	0.668952666719814	0.682869021893721	0.702864438152905	0.688702599699493	0.700880780303829	0.70322144973446	0.654389209889005	0.667875786766561	0.652920067702025	0.690295148202756	0.691415698407702	0.698471833888022	0.688274656260875	0.701888912965289	0.690037137393575	0.661377272047068	0.640262133044764	0.633579083672038	0.63883216572672	0.657191927574071	0.660949509566146	0.647741444445538	0.682659749721511	0.64407122487272	0.663374244350743	0.693912115307474	0.684910445285648	0.649850733999695	0.677836063167969	0.675096619130113	0.678113938174089	0.666955428035728	0.688312046768708	0.694680669679475	0.678248892152242	0.647243120518577	0.640239872651521	0.648483448411555	0.664050751076657	0.659391932348439	0.65230869741288	0.661535723517526	0.651941507208642	0.673914666101512	0.686131206326359	0.653121531464254	0.680581163389108	0.672330477861059	0.667912645011408	0.651076186832635	0.646442214538253	0.661971070190296	0.671193993599319	0.675408286791128	0.644147038848617	0.675537411229915	0.681356018706219	0.679961767146617	0.687785653911404	0.667513963900842	0.674516493076108	0.656302617024858	0.683087205688142	0.650995544645909	0.660388028538874	0.646172957150647	0.642179330484286	0.594991029876144	0.614440781858422	0.64044840312044	0.639492805393029	0.643793700442958	0.671296861100217	0.660654249129967	0.609120418339435	0.625100494864624	0.604751698473428	0.629397830628544	0.637174096445116	0.648212039406461	0.637169631304533	0.622869425096192	0.606891162151464	0.643432690950551	0.64718087758846	0.629018312813508	0.598506222310991	0.612407560882375	0.642289587477257	0.624547540724435	0.631884224908937	0.599646276062045	0.611546551217844	0.632320260558971	0.616991055037445	0.615304001124741	0.632830333663532	0.646128368099788	0.637896572528305	0.639569229603261	0.683515311793456	0.658765391943373	0.688779062762998	0.675544592661728	0.665481226748749	0.668861300093074	0.659222707577959	0.681933006764882	0.691788232065383	0.673260174967766	0.669699000750456	0.650772972798602	0.652897506781622	0.626888662037956	0.632040139585612	0.649460381254274	0.643673264755411	0.626059054497733	0.645456553804264	0.640550833724334	0.628923323404239	0.615276530225149	0.627867424874388	0.638321079936562	0.646020737843078	0.63696924043895	0.656385268264386	0.639769420621558	0.626139618199484	0.63276760521072	0.632652603897651	0.608203198485342	0.637511881400271	0.637201762488706	0.650371669160453	0.651681732546389	0.623969475573039	0.620050018566322	0.611671132517508	0.62154120604271	0.620015009852014	0.617769668963714	0.624689551023332	0.628386381381408	0.619397568861824	0.632846262842883	0.633555715764652	0.635787173493842	0.597714667239791	0.610037371313151	0.6034860864092	0.605530788347073	0.632958243296958	0.628961293533747	0.610819230673401	0.594701187732588	0.584461012222884	0.593463547516832	0.5910811163498
"14"	-3.77897530395518	-3.89532718803034	-4.01030740837251	-3.97323870402205	-4.1278650687298	-4.14751010987352	-4.12318787568745	-4.26571456845998	-4.2343430478203	-4.16188333846286	-4.26173116361764	-4.21575378403648	-4.20223984823355	-4.21954451778511	-4.2571993834624	-4.25855960726523	-4.23417216169034	-4.26092958472293	-4.33003512833794	-4.29762815403739	-4.24666005854013	-4.29221715833393	-4.35768687624818	-4.39982099440531	-4.38202052740734	-4.34374230392728	-4.37269120126409	-4.37829160556501	-4.42388040368732	-4.42327661537029	-4.42424594396088	-4.46721564334045	-4.45171363674307	-4.46486839208251	-4.41931704945904	-4.41276401469461	-4.40425872293989	-4.43923829129532	-4.52737579111138	-4.51481345364356	-4.50769141001417	-4.49028188774848	-4.55151342017432	-4.47293806310353	-4.46555975740072	-4.50997225482475	-4.4964982195104	-4.53078709759149	-4.52084439986843	-4.53768632491748	-4.50122737087959	-4.57272728228179	-4.57059707573376	-4.60547110325856	-4.5692446614627	-4.61578720862949	-4.5933132213655	-4.56820592427543	-4.63115817169247	-4.56388580827479	-4.58785251436302	-4.6146791704808	-4.59263995636193	-4.59252803291368	-4.62250096586988	-4.62552638193576	-4.66850096153409	-4.71612167193442	-4.71680753925846	-4.65159147378901	-4.6425568682178	-4.63943230062156	-4.66723122419852	-4.66474898478116	-4.68477212226316	-4.73253224779212	-4.7046647408325	-4.72756784092332	-4.76936890859983	-4.76563615933116	-4.76036881896171	-4.73792153970606	-4.73931611431702	-4.85119583468109	-4.78028228216423	-4.81456493488124	-4.79125718350823	-4.82302092947228	-4.83396670466808	-4.83476505191884	-4.77437742889394	-4.78688034397907	-4.85575510659429	-4.82805080107375	-4.8404833913134	-4.83806434798733	-4.8345343734138	-4.78840801653959	-4.76740536073163	-4.8007712015667	-4.78069338707613	-4.82167076633481	-4.87990542747739	-4.89780769121496	-4.87772696262111	-4.87294733066348	-4.89546233790751	-4.84655080270677	-4.8391179363327	-4.81928598347481	-4.81524465975819	-4.91233595769731	-4.85583905639337	-4.8282853930461	-4.87444601338063	-4.82452088488719	-4.89171187980176	-4.93186789329513	-4.89448626968848	-4.82105111870054	-4.90912994657772	-4.9103452047046	-4.88250821300353	-4.87529593150572	-4.88610927605688	-4.85139284441362	-4.89746253663472	-4.87046529449358	-4.86773410572607	-4.8714586861668	-4.88216848413595	-4.91324202000026	-4.87835846217561	-4.85258157692635	-4.9446624362979	-4.90242383175574	-4.93782708192698	-4.94339285294602	-4.91804994868158	-4.88080403602351	-4.84156628657145	-4.81374978404361	-4.88082036983004	-4.89374975347973	-4.91423691231081	-4.92688436728572	-4.89437910121237	-4.93874814858808	-4.86047931568509	-4.89375835027611	-4.93296493755884	-4.95502635548931	-4.97899861506878	-4.92348320938832	-4.94312762006375	-4.89472083222868	-4.93576138137466	-4.89023709327417	-4.92539918706671	-4.92068633769174	-4.92684860844576	-4.94367719040064	-4.90455488791687	-4.94247246152748	-4.93936763048063	-4.98626048777916	-4.93190383540294	-4.94576381795367	-4.89954979565746	-4.92480363138815	-4.96135632034975	-5.00183366663042	-4.96147266498542	-4.92946765668772	-4.92861338061336	-4.9385109936456	-4.94205176161229	-4.94681208901507	-4.94868859894585	-4.94095318859976	-4.96046339912586	-4.98141612726552	-4.9972666338158	-4.98266934614767	-4.93206145166779	-4.9497547345511	-4.96164121249843	-4.97540042380164	-4.98092604803981	-4.99768746334372	-4.99071647113328	-5.03501029363629	-5.07941214456529	-5.06555044475756	-5.06318491547388	-5.10248935621852	-5.06763143422413	-5.07196044992347	-5.08871419757376	-5.08992465290886	-5.11890874550923	-5.11570051710828	-5.1037823938741	-5.09367665888402	-5.08713994730867	-5.07683293645319	-5.13483922834777	-5.11105137049978	-5.09429524711419	-5.08186396417882	-5.11357104474827	-5.1235535116353	-5.13865272569483	-5.10062665039884	-5.12326258337988	-5.14968159338806	-5.17227232299042	-5.17547896265864	-5.18555026989404	-5.15909974695818	-5.16002027699332	-5.13961515074306	-5.15595875343639	-5.16630970684211	-5.18656318781747	-5.15944168830694	-5.18767663094604	-5.20549852570392	-5.16273613739317	-5.17234524052172	-5.17272869086706	-5.16338047858422	-5.1467935710729	-5.17816043536018	-5.21625029397627	-5.16617386046286	-5.16005993094719	-5.16100329848183	-5.16101365972863	-5.17891773960872	-5.1305093081523	-5.15056533152559	-5.17544977124243	-5.18855035896481	-5.20713941225481	-5.19831660728287	-5.15374889686487	-5.15890274344849	-5.16326954149116	-5.14118550614188	-5.13404897095522
"15"	-1.19484118721584	-1.21844392709728	-1.24251655224482	-1.18448670198813	-1.29190933971408	-1.28097489786039	-1.16264995777744	-1.19610560237406	-1.2543823633421	-1.19616557223824	-1.10206509764875	-1.08301890940544	-1.0584030967014	-1.04608895180559	-1.08346606443491	-1.1207009599722	-1.08250117949078	-1.13326254495207	-1.12329004846658	-1.10638556123503	-1.07018951589773	-1.04612509384222	-1.08780100188411	-1.07768783683404	-1.09108866777314	-1.10700578637571	-1.0801424272899	-1.08231885805066	-1.10476275686634	-1.02484541459024	-1.08370958115383	-1.12942198550597	-1.09563793930377	-1.13316640110017	-1.08023583723587	-1.07967814799037	-1.11454667012323	-1.12863509732226	-1.09913929379199	-1.139169752979	-1.13932439893377	-1.12408952271385	-1.14692208098813	-1.12650550216885	-1.13798417545108	-1.15579905238084	-1.14572838756538	-1.11512659205806	-1.09492772342676	-1.03879787234971	-1.06118136934556	-1.15101225836933	-1.15169816607739	-1.13038140360311	-1.20494881870004	-1.13895002715014	-1.17326089635722	-1.19998018006144	-1.19547384000687	-1.1503262161766	-1.17458735250494	-1.16139476298888	-1.13689673451279	-1.16834908427199	-1.16404570355767	-1.16282088675069	-1.17567678523681	-1.1812490348365	-1.1934431760184	-1.18107528417659	-1.14786248805943	-1.17844883953386	-1.21016274526622	-1.17128158104678	-1.14103683889446	-1.21966173201904	-1.21141008012971	-1.20499454076319	-1.21161417060069	-1.20217890546083	-1.18854692709206	-1.22859114597295	-1.15730003124563	-1.20842694089688	-1.22585933983257	-1.20649294381188	-1.19204916002001	-1.19527062671876	-1.23404521704418	-1.19671124586948	-1.17030027149547	-1.21585596226761	-1.25498613018572	-1.20929557434552	-1.21452085544704	-1.21643192572763	-1.21542707370501	-1.20781769873165	-1.20183520581005	-1.2487941492289	-1.21051194846522	-1.21021750423944	-1.22837414642401	-1.19292399318716	-1.20059717165058	-1.18704422182589	-1.24363550497123	-1.23353170553645	-1.25379478385663	-1.27568145999967	-1.26804656766825	-1.2395912331418	-1.26807554705416	-1.25840672735043	-1.27445409898336	-1.27418046457035	-1.29365295924097	-1.26601508990129	-1.30895339717755	-1.32627990596976	-1.30032499120389	-1.27630483619301	-1.27659446742706	-1.27357480566994	-1.27168617538308	-1.26784410697834	-1.296217832422	-1.27762520450191	-1.27207891253526	-1.26457033426361	-1.27795674121632	-1.28326261439695	-1.2867058207575	-1.25485128208543	-1.29848610219954	-1.26473015924385	-1.30039416041592	-1.29131024276514	-1.2749410165172	-1.3292126901153	-1.2886432529909	-1.30689698697107	-1.331844944276	-1.30262071140175	-1.26845561097018	-1.27729954360891	-1.29185038446017	-1.29207305016942	-1.29129135840437	-1.29742182475581	-1.28106667670938	-1.32804608257017	-1.35881082828572	-1.2959975747149	-1.28393986651654	-1.31151710460877	-1.3125943779894	-1.30052613124578	-1.31357921683926	-1.30368123194156	-1.3122738328669	-1.28689296863831	-1.30443052466427	-1.31243707287989	-1.31213149516459	-1.3365294822505	-1.36818823909635	-1.36662819337138	-1.35922508901998	-1.32186324130924	-1.35256552512847	-1.33326352094118	-1.3301889257559	-1.35421967114509	-1.30345779945233	-1.30491647857821	-1.32451774114993	-1.31312431642661	-1.37946172420367	-1.37542872334723	-1.36913434476441	-1.35435029043036	-1.32043741541072	-1.32239627557577	-1.32873758421708	-1.32100454090984	-1.34376244705525	-1.33856781744306	-1.31260147094728	-1.31898035231134	-1.32739919049183	-1.3694374696634	-1.38935970511	-1.39196690562697	-1.36535839886912	-1.36678268735088	-1.39659964702971	-1.35895070404716	-1.35455526585625	-1.37701294844734	-1.33305693021254	-1.35436744485994	-1.41237486705714	-1.37549161981615	-1.36145277204159	-1.36377636905801	-1.39981807201944	-1.40954323479917	-1.40827967966962	-1.41762068325146	-1.39860204070184	-1.40520305243281	-1.38794546725994	-1.38310893442935	-1.37248435839615	-1.38652959171848	-1.37545417199363	-1.39062359298968	-1.36797777997523	-1.37350306084557	-1.41782667672857	-1.40015679530703	-1.4309174615496	-1.4161787860846	-1.43474174983581	-1.42678195313929	-1.39577872037312	-1.38334582153844	-1.35321133675541	-1.39308781511023	-1.34946933897949	-1.41002699275653	-1.3775842482198	-1.39594147477267	-1.42922680531311	-1.45137063101445	-1.4539161505689	-1.42050250379613	-1.40852727413279	-1.4331385048719	-1.38842506344678	-1.4210844967194	-1.46485141013588	-1.42036976943302	-1.42428514457176	-1.44571839939246	-1.42287314375985	-1.41298368578065	-1.42961638191753	-1.42345016737389	-1.40293357128129
"16"	0.067778878564036	0.120105162262641	0.158668814367824	0.0535896154083445	0.130051142206759	0.205995643047356	0.0378071574732898	0.0283613392949539	0.138879371664928	0.0933850084545659	0.0349560561435094	0.00408266082524887	-0.0215687320633752	-0.0275337734875614	0.0805709514657555	0.105062382609732	0.00735730510593171	0.0626736093337326	0.0192291105984903	0.0775262540922257	-0.0432214191666795	-0.00217676223644825	0.0529476068843135	-0.0501100763306377	-0.0866807213757844	0.000468363507557954	-0.0756468753904069	-0.0729046712803037	-0.024902119750984	-0.06379902250669	-0.0515941481598022	-0.0233476571711068	-0.0931997679894621	-0.0567250781178958	-0.0722014843045501	-0.0266958133350302	-0.00703915276585708	-0.035402872505549	-0.0771414096868061	-0.00148644698085512	-0.00401251797894081	0.00593244585277109	-0.0400215091144211	-0.0422615331572388	0.0387337558265019	0.0674972929007762	0.0654445535127886	-0.0316942052295165	-0.0563054050026438	-0.0949897466634862	-0.044881039859363	0.0406731643009121	-0.0299502377616657	0.017777597657649	0.0903529022359498	0.0225563783719776	0.136972209562679	0.114925858139816	0.0783342657063596	0.0954195955089123	0.0708332810424372	0.0677828310489146	0.011657629362355	0.0649791004513936	0.0429202079132323	0.130078456085993	0.0524635300649668	0.0746050656681536	0.0347635162926856	0.0439585703460026	0.0501553165841161	0.10269825303684	0.11810868562358	0.0577635815304332	0.0339210617345952	0.0975757955176336	0.144367148100371	0.0765691034970258	0.0857981785219961	0.103723050211199	0.101326078930275	0.127006959530792	0.0417652590463275	0.0295494109373405	0.0874846633504566	0.0738508528709581	0.0757527682634609	0.0149145630584269	0.132311894032002	0.0857809371104301	0.101984756205917	0.0938652265910475	0.129850786402258	0.0846341582921565	0.0789735931095693	0.0771835569142812	0.086661908404437	0.0948059141142518	0.138932524164159	0.150499845562937	0.125056153508221	0.104826104219372	0.124334009015605	0.0932000715771135	0.106819317380719	0.0425554376490763	0.10792907126817	0.129470944757821	0.100805011285187	0.163185032508698	0.247184009195493	0.0644501794562374	0.162870788785395	0.19934120507502	0.146412300200563	0.160497490395624	0.185366180996572	0.119085971445533	0.174069499511387	0.21612392681726	0.175044414563572	0.139018517181706	0.220767675243111	0.180289886698888	0.204988418844278	0.201513592798432	0.211838518526953	0.223103376345168	0.198700466392711	0.18996100021627	0.172619122936725	0.196241132450802	0.200705632862352	0.182308461976029	0.201800566587082	0.208492232734727	0.24997506915841	0.175225890564273	0.171892092890923	0.285311703142294	0.263028664782584	0.280831739197303	0.257800920774441	0.260976808607549	0.236409904042419	0.212883637331136	0.217488873371428	0.209552736303408	0.248022810789883	0.227855051045623	0.219735616532009	0.250460133455732	0.291560138559038	0.243885970372676	0.2438618110773	0.263287750992124	0.230247020782598	0.267042662407377	0.237327222743987	0.239945633347447	0.208832234096759	0.221961966996702	0.290338803949331	0.271445825003872	0.260572658950584	0.240178664600456	0.281949370699748	0.299353878182796	0.271562367788451	0.204144200701637	0.299972357277769	0.274033338361791	0.263194471826034	0.312218935541374	0.231993599740039	0.273845664524742	0.253726474706775	0.241605960131901	0.267327805718828	0.313975098198533	0.28965952276991	0.270311080617712	0.246132017123781	0.205807188444768	0.270774891926183	0.284807061089135	0.330600568644715	0.234125372662937	0.240267877048172	0.241028090111995	0.222593147291338	0.30045981660951	0.251493355376597	0.265719575976439	0.235781678449492	0.237863883600901	0.26479747359012	0.226696073747502	0.204947128551432	0.271899498879849	0.244186429071133	0.219385894758714	0.302318146210481	0.266367993333787	0.265780166761734	0.242947334429839	0.247017306750176	0.326919812654632	0.326171384182641	0.29830053065617	0.221716051461755	0.287715393286935	0.272605305467085	0.289827847292653	0.270390279137209	0.272821548194766	0.247754879922746	0.251466726141974	0.203058162185416	0.231417370293355	0.24268751773623	0.245209318728694	0.273359166936708	0.290871157385382	0.304018496865283	0.322533445081987	0.268193080568093	0.215353316077034	0.220176915096758	0.258761981149446	0.199389544825456	0.25177735894331	0.264213011766833	0.254325307502195	0.259188888804083	0.342478989969025	0.327233082926606	0.321998066460337	0.316838716324106	0.317424599905229	0.263876367111912	0.302335735611189	0.349754145620533	0.267418513249091	0.298941248000983	0.333861754210872	0.316240714580791	0.313878655119797	0.341282828230164	0.319680218481652	0.291707185053245
"17"	-0.958542824665481	-0.753986057674467	-0.706677272583688	-0.647107515143076	-0.623274011779133	-0.567456178872141	-0.507350732478087	-0.521434151913529	-0.483777888351438	-0.460138869369193	-0.419837817380851	-0.444848600277759	-0.439086847494657	-0.391362263505134	-0.397232316764903	-0.379660418515208	-0.374787028683302	-0.396732257356039	-0.376545201933045	-0.38276564936506	-0.375371188728334	-0.330288344912558	-0.374933783322147	-0.380269545198143	-0.352719494727183	-0.345875761483178	-0.339576943699411	-0.353904355133147	-0.330731031132768	-0.36169543527056	-0.312141280350961	-0.302604251368166	-0.282136866162742	-0.272592677710867	-0.291659456048002	-0.275425062964346	-0.260760840913373	-0.259904181607434	-0.281476838356688	-0.291344736958264	-0.297118910721213	-0.281197068063061	-0.274064125299802	-0.32061228445099	-0.287191053345119	-0.298628438188083	-0.219418309627826	-0.265353109264457	-0.26658422403712	-0.253944835734334	-0.2650270252081	-0.21356505616587	-0.250217224016321	-0.254200656758365	-0.242229818951063	-0.260499718382002	-0.250927665526974	-0.246217307540955	-0.24383857666573	-0.188946299648105	-0.237021599571761	-0.2526589456075	-0.241828343380561	-0.226791535498674	-0.221566332687629	-0.241361770216826	-0.246629113564358	-0.241904983582348	-0.225009414574077	-0.209598049417213	-0.254394251942665	-0.262661459610819	-0.254662800097529	-0.229568066583454	-0.241393994150047	-0.26580839304265	-0.239585824779059	-0.243292834662013	-0.224204109554499	-0.268401242592093	-0.25968007953938	-0.26489988126467	-0.242579635808788	-0.257616124099158	-0.235284267964108	-0.272442298834434	-0.251959620904538	-0.251053463989949	-0.27948771293563	-0.238484898102777	-0.259150644408148	-0.270609047889186	-0.259989800509412	-0.281491440741978	-0.247617082691148	-0.243892432513171	-0.231951155157159	-0.231385273952394	-0.254843306004476	-0.235499076733482	-0.239527272413869	-0.260124502823894	-0.274242153070361	-0.272556535970692	-0.28572212142042	-0.258837079469695	-0.269876780160969	-0.276752698836678	-0.283368571033616	-0.258386195878626	-0.243490043442441	-0.255995751886624	-0.273345587965345	-0.27663157854492	-0.282081561910534	-0.265677060891641	-0.26582743478704	-0.288545017008312	-0.293512205429282	-0.297303956394056	-0.288787545856252	-0.286437688413915	-0.284513194373574	-0.295224567837445	-0.292913463330831	-0.301115442553672	-0.302082942795885	-0.290629534494145	-0.281073146570679	-0.298669423219439	-0.309172887174741	-0.296573479396566	-0.308332286720953	-0.316315287766425	-0.313011004543579	-0.311302842701961	-0.303372988153964	-0.314725523674136	-0.274452323740173	-0.285033169801543	-0.31762059337235	-0.307021127505781	-0.30611097985071	-0.322819054383131	-0.322915073683193	-0.300545719227101	-0.308846299943332	-0.32414698780144	-0.322621594591258	-0.313869871254892	-0.357730753080592	-0.33599176545327	-0.354277055095393	-0.330170626277009	-0.32945785177145	-0.333686943924028	-0.324543231678905	-0.341618717128436	-0.309321536375666	-0.331838908876634	-0.328229925953438	-0.328481121437786	-0.344432916218714	-0.371674877099464	-0.35816167369947	-0.32618846884213	-0.337897268115359	-0.336243665674416	-0.328966730373673	-0.324351640604055	-0.309659281196286	-0.330816479768605	-0.338444234336505	-0.336955603956568	-0.341189456420582	-0.329661535149948	-0.342110935958061	-0.351978251126856	-0.335735056189059	-0.347560519581708	-0.363021651170091	-0.336873652270152	-0.371167939021216	-0.372696400414764	-0.345581740970041	-0.359975798359919	-0.342542468870406	-0.361533440103268	-0.370327625100324	-0.358866580438933	-0.353594539363911	-0.352600155113211	-0.378176011747834	-0.381943744870668	-0.367122380053146	-0.375207070653838	-0.34891301700232	-0.349728248865312	-0.338401307201508	-0.368009678209028	-0.372896922190681	-0.3673937786679	-0.336230099350814	-0.350970933753676	-0.348193635138619	-0.347468296198479	-0.343167945217706	-0.340662870323645	-0.361012757819568	-0.368305636173178	-0.339274102944322	-0.357808746294789	-0.336559641103105	-0.347613000590154	-0.374887110514279	-0.372521225960219	-0.35398070118477	-0.359273616193757	-0.347685559714347	-0.330677705273525	-0.373592615297758	-0.377556347472039	-0.379244587151703	-0.381058680914989	-0.387814459678752	-0.383415232755394	-0.405839916813278	-0.389321342288641	-0.37522766470363	-0.38810148148296	-0.381751047971073	-0.384278343933531	-0.373278251465448	-0.377089139579495	-0.370224264912842	-0.389619572058891	-0.374992958268682	-0.363468033587734	-0.368440228652419	-0.369047756731302	-0.37835039613868	-0.361421807391362	-0.374296834381968	-0.355897455627136	-0.36321097665245	-0.37395758662454	-0.383756380583108	-0.36965794086979	-0.386633375267072	-0.405750812660288	-0.364557368364922
"18"	-3.15364560881552	-3.31918436314668	-3.30329255490667	-3.46653449891775	-3.38489258595296	-3.44236428750424	-3.64237800673881	-3.57496441478428	-3.66315098552686	-3.63768042506633	-3.69643021850535	-3.71056486747275	-3.68561771867775	-3.81811358945148	-3.73816927929122	-3.80986578186277	-3.76910373386684	-3.7680041123982	-3.75574910064741	-3.81732820843831	-3.86935397729648	-3.90260587816125	-3.88646641686527	-3.86016420067428	-3.88018802286223	-3.92825842537974	-3.92084978488993	-3.8719960814259	-3.92545713005302	-3.91081881928947	-4.00978116969388	-3.99379684984264	-4.00743583032362	-4.02762313883979	-4.03943084469195	-4.09160806634207	-4.12492893786297	-4.13360573682743	-4.11962765106027	-4.1323373243962	-4.10496930980098	-4.13541717891177	-4.11492482993682	-4.09194328948427	-4.12083030047824	-4.14615368534235	-4.24713791829059	-4.16969096858716	-4.18669574695077	-4.21201921341897	-4.22395191974139	-4.25775099845186	-4.19521925595443	-4.2428318524244	-4.27439355880214	-4.25355266590197	-4.27916123149129	-4.28547220684439	-4.26357991514107	-4.36228786194403	-4.25047465273632	-4.29905042757843	-4.30367235394951	-4.3639087464047	-4.36929269278459	-4.34101581857681	-4.34712880993941	-4.36962776911901	-4.30612235873971	-4.40397020464638	-4.37445127775087	-4.41321624278031	-4.3742100410475	-4.45325746995738	-4.43018522898392	-4.33714939811441	-4.42392417691629	-4.38164732286774	-4.4256482208371	-4.3689603406919	-4.4005577106765	-4.35540075495036	-4.41345876399774	-4.3409081181031	-4.36999799455435	-4.38834348352554	-4.41637417553613	-4.38319092009465	-4.39685484971793	-4.45801654794427	-4.44045682562806	-4.42014355387398	-4.38101011024962	-4.32944032150468	-4.41052315249454	-4.4432223248442	-4.45396995311988	-4.44766283572084	-4.44752862954042	-4.48042433152807	-4.45250129488956	-4.44909422488615	-4.40559903349888	-4.40667843409999	-4.41741698470303	-4.44329301349025	-4.40459405447658	-4.44101654897954	-4.43102598618077	-4.49377127072815	-4.53071039763342	-4.44999809426971	-4.51387097592074	-4.47679163649124	-4.46602140546815	-4.52011827866629	-4.46847008700851	-4.42615265955711	-4.44205371058356	-4.43670424720017	-4.4640334283622	-4.4838768579894	-4.49933221053985	-4.54311423443289	-4.5158667306763	-4.53223454724246	-4.50597245470956	-4.5492879035726	-4.52720790022575	-4.53308047335302	-4.45669064565774	-4.47443631532251	-4.4909650037544	-4.50509407972949	-4.453251557144	-4.45204813000889	-4.50943309648372	-4.43259878697682	-4.52834619292571	-4.5588176235298	-4.56173091760143	-4.57749728819892	-4.49623974591158	-4.46569480701671	-4.50493225224363	-4.55477426887688	-4.52907743308468	-4.47987359385974	-4.55157229687641	-4.47625614880775	-4.47468024274519	-4.47042643232895	-4.47836043342059	-4.48271638061174	-4.45669445196013	-4.51076670382639	-4.52271903677733	-4.5291426010713	-4.5389923324795	-4.51521164955099	-4.53957540063039	-4.50876725312749	-4.54047166266849	-4.49641063484959	-4.52125961082396	-4.54443958036949	-4.53663458627585	-4.57096236596305	-4.58350015748334	-4.59591516886672	-4.63601491938195	-4.58770688048505	-4.54851129710541	-4.58373565788429	-4.58970294968216	-4.58649186320122	-4.59490908431217	-4.57223800402896	-4.58802115441831	-4.5394010711154	-4.55780027899909	-4.56524708919489	-4.52274057367294	-4.5125105056891	-4.58370024372281	-4.59351168427997	-4.61990576692407	-4.61684570711002	-4.57811022786426	-4.57228210634434	-4.6172773201961	-4.61322332558283	-4.57731397897226	-4.60586510672061	-4.60917619490852	-4.5656626432103	-4.61904912674584	-4.6086138734017	-4.62595439398162	-4.60914699522655	-4.58534178447679	-4.57285378374147	-4.62506359433231	-4.63377876853728	-4.66168162360666	-4.65470204036071	-4.64187603124422	-4.6547749166864	-4.62057025515786	-4.64883319798764	-4.64229398220591	-4.64878866711018	-4.67341093715104	-4.69512699367315	-4.60798210080461	-4.6204245582202	-4.64478668478184	-4.65010146079785	-4.61864208189998	-4.66989832774125	-4.61204208439754	-4.64444960981023	-4.61718661693305	-4.63198643068664	-4.61741578616812	-4.62156927322138	-4.60665400110672	-4.59120354321342	-4.64828469842557	-4.67366300281069	-4.62805212759514	-4.64423475811693	-4.67177179790362	-4.68685688359908	-4.68350127142471	-4.6951334639289	-4.67854748690366	-4.69946626680096	-4.71569711528238	-4.71522309822986	-4.64989270176744	-4.68540743159487	-4.70516569079074	-4.6928114904083	-4.71994141623223	-4.68117447255023	-4.70319027564944	-4.74286256854601	-4.70423974765435	-4.68697276975849	-4.73126894610466
"19"	-0.851177069178191	-0.909718746964363	-0.837696855396979	-0.8531072658169	-0.78561561051079	-0.759044297423339	-0.742843919896891	-0.699221258182398	-0.678067083618071	-0.669400230977785	-0.761055935645754	-0.700632786692762	-0.74539262559107	-0.722115797109576	-0.712632623026593	-0.675061131358859	-0.730089165536258	-0.681974465551961	-0.679278897974084	-0.67852422473147	-0.645870514894216	-0.704599394454392	-0.656685882057967	-0.559449695408242	-0.645273871720903	-0.606529457227169	-0.591414503711291	-0.641613005132431	-0.554063190364108	-0.541290336996688	-0.557706990583668	-0.591777327617623	-0.555585214958116	-0.602237436972405	-0.583724876088385	-0.568921511612354	-0.585024066841565	-0.564163469131415	-0.539077832812238	-0.565696251700927	-0.561890048780285	-0.51470058862855	-0.549076003127791	-0.531889450475314	-0.561365661834132	-0.514577430533184	-0.558394775648979	-0.590965143770137	-0.616572280138453	-0.587479241342975	-0.592746617284622	-0.560891345416475	-0.589990849161685	-0.526571547063195	-0.551796059923065	-0.552340712950307	-0.536420904955495	-0.558717289478403	-0.55598016086822	-0.615950416712982	-0.58364581539755	-0.5773249522431	-0.609043870537828	-0.533746949092717	-0.549885951119553	-0.562031726765692	-0.573085860656742	-0.565894900006735	-0.558392600007449	-0.571744227125811	-0.590418252617291	-0.556174463212889	-0.519117779110124	-0.522618864524941	-0.559906590031263	-0.555182658071715	-0.536249887419131	-0.550118881176264	-0.550644424355886	-0.502199029563551	-0.520496190684976	-0.547047795938473	-0.542258539587998	-0.51503492125065	-0.560769697085856	-0.529429722534237	-0.547621531596118	-0.511657540405204	-0.525153649485567	-0.52756574851318	-0.52933840703482	-0.533812402389704	-0.555134921059864	-0.530611977893939	-0.512924291136618	-0.531404851936846	-0.514948398035166	-0.51313625404364	-0.511746038666608	-0.505903100350723	-0.483507217652439	-0.524075424776649	-0.516739553014105	-0.494749907568605	-0.48369368684728	-0.515403886534573	-0.496871210372546	-0.516370786672377	-0.503699039789465	-0.506687932038458	-0.498174346571583	-0.512888145125255	-0.519887659041329	-0.4689449458185	-0.510178287686984	-0.509038663058753	-0.50425175046285	-0.512275074425244	-0.516551791586739	-0.528989359967935	-0.500528813874207	-0.500966676779622	-0.505063905346327	-0.521781699338514	-0.513235777654541	-0.519155132966989	-0.490734934698254	-0.489841976021261	-0.50752186071069	-0.519722321166649	-0.519258110472937	-0.523059004611499	-0.507282153965027	-0.520540048319829	-0.497838765733548	-0.494448056168465	-0.479605407313365	-0.521633167322304	-0.493327813039183	-0.495413736209152	-0.505432756509183	-0.483872511573508	-0.476148211141385	-0.474107321719202	-0.457293932534364	-0.498615046299886	-0.530348280923427	-0.501478545735236	-0.522278425576416	-0.530225020689594	-0.515952076882149	-0.509312257376508	-0.485157101349247	-0.517206646695954	-0.536070339084274	-0.509674583830189	-0.488125139878503	-0.519424037412198	-0.502725329944855	-0.505991889765044	-0.526585906576023	-0.515581829306959	-0.496652685931374	-0.514491612653271	-0.524100076587544	-0.512059991315803	-0.503548535130829	-0.488850379714967	-0.499168594587279	-0.499785836144724	-0.476185633466479	-0.493793998660157	-0.507160029736291	-0.500575949122872	-0.513143894193724	-0.508201171499667	-0.516559028061352	-0.487714162813918	-0.473543638693221	-0.517176525451856	-0.516092103317209	-0.500091719775702	-0.5000253769782	-0.491295220694881	-0.499245953001822	-0.500438970039042	-0.508518391815045	-0.497502044344061	-0.475040731914573	-0.503654481631603	-0.505481161833997	-0.509110068706724	-0.472856918608243	-0.491496553480346	-0.474788766347922	-0.467077802357872	-0.476766897492462	-0.494435443297064	-0.467239851341166	-0.468476595071494	-0.472872220604738	-0.493296035533103	-0.481469382165594	-0.485806854081122	-0.467335467408818	-0.473726536383825	-0.469332916882792	-0.453359023837695	-0.490012072991399	-0.440933043878422	-0.433629273367842	-0.470572507526562	-0.472589417835537	-0.473849471575289	-0.480983921520294	-0.488287369648812	-0.470484091190258	-0.436220962949904	-0.455384215840918	-0.447086103015218	-0.453350183687382	-0.457688870784026	-0.432744518806127	-0.423412034471766	-0.445299195309393	-0.416516197509138	-0.429698838074081	-0.455944950300055	-0.455919027861935	-0.450860163168829	-0.452335489869562	-0.44991004150951	-0.450223382274766	-0.440673070841515	-0.455220787536841	-0.429830889219751	-0.450450672206066	-0.439897371442613	-0.428771942432992	-0.438980914582789	-0.460961272960745	-0.467781268249697	-0.445346321442916	-0.444591775089549	-0.445040073819685	-0.449470318288777	-0.432426257916294	-0.437185478928555	-0.429564835771001	-0.466131388981081	-0.441339584807367
"20"	-0.859801270530233	-0.791827175326823	-0.841461163232078	-0.862199156741764	-0.916589906635161	-0.987224311887536	-1.0186205107399	-1.06325451039959	-1.16933306609465	-1.07322968164733	-1.02718460469667	-1.07531723464187	-1.01466010263301	-1.07408900930993	-1.06003068185608	-1.10444990178026	-0.989327158867725	-1.0769959289265	-1.0730423425583	-1.09255426862867	-1.12612705311072	-1.0968027164439	-1.12626231805382	-1.23299911915484	-1.15576754393987	-1.25067518541375	-1.2595923733107	-1.16584320926908	-1.29988562533847	-1.32843667817019	-1.33188710007657	-1.25827723638372	-1.31248438676997	-1.27328197435853	-1.31004555107536	-1.38562689624979	-1.37346803670948	-1.37009074297667	-1.42549823068294	-1.43099443095843	-1.41569761113792	-1.45629384205239	-1.42769909134519	-1.45304554601288	-1.39619148064123	-1.43921183712122	-1.47782863780502	-1.38033121311168	-1.41495589607874	-1.44958682917558	-1.48107365488304	-1.45688792231294	-1.41418085001966	-1.50564923393731	-1.49662601314357	-1.40955776560736	-1.5384689515391	-1.49728685140522	-1.46228764266841	-1.47886707576253	-1.45839628559206	-1.4813344040711	-1.40503341417767	-1.55285128676146	-1.52642152454705	-1.49210910702943	-1.46597351744861	-1.51515778223715	-1.46470349230253	-1.46724537490743	-1.44608431038535	-1.50835568207411	-1.55516199975484	-1.60559540560469	-1.53847317038034	-1.47797270987817	-1.5371816805935	-1.44392204754555	-1.50577786564881	-1.56888411544675	-1.52809898937642	-1.46723040507435	-1.49309132532431	-1.48265377949938	-1.41803530356773	-1.50068718294242	-1.52585544316105	-1.51414901192447	-1.55570709080082	-1.53709912583176	-1.57009349091082	-1.50636900651579	-1.50666976225874	-1.52235195557351	-1.6129624390802	-1.568186139523	-1.59591391645056	-1.5796491197248	-1.61529766145525	-1.62216197133494	-1.59884376867997	-1.59858164890868	-1.59149068892895	-1.5958983871918	-1.63328773652617	-1.60258774137624	-1.57509967027229	-1.60042964825703	-1.59870428849874	-1.6591818149165	-1.68850585713542	-1.58675933566704	-1.66690687823835	-1.69017730602932	-1.62010602722177	-1.65537754025919	-1.61456780985439	-1.56442326804234	-1.60064532866118	-1.56930672772688	-1.60894307734901	-1.60624716994516	-1.62743192253778	-1.60523417591173	-1.60501250094554	-1.60592583395158	-1.64752446846077	-1.67751722093307	-1.63777173962842	-1.64457074620304	-1.60042873851571	-1.61278845770843	-1.59769763322482	-1.62530749467516	-1.6097643613999	-1.59896697991325	-1.6281218243845	-1.54635923866453	-1.62049588617379	-1.6459139278323	-1.64697154151134	-1.67965543260504	-1.64968358864298	-1.64939126233691	-1.7154313434054	-1.67142572218565	-1.62517607525491	-1.66792724005356	-1.65740628158958	-1.55971869122187	-1.60043978392227	-1.62313986089989	-1.67500419773739	-1.6525444740525	-1.6256146117412	-1.68065875652857	-1.68931764298694	-1.68523945310587	-1.70960703057358	-1.72028839600389	-1.66434861590034	-1.66426935896101	-1.7232446180927	-1.67945662368196	-1.69890175756211	-1.68306633096906	-1.68467338285689	-1.72206562276255	-1.68959149141649	-1.72118898245169	-1.77023491080696	-1.75202585719947	-1.70713705744329	-1.73743196037014	-1.70351100746742	-1.71088835516351	-1.74375483530043	-1.76586523132457	-1.78384006659875	-1.70665397435242	-1.72070659826797	-1.77562850763534	-1.7220982980742	-1.72328254725378	-1.74910462026331	-1.76858623778637	-1.79524368220846	-1.75897534404194	-1.80240018821406	-1.7422470663848	-1.79973662069986	-1.77044229956049	-1.75729521354591	-1.77042635229464	-1.81185924462569	-1.77702408116581	-1.82307165364516	-1.74819219573308	-1.79128304964922	-1.83010579884364	-1.83084370660593	-1.77126246144594	-1.81590568732717	-1.84305840238107	-1.85374513932833	-1.83317469316032	-1.82629585364849	-1.87781624513387	-1.83031028720484	-1.81899024150582	-1.81334549942759	-1.82206476721558	-1.85194495013992	-1.83950139412751	-1.79770886082875	-1.82972140637566	-1.83498751306535	-1.86210803998036	-1.81042732387699	-1.82412905213965	-1.80715532248478	-1.83287299490602	-1.81364868038115	-1.86350224831507	-1.85757993133977	-1.89413044338618	-1.89127534683091	-1.85376269787632	-1.88988931431346	-1.87704101853664	-1.84524623720251	-1.88356839788049	-1.92299938312753	-1.91584288745048	-1.88290088352267	-1.9323772893522	-1.92884628375207	-1.95555194609181	-1.96853338048349	-1.97061046968635	-1.898020619838	-1.90819865930596	-1.95013739329282	-1.90737405575868	-1.95230419016497	-1.93046305999344	-1.96247497904207	-1.98439925696109	-1.97995915243304	-1.90700676148794	-1.929912147528
"21"	6.38364593121816	6.29379159610482	6.2606466827113	6.23924177727603	6.12848316589627	6.18741801267003	6.15200316964558	6.09883074139834	6.10914820901601	6.0927133669279	6.17542549324426	6.14740144542005	6.14318948686225	6.09353250033088	6.08442283040919	6.12908068445169	6.14311123094983	6.14039097138317	6.15933822226889	6.14793520199905	6.15007545757152	6.18882224130548	6.13459078297938	6.12637341204757	6.16496353123509	6.1022176069147	6.15113186038204	6.15786916686527	6.19636257772559	6.20595612928062	6.20603157631302	6.27949840624302	6.20761704246525	6.25694483118062	6.24580188414376	6.24800817025467	6.30074013368393	6.28086205987199	6.27339789833977	6.30039408801283	6.28777850029404	6.27519017827205	6.26765714294131	6.3025439748348	6.31667878605193	6.33412662681422	6.26675203940542	6.2542704943691	6.23971960618728	6.25879822881634	6.24667344050249	6.3039053513307	6.30420441283424	6.28930212358871	6.32151927455152	6.30407748079443	6.27788143425276	6.28520997383082	6.3176717163034	6.3302964987563	6.34724455862287	6.36222889219812	6.34582686660357	6.32773072485618	6.34621673214271	6.32037028192892	6.31667879167526	6.32115703141633	6.33868521879782	6.37973676602569	6.37360935253869	6.35107030200296	6.41799274594943	6.36665714175549	6.39582772557979	6.40805474084481	6.42308530556782	6.43157147971269	6.45304968059336	6.47103328775335	6.48234549116444	6.5007894209771	6.5124515867457	6.49469003293983	6.55208860377005	6.51875755638098	6.49269575822243	6.50040004131912	6.53809687045698	6.51192227302238	6.53953592167595	6.57064682619902	6.54471033437307	6.57409692637802	6.56205270405485	6.58358256944706	6.57964100462115	6.57945025514059	6.56380996851929	6.57627231097808	6.60748053073912	6.61492164574043	6.65417468387215	6.61903943678027	6.65540649326366	6.62100324161389	6.61407873788027	6.65981902977401	6.65678796008025	6.67203244229394	6.67419857338975	6.67853744685139	6.67619761844005	6.65233781456542	6.66064800292978	6.6933887273379	6.67397098183755	6.71850314802095	6.67330511981492	6.71352837443015	6.73853403853851	6.72888861842564	6.73502378737177	6.74027691989972	6.74179510411966	6.77852556833159	6.75254188489578	6.77619890280529	6.76034262199	6.75327818091634	6.80182618028637	6.76965978642663	6.80999619158033	6.77751360103143	6.79198115422554	6.82818682355015	6.8551534184509	6.84934139729171	6.83580084274084	6.82712321985877	6.842989444109	6.85195910931603	6.8755312142557	6.89643181500391	6.91095499942767	6.89805906956955	6.92894890567075	6.90931654521093	6.90866920641888	6.91504285779402	6.92849301851328	6.91371247937017	6.92688069329147	6.9338069071099	6.94882540638544	6.95612121302611	6.95318566265417	6.94867561925925	6.96357452240696	6.93255838229255	6.94545870898675	6.97389505133313	6.97234697307294	6.98584786063356	6.98340357115702	6.9650962163571	6.95925046761722	6.98044232655162	7.00479264048251	6.96686645970735	6.93633323496037	6.96717939949177	6.98672092858987	6.99201849071007	6.99883636771424	7.03389074763021	7.01769706043389	7.03871917932826	7.02280704643429	7.0429373767489	7.04372900370634	7.02751129417647	7.0604838009426	7.08061974999996	7.0522824598175	7.0717555716633	7.06596514484081	7.09485266598133	7.07602285741699	7.08537761964374	7.07526451357934	7.0636125522647	7.08690389211109	7.10629647065575	7.07833607561898	7.09699482383776	7.07911661358718	7.08547630160129	7.10123534565441	7.10429434608314	7.10644412645534	7.12603638541209	7.12003543661475	7.14383745669214	7.1084105987912	7.11719040542362	7.13160824543276	7.14467842460615	7.13238503720594	7.13376104341516	7.14462299004627	7.13811599414818	7.13666500231551	7.154618150983	7.14072904633082	7.15212192210186	7.17518722109138	7.19178292408407	7.20283286679995	7.18435627590958	7.20972171794819	7.20911295592871	7.19484388882375	7.20588814225838	7.22279065839989	7.23261007198875	7.25259011237592	7.23019911264535	7.25403676516615	7.22768352149257	7.26075998763216	7.25989806828774	7.2616736185223	7.25957605190903	7.26382458736321	7.28090228599432	7.27584271942693	7.25789024738589	7.29345046249707	7.29584839638389	7.30730059753912	7.33140917923773	7.29485329326709	7.30059809013493	7.30850155525556	7.31960441551431	7.30535586072552	7.29852867383584	7.3218221182149	7.35118411059693	7.35855138964695
