"w2"	""	""	""	""	""	""	""	""	""	""	""	""	""	""	""	""	""	""	""	""	""	""	""	""	""	""	""	""	""	""	""	""	""	""	""	""	""	""	""	""	""	""	""	""	""	""	""	""	""	""	""	""	""	""	""	""	""	""	""	""	""	""	""	""	""	""	""	""	""	""	""	""	""	""	""	""	""	""	""	""	""	""	""	""	""	""	""	""	""	""	""	""	""	""	""	""	""	""	""	""	""	""	""	""	""	""	""	""	""	""	""	""	""	""	""	""	""	""	""	""	""	""	""	""	""	""	""	""	""	""	""	""	""	""	""	""	""	""	""	""	""	""	""	""	""	""	""	""	""	""	""	""	""	""	""	""	""	""	""	""	""	""	""	""	""	""	""	""	""	""	""	""	""	""	""	""	""	""	""	""	""	""	""	""	""	""	""	""	""	""	""	""	""	""	""	""	""	""	""	""	""	""	""	""	""	""	""	""	""	""	""	""	""	""	""	""	""	""	""	""	""	""	""	""	""	""	""	""	""	""	""	""	""	""	""	""	""	""	""	""	""	""	""	""	""	""	""	""	""	""	""	""	""	""	""	""	""	""	""	""	""	""	""	""	""	""	""	""	""	""	""	""	""	""	""	""	""	""	""	""	""	""	""	""	""	""	""	""	""	""	""	""	""	""	""	""	""	""	""	""	""	""	""	""	""	""	""	""	""	""	""	""	""	""	""	""	""	""	""	""	""	""	""	""	""	""	""	""	""	""	""	""	""	""	""	""	""	""	""	""	""	""	""	""	""	""	""	""	""	""	""	""	""	""	""	""	""	""	""	""	""	""	""	""	""	""	""	""	""	""	""	""	""	""	""	""	""	""	""	""	""	""	""	""	""	""	""	""	""	""	""	""	""	""	""	""	""	""	""	""	""	""	""	""	""	""	""	""	""	""	""	""	""	""	""	""	""	""	""	""	""	""	""	""	""	""	""	""	""	""	""	""	""	""	""	""	""	""	""	""	""	""	""	""	""	""	""	""	""	""	""	""	""	""	""	""	""	""	""	""	""	""	""	""	""	""	""	""	""	""	""	""	""	""	""	""	""	""	""	""	""	""	""	""	""	""	""	""	""	""	""	""	""	""	""	""	""	""	""	""
"1"	-0.122327411136086	0.320611087244887	0.341684541727626	0.351934480737507	0.292795375363903	0.267814143502848	0.270615113094733	0.234920758808464	0.240220487717781	0.270460908430665	0.235595303815051	0.215342903959088	0.209776155170675	0.208554027589226	0.227208077284297	0.206072477784447	0.19726155378184	0.194930531374053	0.197402907437071	0.183075101250192	0.18774638101253	0.164800241619674	0.198110975498921	0.18605863637582	0.205417057220193	0.174935170494066	0.179000023133405	0.2016940062599	0.176683173345633	0.172200724638951	0.175671157103498	0.179659362109572	0.157652183635255	0.162763794967935	0.17637017267024	0.158736880043756	0.172556682571515	0.149735383157522	0.143383858035905	0.144088866325043	0.129090044472162	0.138210526496887	0.138272925242658	0.113188847461667	0.131429750716731	0.14093757022205	0.13416871784204	0.127840617820979	0.119651127401846	0.117814741702518	0.140208386689425	0.150333502996723	0.126367035915688	0.140827981433641	0.143790386772935	0.120710210087586	0.117299506934495	0.108123224672104	0.116628366317252	0.113366428581517	0.110591686446152	0.109448614475083	0.133880459644848	0.122041975139171	0.113283899793588	0.115349585523608	0.0851660841126555	0.109233997307985	0.0875869663454631	0.0821060571394752	0.0624188228433815	0.0831203575404329	0.0706716501704906	0.0736146348446219	0.070237248464868	0.0802380753401088	0.0610495785558042	0.064285732422199	0.0735141772086279	0.0717642233372623	0.0739588916209335	0.0674785638425919	0.0645529377652961	0.0621414760337063	0.0744125180730408	0.0782174269486943	0.0622517892061039	0.0671374459763133	0.0635738429855107	0.0465650271300093	0.0549880496139277	0.0562729520572723	0.0694003388964606	0.0496574607232299	0.0421838892036335	0.0499408661465475	0.05703358295186	0.0443650466414501	0.0449245344275116	0.055284283616985	0.0386782620286828	0.0457551427005006	0.0417175376125696	0.0411868664427751	0.0291192760978927	0.0427868118494954	0.0438763530926798	0.0363023799466942	0.0346471595259851	0.0460675379734899	0.0243304527516845	0.0232344491877846	0.0223958270097623	0.00646029666884944	0.0194444111359781	0.00716673311496278	0.0072667377352389	0.00663058357441868	0.0137857857199006	0.00647533018602289	0.0120940648547746	-0.00585754511832449	0.0107334372167744	0.00416214938232914	0.00487219563412674	-0.0105456645084659	0.00604340733701755	0.00878508631069178	0.00788376322355071	0.00869737111590703	0.00211151393449336	-0.00271927861500055	0.012947106406511	-0.0108485056905777	0.00358271323094881	-0.0156669431401572	-0.0139063689467738	-0.00907767384254089	-0.0253784810668961	-0.0190012071365324	-0.0137869910119577	-0.00283307727554928	-0.010663216918032	-0.00959594845687567	-0.0130844867129445	-0.0307184439565944	-0.0291625364572099	-0.0185614801087657	-0.0277900969532844	-0.0156653892204598	-0.0159929343393897	-0.0301645695977478	-0.0428198552753369	-0.0408912769236785	-0.0312836494506261	-0.0359057566907867	-0.0416312627965161	-0.0360659924977661	-0.0363659084531505	-0.0423624663372325	-0.0446850903316911	-0.0326110175389727	-0.0434798511013142	-0.0452799998486734	-0.0379493648564849	-0.0500277427535247	-0.0312662295867402	-0.0482742653901349	-0.0332514195972095	-0.0342784323072881	-0.0265058596958261	-0.0404095439049961	-0.051910785206257	-0.0523529042131213	-0.0498117767686011	-0.0309133172946205	-0.0511087573603738	-0.0647137752516221	-0.0564380712878166	-0.0449704770478058	-0.0435948545502566	-0.0608108606330461	-0.0496594464148718	-0.0587520415615485	-0.0689886157155874	-0.0680259716821085	-0.0709394101248338	-0.0632901718904541	-0.0648187428109583	-0.0814219735315193	-0.0730466467305099	-0.0691810571607583	-0.0725567303336799	-0.0805903755102667	-0.0773579412443728	-0.0824601270295013	-0.0812537294322838	-0.0693061409533423	-0.0850361638062915	-0.0887478505849621	-0.0911473231049248	-0.0816445222947679	-0.0835743299064143	-0.0840529481379365	-0.0849842088970044	-0.0909142300177378	-0.0910546525047124	-0.0968574239199733	-0.101672202788631	-0.100452378323737	-0.0935437838883612	-0.0990280827971877	-0.0917609488373847	-0.10342713965071	-0.104393897468436	-0.0986788537821605	-0.106952216172181	-0.112379821344978	-0.0973078481860658	-0.0979886647012498	-0.103140292612645	-0.109693369296515	-0.105717201137795	-0.106167186336264	-0.0983160842600521	-0.125394040086322	-0.106851854059588	-0.101425949043169	-0.103156851566866	-0.100595896708054	-0.119640117380523	-0.116755607929712	-0.112101462383904	-0.123630957965951	-0.117919276399668	-0.125426439854385	-0.12096334528546	-0.117006536080484	-0.124508748324329	-0.127290443412292	-0.127175524561262	-0.127286084665532	-0.121647337225442	-0.123588272497614	-0.125048007134114	-0.122302741295063	-0.116396116201497	-0.124352848356482	-0.129763230885624	-0.129351987593861	-0.125485004060498	-0.139007897203032	-0.130686428209796	-0.109759176052341	-0.129983157504204	-0.128947706327599	-0.12143761847337	-0.136512465839152	-0.131747288745958	-0.131969319345191	-0.132420512259154	-0.141374222538914	-0.137066541129127	-0.149465308530706	-0.132302155045728	-0.132165527410738	-0.132983750098382	-0.148123178241106	-0.140891601150893	-0.145644614399193	-0.142925929272807	-0.152960725429753	-0.138823195868474	-0.152126758232824	-0.135533354937567	-0.149373266782959	-0.149676771246753	-0.135529071903099	-0.147313662464466	-0.152345953220077	-0.148436535908776	-0.143681818456142	-0.144968211677675	-0.147596323369256	-0.141644026978365	-0.148940895976084	-0.145534739311243	-0.155020303354916	-0.149517237735493	-0.150247621292127	-0.14561029935573	-0.150257662129334	-0.163580610698072	-0.160724805309572	-0.150299597451421	-0.164565837560973	-0.162631687242784	-0.162325639849044	-0.154682742391648	-0.150018725749747	-0.158294100131556	-0.157246575014986	-0.152485347623951	-0.146428315644075	-0.157240254578214	-0.157847298647314	-0.156465829719512	-0.169968815656241	-0.167537696065143	-0.163587195338136	-0.159709373442004	-0.158796060381147	-0.155902200424036	-0.161224210800646	-0.160062075183862	-0.168769363485226	-0.163632636213346	-0.165330287717996	-0.170176825768731	-0.171342590164562	-0.171095784334294	-0.173563281266741	-0.171769779560241	-0.176600523077866	-0.179365633529453	-0.181163890097314	-0.185641656217749	-0.183297229172485	-0.185692038615374	-0.187245703325749	-0.18700872865699	-0.183650191899257	-0.188312860094846	-0.185240628687169	-0.187365400893528	-0.195375077496293	-0.182568009601414	-0.182619685514323	-0.192196391732383	-0.187911451373144	-0.18373509034015	-0.190479123138886	-0.185835479887312	-0.198533049891155	-0.195241576094552	-0.190106928777199	-0.199139854226406	-0.196262158602851	-0.193551029540452	-0.193544337994723	-0.187607230905411	-0.19258481121238	-0.193819524993404	-0.189797609946382	-0.189978853678982	-0.198074941281251	-0.19474591947472	-0.199240273412086	-0.202164341330029	-0.184187336123207	-0.202698897327682	-0.2026540194416	-0.199754915602298	-0.206437592857077	-0.199287263604579	-0.199015699945789	-0.203610306117765	-0.204639618853673	-0.198622198111168	-0.195009922267244	-0.202422242436186	-0.203015252495007	-0.204188954493664	-0.205177215734167	-0.214657862223689	-0.214002796323801	-0.213078205093265	-0.206334298977717	-0.210317498661103	-0.206065722438689	-0.205459724316755	-0.21602760202099	-0.208379704576491	-0.22162681302489	-0.211420179726524	-0.209157025331001	-0.217831537497792	-0.209090057906054	-0.218637911505443	-0.212433854294645	-0.217263370318823	-0.225323956613524	-0.206787195271457	-0.212892839567445	-0.218400501289042	-0.222641522043309	-0.224324433032829	-0.220299100600447	-0.23053263221305	-0.228937726686165	-0.220288801750779	-0.227335819602312	-0.222386634596088	-0.233081016502343	-0.211682400443222	-0.221203781895958	-0.230569862685042	-0.216485213820153	-0.229260652395321	-0.228319776283153	-0.227422286029798	-0.226391169497979	-0.214064081476978	-0.233516997284647	-0.224000399156445	-0.231203660777049	-0.222319233104403	-0.231837854156576	-0.228742907841553	-0.22178248863633	-0.225164648299005	-0.232566737132858	-0.228557015273201	-0.234702589867752	-0.232639537539855	-0.219541779871503	-0.236893739899973	-0.233701537017925	-0.237611910486622	-0.235311289207364	-0.219761038302166	-0.249790518759248	-0.236127169243682	-0.238023993102559	-0.240654037818047	-0.248716744414598	-0.247945063208306	-0.244740194419173	-0.243229811448825	-0.250323797007666	-0.24470839014654	-0.245305987365333	-0.246839551009004	-0.251194798710873	-0.251812651780012	-0.241214032026187	-0.246924696025713	-0.248099252893053	-0.246400072341847	-0.244105920827034	-0.249679556482754	-0.254256722929682	-0.244801800074004	-0.256475200736142	-0.258354711019866	-0.260145530597084	-0.255412909896499	-0.257076590812396	-0.261456284968812	-0.259546740362925	-0.256772658381912	-0.263132739645897	-0.263657198362876	-0.265617105357328	-0.26151359807611	-0.259094999609772	-0.264975386695381	-0.273134163080255	-0.257386419624429	-0.255686498997522	-0.270440927833169	-0.261462962865306	-0.268679682319242	-0.258959443757649	-0.267650932175892	-0.262006782060356	-0.270696791053676	-0.257517022526778	-0.261780955054395	-0.266493274336405	-0.260636228802923	-0.27655852560985	-0.263607779548858	-0.276200140714301	-0.267696459291265	-0.264534304150984	-0.266674777255646	-0.268134400424948	-0.27050031629916	-0.268329943986443	-0.269060291930961	-0.262981779736156	-0.271936047591737	-0.275546886467626	-0.270861780330496	-0.269288712166963	-0.26003226620222	-0.283254155471963	-0.275644031702434	-0.285012228251277	-0.277723841224984
"2"	0.264918404675678	0.479787767046126	0.443034405467627	0.440157162115496	0.562342286894866	0.567435421937714	0.497173172107024	0.571442725613917	0.54133789568447	0.523363181667957	0.545858423313122	0.551011614046404	0.538364083068064	0.503284532074059	0.4977692372346	0.50475077659411	0.484210214811568	0.50433073638605	0.502186431138133	0.486690070190883	0.477663251912025	0.535656429057445	0.466822909943422	0.459879606363974	0.434780114101086	0.464882617655634	0.468435031479093	0.422626248046433	0.424249686184136	0.427442070834074	0.41352056648857	0.392944045276099	0.382394493916803	0.383920619786899	0.354728517486584	0.366774167557509	0.375824004667122	0.378360278426472	0.347156599387491	0.354375022723698	0.327511822893232	0.303706975201211	0.331610890326998	0.320173288737934	0.290579857202028	0.260555450002901	0.277573199739582	0.294854588689211	0.291790616630553	0.267386615639189	0.266866924572184	0.222053409875302	0.283436851913788	0.217807971279755	0.240241386799953	0.205904974661256	0.224164928178611	0.227134453975029	0.216603901439077	0.227130383717581	0.200537670195656	0.203489013015226	0.176488204954847	0.210405728635088	0.165710896274202	0.17582234862651	0.185240461712895	0.173321904833882	0.140834353464063	0.17324785160559	0.204174518378159	0.165918261429033	0.194322865974939	0.162930036241882	0.178601200656276	0.182696031060179	0.152176399150751	0.142615821981694	0.124405748719867	0.145981781702451	0.132739522660988	0.135709027479583	0.129378296140718	0.126833900186206	0.113364144832928	0.103184853983154	0.0964165845048224	0.0886013741501954	0.101450712111542	0.100473740904499	0.103541545594639	0.0816390565490012	0.0757710260525244	0.0442898031416963	0.0695359834541477	0.0309286359181147	0.0396102397811153	0.0306530339845087	0.0308871377178542	0.0155602885497877	0.0258957896974349	0.0305195977244801	0.035600190046454	0.0239502535564237	0.0302855948209488	0.0205212790171258	0.0124209472526418	0.0118104312537663	0.0250665042811972	0.0085378516738947	0.0335521982033758	0.0461456649112758	0.0119865024512527	0.0319936638720186	0.0164163654920878	0.0217241724686536	4.74562977121534e-05	0.00173337398780327	-0.00448670567363521	-0.0139186742753161	-0.015139532157402	0.0276452393802636	-0.02708939153511	-0.0151499604296228	0.0124515878963082	-0.00317704482273787	-0.0333243086597807	-0.0471442762452945	-0.0435176415270466	-0.0306441900555079	-0.0375492774198933	-0.0262530084379819	-0.0390433687673778	-0.0198822932501278	-0.0464005687755877	-0.0403550266632172	-0.0291015396238237	-0.0450111037796821	-0.0394904896404956	-0.0499757587845086	-0.0509542580162996	-0.0648795808096401	-0.0508101079783325	-0.0674501322987199	-0.0623731498600689	-0.0505024451844155	-0.0680367731297614	-0.0858111972720976	-0.0646604273074638	-0.0664515478555956	-0.0631770115163641	-0.0479989798232495	-0.0591897441044762	-0.0695278233075523	-0.0743975060323599	-0.0738718330163889	-0.0840744521050887	-0.0733221512669709	-0.0869509885198421	-0.0851308931575822	-0.105524083934627	-0.0833129344811613	-0.0978977935005632	-0.109601025700243	-0.0901276592885209	-0.102886658857342	-0.118075819211463	-0.101837341392351	-0.124123347216	-0.111911109966381	-0.118543305251456	-0.120297293848521	-0.114463881747622	-0.118077779445795	-0.138080235187614	-0.129374086464395	-0.125333089805967	-0.119495464187873	-0.13408659156744	-0.136881850415326	-0.141076325511132	-0.139386111038619	-0.150346911101786	-0.148504233504604	-0.144009621117988	-0.141982470995212	-0.119836520832204	-0.164625781109622	-0.162051967506924	-0.164838665087664	-0.171381141052827	-0.135791667926981	-0.152743596382982	-0.16344785741699	-0.154160069274322	-0.152713299440402	-0.138274022810283	-0.160502136856669	-0.148094736129707	-0.163995363499862	-0.160653546621885	-0.157397319840149	-0.175474829719031	-0.14658629971703	-0.175435113138113	-0.173165348520904	-0.165801838294942	-0.180956612791713	-0.153424472886729	-0.173409267226428	-0.170242829512419	-0.167755139822105	-0.17583026578301	-0.167940167274395	-0.172310567972295	-0.195429437267093	-0.180110136604113	-0.176963665383888	-0.199224518420786	-0.201413911918112	-0.196671369252082	-0.182266805500911	-0.188907106347092	-0.198970019623569	-0.196109332281804	-0.180557497693494	-0.200741369921313	-0.195613663030596	-0.1972416198537	-0.203790132162279	-0.190431058814379	-0.190971746435694	-0.214307444616296	-0.203011738985728	-0.211328822820969	-0.197819853366415	-0.217043247163029	-0.197716729363578	-0.200162041270537	-0.191496099050401	-0.22784457540019	-0.215683063933257	-0.21464531497988	-0.215329818209678	-0.236109311453753	-0.212118596407547	-0.229999907612768	-0.216338828258696	-0.2116398956832	-0.218528988249349	-0.227012805055374	-0.224746307016496	-0.239886462836649	-0.255492176916284	-0.236769294125147	-0.233410639873912	-0.253426172062649	-0.243754438689157	-0.24989349284535	-0.251510469343348	-0.247878398864113	-0.236211211195159	-0.242281349213964	-0.240156215582806	-0.25805715209438	-0.256164164594042	-0.256758922580487	-0.248237570791018	-0.258483282741063	-0.24865188298367	-0.263721864681725	-0.224633380675883	-0.244130570562876	-0.251531971936542	-0.255691928241696	-0.242440539015021	-0.230243706308301	-0.245776965292538	-0.250919319701323	-0.249926994439845	-0.245577394822526	-0.270429814365649	-0.263136477909968	-0.264002263989297	-0.265408862758462	-0.261922029733182	-0.266721570014723	-0.250619535954271	-0.270213819108904	-0.254649747671335	-0.275690476403279	-0.280986621013219	-0.263569875284545	-0.276658186114496	-0.281875283924512	-0.298617962168261	-0.274107652076444	-0.277604619811643	-0.28983127223261	-0.28970444159558	-0.288837611378609	-0.312830480932609	-0.273343760672231	-0.298947029790549	-0.278219251101754	-0.310085314418847	-0.299536993289366	-0.287589340662058	-0.277882583018067	-0.286603466031745	-0.295239677161291	-0.299286660550004	-0.289415207867796	-0.283008360687584	-0.303477324144625	-0.298421773077733	-0.291289894990729	-0.292383379718237	-0.313365188056998	-0.293859094193122	-0.281097996185068	-0.291543131078411	-0.271559552784971	-0.289879905193625	-0.281748941354412	-0.273343053770767	-0.296698286530153	-0.292733697844372	-0.306491949510899	-0.289595264782284	-0.292258912780736	-0.293103423427199	-0.292585417405126	-0.302514568868554	-0.303335868476665	-0.295787897109618	-0.309208455009423	-0.316180851702434	-0.308231332929096	-0.30998442048089	-0.302972730793502	-0.309397561574739	-0.303636517334277	-0.317913866377435	-0.309978519608079	-0.323705384134601	-0.317513613920934	-0.328591736384085	-0.330704592026578	-0.341475772044352	-0.339577513440669	-0.328294238820826	-0.323334280204608	-0.334531331096806	-0.331179952788509	-0.328333389769269	-0.345267800757114	-0.329019730009556	-0.331559382224196	-0.346882648230743	-0.320277816345503	-0.312099004245868	-0.332026322915267	-0.318877970951545	-0.326053622327292	-0.331300136370345	-0.347664320620803	-0.337919325021234	-0.34726041449945	-0.355928096544834	-0.353182737632072	-0.326934524077665	-0.355610286560985	-0.348709831893282	-0.328914991198703	-0.339852623431477	-0.356111962282582	-0.353546300165285	-0.358098483374483	-0.349693027989261	-0.360311801611279	-0.35666764154436	-0.346443086047815	-0.341571027185497	-0.363438748662128	-0.361630079872538	-0.338288265058462	-0.350199490218392	-0.35207072165094	-0.359235371753253	-0.345944903564383	-0.356236935434808	-0.353798325483702	-0.356442664874434	-0.349099424052834	-0.346386076969644	-0.363525077124046	-0.374853325733765	-0.352546790601258	-0.352251648730414	-0.343992451238234	-0.339653506507931	-0.345542633605438	-0.351713892306684	-0.354286667853518	-0.344856480160976	-0.348825813206086	-0.348429012775817	-0.359120262908862	-0.36182191238561	-0.368841142396368	-0.362938026778922	-0.375355975067447	-0.370852247515328	-0.3541505554932	-0.373968744969303	-0.374256324452129	-0.36864844226691	-0.380239264281634	-0.362964034284174	-0.366238817411641	-0.366267221841691	-0.368963509132836	-0.36763453170565	-0.369699269370538	-0.366654180096672	-0.361410610803544	-0.372279541364143	-0.374415638962423	-0.373961468879367	-0.373909115059804	-0.374185196610334	-0.388215596263785	-0.382073433747934	-0.377162081562024	-0.371824901887216	-0.35843597904315	-0.391207579924129	-0.389379911489335	-0.389450866763695	-0.39322311969856	-0.365933721682157	-0.380328958520987	-0.382451394619444	-0.374061027401883	-0.382017330405184	-0.370603541453808	-0.379917417542078	-0.373259881425085	-0.385918409916906	-0.380145528542621	-0.374378332411124	-0.385379265254822	-0.365148072677452	-0.37726852179267	-0.374769841114787	-0.382521982594519	-0.391668797815204	-0.355143582731338	-0.382328823653242	-0.375632395016327	-0.380370947938446	-0.376170118346311	-0.377162736984292	-0.377805141550775	-0.383477515397592	-0.37736449186216	-0.37284159121819	-0.390372151754212	-0.394594877197831	-0.377889385361534	-0.377884608178216	-0.377998343209388	-0.395484489851935	-0.379634727719259	-0.389012662238264	-0.38138682340222	-0.39170401364632	-0.3909833748781	-0.385105579564608	-0.384222074470775	-0.371053872435214	-0.398889298894462	-0.379665233324663	-0.391799082211362	-0.379800616995357	-0.398963638878912	-0.378569242274169	-0.379521471521094	-0.376301091438238	-0.390767790421559	-0.389575449350183	-0.394976351315804	-0.381331060213854	-0.391208985486563	-0.382705832104151	-0.398553228895617	-0.371360072277913	-0.380171345350794	-0.38710639645379	-0.392951166393157
"3"	-0.260723161681251	0.0835882647148228	0.0335853234337522	0.0206402526419098	0.0266826546215512	0.00431550319389367	-0.033909311342987	-0.0509173225638701	-0.048951464838317	-0.017724281170824	-0.0418081505522597	-0.058585704461161	-0.0637010762890369	-0.0750475046992047	-0.0593402437912095	-0.0804537341221652	-0.108162800181783	-0.0945158870169069	-0.109473531754332	-0.106538569372241	-0.0993774331592645	-0.0724223612922562	-0.105359705292408	-0.11366624088108	-0.112192819549123	-0.105850101371142	-0.123755789890145	-0.150976314740449	-0.139743037091058	-0.168810313132088	-0.148664646776173	-0.150512111243905	-0.167235486478736	-0.153591538045765	-0.150282875905309	-0.133656970093719	-0.144450202361363	-0.140342421221774	-0.147208317512568	-0.149177030757164	-0.180379585254951	-0.171722072413733	-0.18002013035628	-0.179711914010723	-0.17812477843341	-0.182997297341911	-0.19850938078031	-0.19205299202599	-0.182646071270371	-0.198895703102176	-0.187269078849565	-0.216329912166542	-0.203640290410783	-0.206708125006724	-0.214016852860601	-0.220714641309227	-0.20870085791411	-0.205717322701655	-0.208956753044674	-0.220238985872722	-0.211565147624587	-0.214081198530406	-0.225665112100871	-0.210817532253139	-0.215840200548053	-0.22154374349163	-0.209821137961709	-0.200164906593081	-0.228290170848642	-0.236984816481665	-0.229415381670247	-0.231063810939025	-0.222005866627494	-0.210051450684711	-0.22509521952631	-0.225229938945338	-0.213146581771409	-0.21608296600135	-0.217193359257722	-0.207551418151596	-0.206873986407271	-0.206854366474124	-0.223205772203426	-0.199595994332897	-0.21773572706264	-0.211972405672848	-0.217413450244982	-0.211571518513469	-0.227051202296548	-0.205108494188958	-0.220349184344918	-0.218597869994687	-0.209273029394978	-0.235361579528909	-0.236828982966381	-0.240526840264168	-0.235356263146612	-0.242525582450911	-0.240392352761283	-0.237281502569436	-0.229578414724228	-0.232851397201811	-0.22020927700343	-0.236164196499005	-0.253535014260936	-0.248361946762576	-0.237827053891134	-0.240390294831195	-0.240186526532619	-0.240487094845756	-0.247378808963113	-0.245056567063279	-0.246676628854309	-0.252524007662215	-0.249658634064006	-0.255681475398428	-0.245119334101779	-0.256864906884757	-0.262484516937747	-0.26552649354384	-0.263609643483847	-0.235364816272637	-0.24800460523018	-0.253198696263907	-0.259373574821961	-0.257770375895409	-0.258466226265475	-0.246842794201503	-0.249259929602845	-0.247240841651586	-0.259460824556449	-0.251788496889338	-0.259664799748555	-0.244911555793779	-0.251522827442266	-0.242588212954667	-0.260000627832826	-0.261187014218182	-0.263461818163011	-0.249196061648773	-0.252931286998621	-0.249616641216861	-0.256592101721875	-0.276106843731198	-0.276632967848936	-0.283155737287997	-0.282762198484068	-0.274665858909739	-0.26845197526548	-0.269915659534558	-0.272484323288942	-0.260314520748725	-0.2821074896403	-0.258050959020455	-0.260032472215835	-0.25697203572768	-0.265205741468843	-0.264042033314486	-0.265842234172718	-0.262221175426259	-0.262031926091887	-0.233587363165867	-0.260022033082809	-0.264604273430282	-0.255689299057281	-0.262255176862653	-0.258311000238552	-0.26391614894865	-0.265223869154546	-0.269044358159746	-0.263376018861983	-0.271856973954962	-0.277333388382567	-0.271001906853744	-0.276267568705172	-0.273673286470322	-0.261947116913142	-0.269828263682134	-0.269222379431807	-0.259338132398527	-0.266918621558825	-0.264149858051204	-0.269581862323924	-0.262413047212402	-0.278428237923903	-0.256287215651663	-0.256567650053329	-0.266708973926011	-0.26834982989393	-0.271978465145073	-0.285487760367719	-0.265556959733091	-0.27101203647379	-0.264879584930465	-0.2644544941264	-0.258434536919641	-0.257474259837506	-0.254769327225677	-0.252637891732244	-0.262102073208426	-0.252473554965184	-0.24696484409792	-0.262131719368604	-0.260286121107396	-0.253187028201956	-0.26608141403014	-0.267253572589937	-0.267618542944979	-0.256577864021762	-0.261251947703378	-0.25549882841051	-0.278642701793687	-0.264637017382895	-0.268018824313691	-0.260282038082409	-0.272298808849506	-0.263609026120558	-0.269014165728023	-0.267963797484469	-0.26351647634765	-0.260235258599415	-0.248978756890407	-0.245146441013429	-0.25312102580781	-0.255033797028877	-0.259705958795831	-0.254809995837952	-0.255939749275373	-0.261841416151148	-0.258289013256261	-0.262629689730063	-0.269217023438995	-0.263192209917283	-0.257322938015058	-0.252516217851933	-0.261486029687393	-0.252135890739256	-0.245895593569215	-0.260807452009881	-0.259101529862787	-0.260773103645219	-0.258037395035807	-0.263123215139188	-0.254778940268723	-0.258673862844722	-0.248781838319358	-0.254397355194849	-0.244250915555905	-0.247603428796998	-0.245371316740164	-0.243297094691491	-0.253932459435563	-0.254227677286411	-0.245917776961703	-0.238865687975785	-0.24773699586152	-0.245857097507413	-0.252003912084625	-0.242359734329034	-0.227150110766059	-0.238370371787025	-0.254510428251421	-0.244405158357939	-0.245456784984079	-0.258728628006007	-0.260159355666135	-0.257867368267097	-0.248632034300908	-0.250329311287798	-0.249836354478163	-0.240330665712897	-0.226620387979054	-0.228797748361343	-0.245248366892352	-0.244428144986028	-0.234343736551955	-0.230339057967359	-0.242729583722452	-0.234923075320309	-0.243790621778355	-0.237124464321864	-0.234039455623057	-0.230730461608799	-0.232198761457203	-0.228121898096232	-0.224974623401819	-0.228036624246961	-0.233737784713606	-0.216665116504741	-0.219681808942613	-0.223644248962333	-0.233492642932739	-0.231223770910785	-0.219411067931048	-0.234188658527343	-0.229467496539718	-0.225955084916154	-0.225377847901124	-0.222553653651737	-0.212022615091365	-0.224346618091563	-0.224731041210703	-0.225508924908623	-0.211771566540171	-0.225294348261734	-0.230634870626667	-0.223863246569857	-0.228355227286015	-0.222150502558801	-0.218965275889258	-0.224353139628048	-0.212756962547019	-0.219331281284232	-0.219080567179396	-0.218399279423896	-0.208230542136382	-0.199743835942213	-0.207165745060297	-0.212028192238448	-0.217923433011927	-0.202928021179382	-0.211558860812266	-0.198100750877566	-0.20630130723839	-0.212082136459871	-0.206429643217755	-0.203594147882067	-0.206801187884123	-0.210839553725228	-0.196201552692407	-0.192568280815311	-0.19858309751649	-0.202848663336642	-0.190208380104856	-0.19411935031544	-0.197786584024295	-0.204242623991873	-0.197159547853781	-0.208780898479646	-0.194010792057169	-0.185778203414622	-0.195896434244636	-0.188045682882903	-0.202953273879656	-0.203233280267752	-0.198968459540546	-0.19946507300027	-0.198046459136787	-0.191023635032662	-0.194995813457625	-0.190664485879844	-0.194628993163155	-0.183575099238364	-0.191624991434701	-0.19808132060607	-0.190919203988398	-0.198573530669386	-0.198399156757229	-0.187553410740499	-0.185679347022475	-0.189815061633594	-0.189831081827263	-0.191324954604884	-0.179483371642276	-0.186219028887742	-0.182109576442313	-0.184576647836996	-0.183674192712381	-0.182275987850337	-0.188182146988914	-0.185052968506208	-0.158148918085012	-0.175077005314652	-0.183310226843785	-0.180177442826092	-0.172925035787796	-0.180552538330138	-0.171771446183336	-0.167192951011923	-0.175475102753125	-0.182125067659046	-0.163781111655057	-0.177522589932611	-0.177167299044918	-0.175027006579967	-0.162673988971936	-0.176534683509462	-0.165439002770428	-0.179791608616578	-0.165915512721037	-0.166710906460143	-0.167848286434957	-0.177653803739104	-0.183391799438123	-0.173579835585936	-0.182596092988909	-0.174998541144352	-0.184706743700221	-0.176690286624341	-0.172767254387395	-0.168109818820641	-0.167197590152092	-0.172656970285272	-0.170396661663033	-0.152066936725508	-0.157111017511751	-0.15202040527899	-0.158391611117074	-0.160472478670097	-0.165869009127892	-0.161471944734207	-0.160463335009615	-0.159751709183974	-0.164978854833836	-0.152502941727469	-0.162766737296046	-0.145329687377629	-0.165051243851471	-0.167730814443188	-0.15741431190024	-0.15776428463912	-0.155664284956632	-0.151763803328102	-0.155583820998089	-0.145369910700552	-0.149163225862704	-0.150873884411767	-0.143761687285954	-0.140951491431582	-0.152763914236384	-0.140819382650226	-0.147484315987677	-0.153672282266549	-0.140690613226793	-0.152649406364068	-0.145597551280677	-0.134547935828486	-0.156082589512648	-0.149484156710586	-0.145409724750454	-0.154683998466093	-0.14604237818025	-0.148348249536364	-0.141650727045959	-0.140905368499344	-0.140375472963822	-0.147124723483795	-0.13648844883919	-0.132661580031818	-0.121997731643231	-0.126786006920856	-0.13004144730636	-0.128139068191846	-0.1395698425159	-0.139746895689602	-0.132612003615647	-0.140622668562532	-0.13484728886419	-0.133771595734903	-0.131643906438748	-0.12737162435638	-0.139897153535006	-0.132832893546118	-0.143750170984697	-0.126795047345589	-0.137537672362752	-0.124942526926619	-0.128738017608896	-0.129974605117072	-0.132467796117323	-0.121851684521491	-0.113017559825743	-0.124446093696004	-0.113695998040627	-0.125451267385951	-0.127232578841264	-0.119112282340915	-0.122967650151626	-0.127420908419104	-0.124319972256815	-0.1187681048825	-0.126492088927356	-0.122537177267088	-0.128354406538827	-0.117585729719536	-0.119321891980773	-0.1138810780416	-0.119259370967733	-0.11737208261582	-0.11141015485263	-0.126435993117175	-0.121236029490374	-0.119920443056764	-0.117966820778492	-0.114815351114773	-0.107364589269166	-0.107769657416982	-0.112391236769296	-0.104622677633929	-0.1168235615271	-0.104501447868076
"4"	0.216240755183575	0.315507623798866	0.263403983080649	0.236186969598364	0.165430784163259	0.153240995625023	0.148235582586	0.182260629473591	0.141106844099249	0.139760763222323	0.147928437479969	0.212105479748477	0.206667989175946	0.195700223104754	0.227473707760358	0.279387612729051	0.280321002806045	0.289924975469542	0.28544530175154	0.282034758125656	0.268474968261183	0.287706464969706	0.317952161297019	0.33165332460412	0.32172253863636	0.354886367059955	0.412611042653413	0.449739844110726	0.420474220954225	0.441684666366977	0.419248507923744	0.434086475349742	0.431700552957432	0.438216604946658	0.453750235829755	0.441139317143391	0.480550217086947	0.492736173326258	0.485073928631582	0.479710992572324	0.507797689716594	0.494082794742385	0.509349120283593	0.495238631067451	0.526451696348764	0.524572226510549	0.556255516869922	0.556052558628853	0.559895273934922	0.573432771202064	0.574918263576338	0.597597954950011	0.613923105705729	0.595125838520233	0.623605941889148	0.606584125885107	0.619475694298425	0.615725883511697	0.60457022075422	0.63795755388679	0.635147497205346	0.631329682806211	0.651810272138536	0.670826260849787	0.645268934071721	0.646321548526397	0.629807097907694	0.638215672844329	0.648882329103595	0.682960220799287	0.671660081980025	0.692591190354166	0.689162470365507	0.665629818323958	0.70214813004651	0.727120232209487	0.67446312632507	0.697341958252768	0.687683835967349	0.70751592263069	0.687855728503838	0.713443208987798	0.711402736549196	0.685408483703893	0.685787658713575	0.699455750534359	0.715936396053119	0.688373283787333	0.721893364773587	0.702573272218231	0.727661379237173	0.727633536428794	0.742432766892929	0.734821196200041	0.752127768072588	0.738222250423196	0.733583318828482	0.734283675337925	0.730523357563499	0.742032545574246	0.729984184016357	0.748738414723415	0.727752455287631	0.738595277715443	0.777960113428838	0.756561569678194	0.746501570703854	0.776602671755414	0.746610885420042	0.762079845986997	0.770843440551649	0.787206225922265	0.782303740585523	0.76134628165956	0.794006940035855	0.791470629380408	0.748948399309431	0.789704937452342	0.785426105687609	0.791434392192878	0.790974595709189	0.780206518211269	0.775566042853059	0.782789608885931	0.814087394036668	0.784404741604732	0.780097582249304	0.791509925345942	0.781091768289616	0.8064695202063	0.801457996427187	0.791186130357533	0.823446312347293	0.811475415386576	0.801260506012245	0.794670585176573	0.833447704976843	0.809386759925986	0.832772860864225	0.818361727310413	0.834100099043226	0.832788857773894	0.851130578454093	0.870961963911331	0.868935531439857	0.884602515290457	0.849448238332209	0.852678768063467	0.855286390781249	0.860534670610469	0.867548014135471	0.860096284431949	0.885435546018223	0.857043088777639	0.86108891732486	0.864017614926765	0.872462718061945	0.870305277512406	0.86330487149555	0.862554517546844	0.855831492119957	0.848512357560432	0.858943943279091	0.849569779477561	0.870972311966949	0.865836412608254	0.858366673694902	0.869151623234539	0.883177604276092	0.901700123714066	0.897604320114748	0.915195215984665	0.898519614708582	0.899251319675216	0.889857319814926	0.916945613306467	0.909857498060434	0.901341545487018	0.883818227205701	0.893698736647979	0.905396654282273	0.879968250723159	0.894494046405137	0.879497177865391	0.902931335499102	0.873351464052861	0.889191352588134	0.88720709273612	0.896184412713356	0.883072741066198	0.899768774369614	0.906748424191566	0.918118020522784	0.896788820637404	0.915564785468527	0.900406107743913	0.927604964084706	0.924760977911355	0.914883491549887	0.916402657760488	0.912073033547889	0.915646522709857	0.912073290520742	0.940070903110454	0.925150806917915	0.932970011990254	0.93119258595117	0.927966295614678	0.934961124714118	0.940422683705703	0.935558432001001	0.96775646752134	0.947771448922329	0.954463797982819	0.942895103332887	0.962808509701764	0.946664055760038	0.957108271644864	0.952445877206548	0.954449938164291	0.952411116819597	0.938331977423583	0.945901778180446	0.935841003953875	0.965429426227297	0.961558231545892	0.948547997533419	0.967122075629315	0.964963883525698	0.967407329412052	0.97347893386817	0.978642477026806	0.96669938306852	0.970351483198599	0.959860603508858	0.985126624705995	0.947020065149672	0.971800739293799	0.966634502826014	0.969828265713138	0.99469015226964	0.998106730758383	0.967777734645938	0.98924901178816	0.974155247699012	0.963168496338925	0.983026276782105	0.973224871383636	0.983991520953066	0.96560468282464	0.964236958714493	0.964739009216008	0.973910447139511	0.974784962864759	0.959881748928599	0.979506571472718	0.969706886192499	0.991500977271175	0.95848453002851	0.949805235077999	0.957745504458437	0.981418086932328	0.969147690975688	0.961651225728898	0.988907853567646	0.996813528912652	1.00026166061959	0.996712541095651	0.986232257559229	0.978900185511337	0.975278901192843	0.978157449546666	0.996453948949154	0.986240213080977	0.989549517688506	0.986523821111758	1.00867084047617	1.02726321201661	0.995452950309567	1.00962688015342	0.999842431522416	1.00025491802527	0.99727314472746	0.990021297079047	0.991807530202847	0.990033050186615	1.02992958134514	1.01729245661061	1.00400902923195	1.01052613513238	1.00904482171675	0.99701393549295	1.018290717695	0.995318326924228	1.00689603880195	0.997263521698371	1.00431397244269	1.00632276123272	1.01192367240431	1.0181953094258	1.02073182142641	1.02485368348008	1.03152422204504	1.01494431285121	1.03830585278702	1.01367096216997	1.01850538581748	1.02700605570292	0.999115343502808	1.02276714150213	1.02322022294075	1.01980938357098	1.03600802161311	1.03005469207252	1.02568453272624	1.01481521327173	1.00876928575556	1.01226295645563	1.00221472520837	1.02683419207567	1.02158216606324	1.02935446511673	1.0268339332492	1.01474915621015	1.0299833624068	1.03898040205451	0.993484747756621	1.02268183373153	1.01756420068671	1.03482775977036	1.01030379894946	1.02466891236121	1.02811063641297	1.00817761296005	1.01532140126045	1.01685392376209	1.02517732799301	1.00484426243349	1.03114875914727	1.01229679014087	1.03128456898321	1.02964516559227	1.03056850951244	1.02869385991602	1.04258340995526	1.02656742772766	1.01916345144377	1.02972964303552	1.01569144072823	1.01911878586182	1.02188820447745	1.02782535302323	1.00244666303667	1.01665014049	1.05402429115335	1.03128346173149	1.02039796536484	1.03902490885398	1.01021713678131	1.02906090263191	1.0415404494585	1.04116390839393	1.04064628461687	1.02039121584959	1.03876491991711	1.03696305906134	1.00852700962437	1.04053230069918	1.036117818787	1.04197688980515	1.03411504612734	1.01964083943653	1.02662847601186	1.02540538612817	1.04509552957586	1.01950924442027	1.01697296600296	1.02119003151218	1.01094304209026	1.02821022367315	1.028746932944	1.01395995541293	1.0486930856425	1.02850042167146	1.01952320500811	1.02006561760817	1.04159202437596	1.02194952613592	1.04095655912658	1.02504356726404	1.03234353327049	1.02828245565301	1.04296449896719	1.05786165667365	1.06145536566827	1.05840650831435	1.03890405364876	1.04976615030477	1.04028674403365	1.04466210751481	1.05217884471418	1.04177191000917	1.06361977215664	1.03494738176518	1.03909754173861	1.03316332442656	1.04304943079996	1.04238911043667	1.03238665794731	1.0400018166056	1.03731039517253	1.04281179235856	1.04241970645744	1.02340966949592	1.04867738142132	1.03845018907895	1.02692446755216	1.03907291311477	1.04173487786449	1.0575499945993	1.05490395355576	1.05907624094746	1.04727848754629	1.04165038462616	1.03263661142549	1.05708780694478	1.05167384711437	1.05332513322553	1.03192015277463	1.03856299010448	1.04774144206347	1.03452328653122	1.04068864715065	1.02888808178782	1.0463550092451	1.03101160296487	1.03677655382205	1.03557637208413	1.04293019352492	1.02863076631156	1.03386250463611	1.04758312547991	1.05210565170298	1.02647931330677	1.04076693887085	1.03307973942372	1.05424825078127	1.04319689519705	1.03788237926429	1.03117923683369	1.03150530225884	1.03865714237647	1.03420445540058	1.05978453565234	1.04402191642009	1.04406922971482	1.04490156453701	1.0457604313147	1.04210747217135	1.04469069092853	1.04049359416502	1.067388741667	1.04994545482878	1.06242245531968	1.0458469871232	1.05246199589029	1.0319181311339	1.05324882912427	1.05053450900173	1.04781946143181	1.03387368546969	1.03483839105776	1.0445698016772	1.03472598491966	1.0541393581871	1.06197471163067	1.04021881460393	1.06181559410645	1.05905670470042	1.05338555466952	1.06373008686318	1.06475541053337	1.05667409800709	1.06482224518394	1.05462746116056	1.07074467627221	1.03978476825081	1.05785959357629	1.05828501286138	1.06098167066139	1.07276600251808	1.07511595622364	1.05512278809368	1.06314112266151	1.05278199544817	1.05342596391627	1.05693323415358	1.05575329897013	1.0598924792727	1.05211358790801	1.04361561693331
"5"	-0.416324359843158	0.0355005776407247	-0.0211396638662331	-0.0761008224441362	-0.118982168575138	-0.131493662988807	-0.14905111848019	-0.19445390282713	-0.18600607123626	-0.218089436197325	-0.225129329676574	-0.255763582128442	-0.251065702863688	-0.268960379089811	-0.254680675420758	-0.277472272314571	-0.288777986227719	-0.298169397767922	-0.311261267371059	-0.303596503058777	-0.314537053088766	-0.333562864290017	-0.342040706259356	-0.335871899264217	-0.340154995647527	-0.340863024909031	-0.357022084288334	-0.361130404039622	-0.385186728519247	-0.371458182008789	-0.380961569365768	-0.382710144288731	-0.374499075436708	-0.402468184859289	-0.423270967150273	-0.411535692770245	-0.432123112083156	-0.428993422327352	-0.443478703654997	-0.447284369326306	-0.447471579328205	-0.450139449760215	-0.460180003303673	-0.471026454599042	-0.467749624364237	-0.474537558602853	-0.484555554012664	-0.481179438442643	-0.501811566447409	-0.483869236288269	-0.502322399689994	-0.497817308428606	-0.507353261144755	-0.502265739532371	-0.502534408242739	-0.51128729612284	-0.528702132495275	-0.528149840316746	-0.510495398949681	-0.538796728577533	-0.535103610036352	-0.549924229679679	-0.538400578852621	-0.556647725912437	-0.552552025661587	-0.560417912196491	-0.571124765231711	-0.567684982439919	-0.570215033975877	-0.563907496667699	-0.578653684983839	-0.562652627025104	-0.576669868250621	-0.57208370854846	-0.584129149578657	-0.587437946021012	-0.579971363337014	-0.580804626939353	-0.59329153614692	-0.603999602835037	-0.607562920325805	-0.602022577216077	-0.621208808975276	-0.60674593129838	-0.604496409900642	-0.625430755875905	-0.618345988853371	-0.61260776344908	-0.614497652040616	-0.617018298551119	-0.617961340628988	-0.62119193077692	-0.629472632350162	-0.634500248409876	-0.634933753370419	-0.626520864010206	-0.64653033985842	-0.641189110866121	-0.644145106136413	-0.648818304036568	-0.646099978726981	-0.63757503670767	-0.646239660482515	-0.65435435889228	-0.641014810142064	-0.643258187547172	-0.643658281874594	-0.662876541898807	-0.658512641203425	-0.669494049647305	-0.667397137056922	-0.662434469773795	-0.670478263378376	-0.665790453935408	-0.671283880083276	-0.668793808849987	-0.677532425855607	-0.679601986141838	-0.675534603287098	-0.681381030565982	-0.677142971417743	-0.672360357258939	-0.675715415270963	-0.696784910388121	-0.694671321114227	-0.694003463441634	-0.696075546607981	-0.690360677131567	-0.697924267021421	-0.704480812072217	-0.710582308508861	-0.717756857725555	-0.707656819208879	-0.71214910573296	-0.714012819064719	-0.721646803343264	-0.725801443903245	-0.70213714326616	-0.735874222397804	-0.718125592900611	-0.724343086045013	-0.730783810480815	-0.72441737628772	-0.722900152422395	-0.719827175058878	-0.724113900531775	-0.722670621121029	-0.729773678250662	-0.733854187317352	-0.726807579204203	-0.72542247789252	-0.73927490000142	-0.739627025226273	-0.748510573117039	-0.741214358203623	-0.751698917932093	-0.754311903652362	-0.75150421664919	-0.750278896520927	-0.755242740726227	-0.759401132321292	-0.760513112517807	-0.766307178428754	-0.769129814002129	-0.754116417904213	-0.755346899928425	-0.762088543694646	-0.756873831518756	-0.775080818042761	-0.763976804694095	-0.767315010459692	-0.758141806964481	-0.767332063089034	-0.764185560187662	-0.760008635487083	-0.761994608125448	-0.762903269427896	-0.754741843077619	-0.751592409403553	-0.770376265264685	-0.77305915721305	-0.781131184308133	-0.779817757429591	-0.772896356217621	-0.766695416685121	-0.77106705992356	-0.77615173230041	-0.775233032020631	-0.770129533800572	-0.779748041785568	-0.783017843396648	-0.78308683563413	-0.786701282278495	-0.786397502891496	-0.784453944891269	-0.783275308501676	-0.785668572172176	-0.785021868747588	-0.776464283482437	-0.783892451331809	-0.789811266593087	-0.789155969020318	-0.785528613653201	-0.79301793027508	-0.783574816601924	-0.806264122216861	-0.796261775740092	-0.788746645028191	-0.805444735552941	-0.802845984194882	-0.803022905419761	-0.800278774258252	-0.81281656764671	-0.809935773821614	-0.806677870055088	-0.805029797710256	-0.805179578788337	-0.813197882260385	-0.809533406049605	-0.814460279265867	-0.814704546540709	-0.817118067860261	-0.826116312699214	-0.81325186445456	-0.832369445653433	-0.821680033916946	-0.812295042150157	-0.815966904045101	-0.823165146700511	-0.817010868927259	-0.808558075329431	-0.807648850454616	-0.818514847543634	-0.818442159710115	-0.829791641665863	-0.824933972332954	-0.823674165401761	-0.83505714639483	-0.837523072007217	-0.82709250874233	-0.827471541769196	-0.823216519379592	-0.84082444894496	-0.835428618551845	-0.829777703036904	-0.834227017219713	-0.842215357162262	-0.840685294127252	-0.836680504407023	-0.833751281595867	-0.845052620754596	-0.845124573553974	-0.845629757363114	-0.847852039576753	-0.847191655143109	-0.844786101597307	-0.846960214864985	-0.847212953706415	-0.846239875240917	-0.854325768931445	-0.852977645554406	-0.850691942389492	-0.84899174540729	-0.855215766645599	-0.84748801676652	-0.85732797403978	-0.853479851860324	-0.860144148867031	-0.853907910166797	-0.865296040836302	-0.861959962449753	-0.8632310774109	-0.868874110998184	-0.863304461203416	-0.870572179556381	-0.86837326244495	-0.858066790193781	-0.874315341806711	-0.871792082756529	-0.866355130366248	-0.870410953097974	-0.868796341642795	-0.881275936229197	-0.871142007250904	-0.873832569334695	-0.879408792275271	-0.887993840566527	-0.871218915918702	-0.876844937688071	-0.878361593292903	-0.874014780055959	-0.884925105544695	-0.883945480747166	-0.888008676924287	-0.880928674972671	-0.883471158013575	-0.888386519869727	-0.888752327280575	-0.885645998838959	-0.887224440670312	-0.89433080831599	-0.881387300012636	-0.899463977523522	-0.897128983834796	-0.897653876830165	-0.89268391499558	-0.907065462542958	-0.903433798262278	-0.911555475547404	-0.903355641081474	-0.901230944420492	-0.906022087352417	-0.897444267047258	-0.904611796301238	-0.905138022856921	-0.910308993259986	-0.908442697900675	-0.919046778296161	-0.908362701683219	-0.91013998217333	-0.905382832196681	-0.909019847184713	-0.909806754100486	-0.908405019853125	-0.909911571254605	-0.910055166999016	-0.90295479520536	-0.903589492666069	-0.908586772052325	-0.915022808786213	-0.921425372437256	-0.915799075705982	-0.923623488730101	-0.917744441341744	-0.918841216706719	-0.928188945527141	-0.919030933836301	-0.920054146114893	-0.915849391592456	-0.925943256337862	-0.926223038524691	-0.925131137077469	-0.931358312682177	-0.921013183328065	-0.929223313025538	-0.933192761625891	-0.931227813921597	-0.937548157532547	-0.93380786169699	-0.935972551117642	-0.93533947073571	-0.936283510001361	-0.941164365795118	-0.945333597875867	-0.946359735146365	-0.937600595965926	-0.929597453485109	-0.941376596120086	-0.932299834941542	-0.936188021404127	-0.945840717309962	-0.943052401731353	-0.94478406456139	-0.949592809701025	-0.946622157227115	-0.950171179690176	-0.946156077419978	-0.949824361188234	-0.951084569134604	-0.950443296862811	-0.946403875693773	-0.951144636219082	-0.94917967957785	-0.959992817523541	-0.953697214364816	-0.954497265649746	-0.955976926645629	-0.960739198954498	-0.955101590889528	-0.959942098955743	-0.958560129597337	-0.956237842025168	-0.965501323406759	-0.962960342299181	-0.959225960534847	-0.969081595577629	-0.975004607083365	-0.964727963514157	-0.968129640688278	-0.969829650635684	-0.971371241645104	-0.969185857360437	-0.968785558885392	-0.967098847373345	-0.969812425513728	-0.968921041996971	-0.963981392939369	-0.967407055748626	-0.967254293895146	-0.969401076522375	-0.977936896217457	-0.973150130316352	-0.97886522301991	-0.972981049393642	-0.973965155200432	-0.983418503792799	-0.985606251125297	-0.980829609731285	-0.976071560487819	-0.975088443579424	-0.9801720491346	-0.983721726150851	-0.991409579754553	-0.984693730735552	-0.984743167643913	-0.972801319719215	-0.9830490827349	-0.981407713049661	-0.990425063474925	-0.990417894004746	-0.987087524573935	-0.984089437988912	-0.992788052535312	-0.991176170219736	-0.992699018544829	-0.987648627799952	-0.984485623003737	-0.984800522244938	-0.983946036126154	-0.992665149623526	-0.997644014777936	-1.0019218814844	-0.998230435597584	-0.997089655609697	-0.989785528426992	-0.999745410934328	-0.99665158084631	-1.00199691510571	-0.997300961817545	-1.00393810041137	-1.00121860996918	-1.00086448082829	-0.997370179781565	-1.00441623081708	-1.00483240061382	-1.00101737888472	-1.00504629605146	-1.00377041075463	-0.998248614202159	-1.00671713751939	-1.00465437989194	-0.997209316113675	-1.00706584484206	-1.00469755149824	-1.00638049258713	-1.01096258504487	-0.994009675776067	-1.00185040955888	-1.01827272511792	-1.01078818893831	-1.01566753211832	-1.01306261674569	-1.01951354456866	-1.00889772588863	-1.02116856702734	-1.01521457101211	-1.0118890232108	-1.02528998709333	-1.0227810769323	-1.02099893023118	-1.02627125266736	-1.02567941046638	-1.03369487604309	-1.02521755816215	-1.0249709518186	-1.02182499223151	-1.02423015632415	-1.02034513972557	-1.02885343982937	-1.02737600028287	-1.02824586659228	-1.03452107862287	-1.02330269726159	-1.03019336686368	-1.02931296737423	-1.02726101545653	-1.0268976872862	-1.02571600414494	-1.03396485678391	-1.03280455867125	-1.02764988687126	-1.03215631091982	-1.02865861203812	-1.03510563422144	-1.02984918842156	-1.02889000126221	-1.03012876617022	-1.03058430965946	-1.03649590631286	-1.03181928179241	-1.03399055374221
"6"	0.259032715997283	0.509929635034923	0.542068040504534	0.571510523757582	0.601310851746858	0.59459289720275	0.648039568312576	0.611987525635195	0.638933802722508	0.689317139791601	0.678680081736305	0.722968417582472	0.739852784736918	0.77247432371462	0.736144867288441	0.748651449007582	0.776562908759499	0.779331592914285	0.815044250126993	0.808397312070666	0.835733085098878	0.848902496441699	0.834614911833607	0.86671507217266	0.850382775829405	0.860819483610765	0.837370811810279	0.873093879360563	0.908880848916702	0.901583025200728	0.910640392479557	0.903227697428948	0.922502810939005	0.931196717450086	0.972239597373397	0.947651816700099	0.952236235223866	0.943114732442438	0.970918115811065	0.972863795390154	0.973139011598286	1.01620589595787	0.986967080112345	1.00860272826662	1.02870036496268	1.00948105351336	1.04442974992019	1.0208715675751	1.04642813846349	1.01548623534014	1.02306819303174	1.04762832139757	1.01552330909297	1.06822844410193	1.05744275723145	1.05859633822882	1.0644519842344	1.08017025836392	1.05102588379019	1.05615744025369	1.05882473599469	1.0724955432891	1.05545135236231	1.0613301573492	1.07779694998314	1.07086954510113	1.09300567964181	1.09715416235652	1.12191287399203	1.10116477123231	1.0966354540699	1.10249119105332	1.08420434943405	1.09638599798654	1.08611691647504	1.10042663811535	1.09911484810028	1.11650300435	1.14655781666557	1.15060908498429	1.15938973037473	1.11738349459136	1.16206970572915	1.14165903784637	1.12889918646233	1.15440722904751	1.15047984064594	1.16443144896724	1.12982247529658	1.14893806050181	1.13424023871915	1.14047607201727	1.15409740154331	1.14972057052713	1.16379819390622	1.18873503668373	1.20159002229242	1.21318462174226	1.1861405871496	1.19467211725417	1.19552264166981	1.18829182991239	1.19127892789938	1.21186500765917	1.19241066039124	1.18871636651695	1.19745085966259	1.22288577110671	1.20365760411039	1.20805681213643	1.20589924724929	1.20355784143294	1.22723430020071	1.22269323822483	1.19136174029433	1.19813196619659	1.23009190027588	1.21654832696904	1.20839363297605	1.22029976824245	1.21488061617461	1.21138901412688	1.2245610088931	1.25188279059373	1.23152595330684	1.26050459066349	1.25271775982779	1.2473937379907	1.24530674386501	1.2272229722006	1.24835342189165	1.26189676086316	1.23761746852	1.23895462966286	1.25609343189499	1.26420558001552	1.24933218448367	1.25262390999435	1.25245546471911	1.25952591032371	1.24593333649772	1.2597442630162	1.24211588169901	1.25000081811266	1.25681345741734	1.25528530964953	1.27055036323918	1.26766167686481	1.27774741353549	1.23879250085293	1.23958065562606	1.26098224425352	1.25836120288049	1.2716138619187	1.259964570594	1.28215563004953	1.29068749427416	1.27769290118498	1.28010968296585	1.28616482631808	1.29043186973126	1.27833838279259	1.29810213422302	1.3118135404435	1.2819902195123	1.2761143734718	1.30281289240149	1.29439939038005	1.30235918156379	1.28844618306859	1.2971891201333	1.28812490335669	1.29100294650812	1.28191385810429	1.3027956953865	1.25826151566747	1.2788887835553	1.27219540166426	1.27387766691815	1.29455132302403	1.27963671210232	1.30215442454458	1.27978081218958	1.27757429006513	1.27277190952962	1.29409385704802	1.27970811581083	1.29125050911175	1.28543563617696	1.29390327460582	1.30698706862917	1.27742041369185	1.2936166675427	1.31106530560973	1.29783325384296	1.29569161383807	1.29987931851251	1.30126506776847	1.28474686215097	1.31098927014255	1.30697913772726	1.28996317705726	1.29741713045862	1.2785498522227	1.30803031502105	1.32711222416304	1.29511818497186	1.30650525728089	1.28455587963891	1.32155999792011	1.29993142053387	1.29478841016737	1.32537795402913	1.29901650921393	1.31490782530608	1.30623933049326	1.31305624035147	1.31097328360059	1.31135013796349	1.3197728891434	1.30917670272415	1.31816651097418	1.34353420496298	1.32890993069712	1.30821742584827	1.31019086116675	1.31039444722941	1.30611910759109	1.32386682780575	1.29725188432216	1.2851776296608	1.29787701764395	1.31969559459518	1.31184607128799	1.32366230062998	1.31111538900139	1.31613718860648	1.30933304418055	1.33559298323048	1.30727549940026	1.32633460186702	1.31100637635009	1.33396466813084	1.32266059245235	1.35442203455694	1.325492455698	1.34939833149986	1.34186139941831	1.3285517672169	1.31064697636705	1.33380268275656	1.33782306593982	1.34762644980043	1.34204472999056	1.34343584773478	1.34742951391984	1.34549021890182	1.32724445268775	1.33859019517713	1.34231575972391	1.35712877045334	1.35569540771663	1.35236129119145	1.35148669722227	1.33768215150722	1.34325672262	1.34062999793476	1.34700310863827	1.35316404761133	1.34752084023303	1.35661286041685	1.34529583878013	1.34590910200844	1.35762564508547	1.34192981439073	1.36187741586306	1.32750349649519	1.35393500708825	1.34956706021689	1.35074728260934	1.34648977067574	1.34849838903612	1.3623942405978	1.35246861978775	1.36658977042266	1.35969631217437	1.36050436771556	1.3462786278329	1.34974544852388	1.33864524279175	1.33910267960764	1.37465037623927	1.35367262788488	1.36557212203085	1.37089361063327	1.36962891452232	1.36451603305732	1.36767254067925	1.37101900810255	1.35670989600198	1.35614355993315	1.37887882032511	1.35754213132173	1.36751123462339	1.36665771811877	1.36941686017593	1.37714253411138	1.38263721436217	1.3774879326759	1.37145249039324	1.36643746001984	1.37517160165299	1.35571821693982	1.37087605556871	1.3681452806147	1.36592867853412	1.36685189498201	1.38356482255898	1.38815562250663	1.37113881448083	1.3732983888023	1.37366227349816	1.35653502606287	1.36155408852146	1.35619634460167	1.35476994090451	1.36476487492857	1.37594401706159	1.38707292646507	1.39035171884049	1.40200213241734	1.37599907108462	1.3927745838585	1.39549192559777	1.38521630630276	1.38931431716909	1.37554667633575	1.40075635194461	1.3808402239312	1.39829018744979	1.37816316475473	1.38619147069375	1.38513534938061	1.38507358444044	1.3892615684934	1.40690942404456	1.40539797743029	1.42234409716858	1.41012158559355	1.40783930481506	1.41361063645395	1.41166938724262	1.40276856505991	1.41889244914536	1.4128303035483	1.4083533318996	1.40794785156573	1.41671385383263	1.41223732573725	1.40713528451405	1.4205557567883	1.41165044088842	1.42071026786982	1.42722923495773	1.40280890842404	1.40624226036171	1.43285175199724	1.41862342570556	1.42425603190622	1.42557783688399	1.41901313945563	1.42306040208324	1.42672695039238	1.44333311503344	1.43053770743457	1.44521533258848	1.44863373556183	1.43459299238198	1.42807999202995	1.42258895233581	1.43680238602033	1.44996052141093	1.43400028836174	1.42505969623999	1.44106270979104	1.44252752399247	1.42989079360023	1.43661412664004	1.42817195889003	1.4369316616354	1.42549440581658	1.44057844403487	1.42470695995745	1.43345665851304	1.43847497313178	1.42486308669424	1.43809916909648	1.43711592294202	1.44906981092402	1.41849376263606	1.42372824347883	1.43438044222479	1.42615958779432	1.4377367791742	1.4206585983655	1.44439541864641	1.44697291061665	1.43634809223552	1.44273139443116	1.44182779803899	1.44532230499702	1.44631710342005	1.45458700748127	1.46600537222939	1.44691244521633	1.43479689801032	1.454311609715	1.45750246103065	1.47221230869132	1.44416446697771	1.45710170665735	1.44635685114009	1.4512499179396	1.44964092618788	1.45643329547235	1.42800634545342	1.44413992375995	1.44413617826995	1.44331495955158	1.4620277270287	1.44804096729689	1.46806168956662	1.45367995833428	1.44751224009628	1.44202154810482	1.46188806560324	1.45291096448023	1.47200974262849	1.45632747083965	1.46220566445738	1.4680467137567	1.45362282341358	1.46231725696526	1.47588567273187	1.46709662384166	1.46083413419019	1.46775811358268	1.47174583466243	1.45628398571875	1.48249232672208	1.47376489930512	1.45572574515134	1.467686881708	1.45769673680487	1.47647830808163	1.48083663960389	1.45361292486184	1.47230353125706	1.4486559095233	1.4689253202069	1.47049704589617	1.46724214610953	1.48215890802811	1.47401484741422	1.48297668737453	1.47151185533589	1.47319894584879	1.4740717916621	1.48289771883109	1.48220587999641	1.47689363034877	1.47991039300313	1.50123055492123	1.49403856223581	1.47146713400208	1.47670014932927	1.47827211228153	1.47069669381207	1.49425257683201	1.47305124458339	1.46546353487371	1.48112998264172	1.4817679916968	1.47784653122876	1.49167162393846	1.47419680328141	1.47727640575779	1.47654818606115	1.49698436314003	1.48331084850132	1.48879012344606	1.47549784879402	1.49347705670968	1.49532290443079	1.49475344997944	1.48788934438323	1.49242980454444	1.49283955491147	1.48910630562524	1.48462821141738	1.49074704830103
"7"	-0.673262146404205	-0.350783374575666	-0.38624165738197	-0.407751896040976	-0.405052620701679	-0.406675575116413	-0.365204083455934	-0.338113016869596	-0.361445790615234	-0.329396061675549	-0.330651096886396	-0.300924337622458	-0.278732048009963	-0.268493794157729	-0.246279993494939	-0.237185129805969	-0.217782633252908	-0.213461277218303	-0.197830542722814	-0.203618491165452	-0.200778420058423	-0.164908430647697	-0.154449271184046	-0.156949931401324	-0.166671335330518	-0.162931667329698	-0.137500769742642	-0.121783761887091	-0.0924493689532617	-0.090534083784069	-0.0867531331273192	-0.100932830888773	-0.0860899602781109	-0.0608019657147023	-0.078365001231232	-0.0476159675899765	-0.0570259301589073	-0.023499256263881	-0.0340513850652209	-0.0125259958843204	-0.017909947077902	-0.0100030161748476	0.0105945012344568	0.0159879901316669	0.000342488626173765	0.0180345763986364	0.0392815699956814	0.015203711182763	0.024198156157731	0.052411731240828	0.0398161648680772	0.0446325933722974	0.0425466638437206	0.0549152186018679	0.0582642274003304	0.060332015115851	0.0646773096690807	0.0687361787087156	0.074313378727425	0.100314858550612	0.0991521177414441	0.0991985812604188	0.114176892962517	0.113586375486037	0.120589521262081	0.108461038725616	0.122093511588994	0.127658471235399	0.127545984528453	0.127079676463931	0.141033989670623	0.129203320517045	0.135988938159102	0.134237823572817	0.147391508764142	0.148630433353873	0.159749253744388	0.156008642549388	0.165119377296557	0.168051958466492	0.163760576427775	0.176974758682036	0.183042962385962	0.16204565266011	0.182334117731826	0.187859848219444	0.187278733690313	0.191395449350634	0.181188131745725	0.184263410947756	0.187789140754662	0.193700922806767	0.204806551360731	0.212571013405552	0.192863346291842	0.200503984459763	0.204658772124868	0.224190022575141	0.211299853962504	0.223629396613806	0.218661129884214	0.219724237776131	0.216157859727137	0.236859767990226	0.23497979968524	0.245657070588915	0.234479641632105	0.234284059629148	0.232219885767486	0.229325403052573	0.252554575397938	0.24816497173112	0.270518273797135	0.273768333879276	0.252884011416532	0.253337375935998	0.248643910675162	0.274916692154154	0.259770460605097	0.261132111098595	0.269855528931093	0.26167505791427	0.270469847395814	0.281585226042298	0.274376671999166	0.278981890524596	0.28771864831982	0.28055885331705	0.289731879161913	0.289093134923425	0.282348008718594	0.279167912199266	0.286043897480608	0.290283969116861	0.289410037406595	0.303563936377737	0.29427411802049	0.295719934193001	0.30354675403474	0.301540070542202	0.306314680554872	0.309732669918209	0.313246117521817	0.314723306239245	0.329062637867705	0.317398713848788	0.321297923225078	0.317514144135141	0.316805810103413	0.316640651151409	0.319085031963247	0.310344215044654	0.322317565297482	0.328930133847442	0.336125402300611	0.329756329134586	0.340559698751551	0.334577417751712	0.338858055177723	0.326520134541568	0.332235329908791	0.336751490482726	0.35268699619587	0.35575416753036	0.34884103106891	0.345868801842891	0.359688089904314	0.353588231945519	0.358324709284733	0.344844390623583	0.345992280024157	0.342951386648865	0.346679726471664	0.353774183056987	0.350046501219127	0.360554112766087	0.34689407779559	0.356824841118737	0.352939102824034	0.351804375529113	0.358588315093305	0.361620695208954	0.365721787595426	0.37837035900019	0.369362211711966	0.374066430755256	0.383229584637443	0.366920505669059	0.371403551222334	0.377560460151844	0.378453534656741	0.374882164659298	0.371769073681763	0.375551832706778	0.376773224352221	0.379960575542359	0.372090065749585	0.371045212622201	0.383586161893161	0.381319415840247	0.383956304386295	0.385631207213537	0.385208523315937	0.383494300097781	0.39317909920493	0.393649959314293	0.38886274267912	0.387098003577766	0.395113049835038	0.407432188063474	0.393699180721612	0.390363253132592	0.394951328077669	0.406027230453883	0.39839671879724	0.402404129074188	0.398907038956324	0.402672894107557	0.396313698864364	0.39176510603925	0.394849040232235	0.400679773008095	0.403273952881404	0.401145385639975	0.406639855085929	0.409686940360126	0.395470432164467	0.403780892060105	0.408897676870185	0.401628194690095	0.416076772425447	0.406255682441394	0.414778548595348	0.423420940581407	0.427795973872349	0.431431135230264	0.416263078393611	0.411729614413824	0.42859871823097	0.419424692083252	0.411636298378411	0.40403934446201	0.408471849546767	0.41956997865588	0.421949449220773	0.417918488548924	0.413888863376152	0.421600691039036	0.41276393541092	0.421429884986665	0.428371821576686	0.427085940970996	0.425846105594985	0.424083149470054	0.425356236107636	0.418124058214498	0.414881246069931	0.427391096983299	0.421451375225406	0.418713258427511	0.431853251418732	0.424723940758435	0.429457843925409	0.422186093437119	0.428556684620084	0.435239488414247	0.43610808697772	0.428249225760995	0.433106147493383	0.432181627075065	0.434014138932619	0.435059466762493	0.430283235932452	0.432110450215592	0.425462352520218	0.427156765942537	0.423891694994287	0.428458502827405	0.435251215767639	0.434787458051873	0.437427548036189	0.426170071206987	0.447087533563014	0.43871832505025	0.431789713774612	0.439174754512943	0.441100484650267	0.445365976651798	0.435041678926	0.442573514155473	0.438843509673408	0.438401497958613	0.442087252612668	0.444969619598553	0.449702849480703	0.437716455161269	0.454740624083533	0.438080788018357	0.440913262524717	0.452265952149966	0.45399388130519	0.441616098477532	0.449876073821299	0.442643356430485	0.443433184818925	0.444547185580759	0.442179764616926	0.44184663084645	0.444173327326374	0.45550113932615	0.449029988252302	0.45181408023271	0.443892018359955	0.450399266532784	0.447748120110211	0.453599438892645	0.44700371494601	0.451186902057148	0.457935707604088	0.458568822958191	0.452565235449817	0.456481088572586	0.449224892180743	0.45056112306334	0.460523382080493	0.46505491668955	0.459008285443042	0.461780728353922	0.46350702807364	0.463907683890099	0.463568121013667	0.463636448401543	0.469343292383488	0.455399672446095	0.457628230074823	0.465201660529693	0.469169178599471	0.466107921725262	0.455357781329789	0.463457963212212	0.445918758095988	0.455801031453155	0.460710509811591	0.469404547875528	0.470471948930936	0.463829857598866	0.470328056898519	0.466118761978692	0.4601251893448	0.468987712084583	0.46038469287818	0.465044262029749	0.473901107282944	0.476165841436604	0.469988639690762	0.472410446566362	0.475603673147762	0.463825208282073	0.467654682888412	0.465904329279531	0.468814796624138	0.46895801978774	0.46791016548595	0.482894341731637	0.471222306661395	0.476205647803445	0.468202663729727	0.482623148696313	0.475070005959795	0.478256953970407	0.481643840693679	0.475061781549176	0.481602458309557	0.482229282338454	0.480311614674456	0.492436460037475	0.490015385652059	0.475185968176207	0.476147560751957	0.484421211523595	0.48034147881034	0.48057639041419	0.477131622771655	0.484527963604798	0.485163454422862	0.486294635656336	0.490187949725881	0.484693429575159	0.491295643474084	0.487682691485356	0.482773532725962	0.49864223039305	0.489914461686108	0.48918592783576	0.491132753349284	0.488671047462957	0.486748353628732	0.487026444773079	0.490815414951099	0.489309911688202	0.4897192775979	0.486078269622338	0.491414652013765	0.491467742537199	0.494567681474918	0.499456866670993	0.490900558595261	0.492039434426577	0.498661373301488	0.503377082492203	0.495661976522899	0.497322181660019	0.500609942112091	0.500995197457948	0.492603294634576	0.495022611065832	0.502582373751512	0.506149254660971	0.509954806251984	0.491971802291917	0.4883811661874	0.498155863752429	0.495671586349628	0.499053703287477	0.487068660410047	0.500597732862086	0.494839498457049	0.492042819116953	0.497448841572723	0.49912143325562	0.49486381063735	0.498574340514518	0.507375311577137	0.495463215830948	0.495469951559014	0.49797288345244	0.502492471056205	0.499203893739555	0.501768679329397	0.499367801063566	0.509189448719455	0.506238293878185	0.503386433916397	0.500156776024956	0.503679472889241	0.504786601374057	0.495957775094639	0.506084003436022	0.509970085434045	0.521048122536891	0.512043024644602	0.505278312983156	0.508232812424432	0.503900596641339	0.514096304704132	0.509633855334327	0.505038607817673	0.513168095484391	0.511618954091432	0.513297877131754	0.513972743694872	0.511607988983771	0.51703817829235	0.519000330142457	0.519192656121965	0.517655216604344	0.517035884586748	0.509747343391764	0.516618620051503	0.521272051628424	0.520714423798107	0.516276274700962	0.516417425911073	0.518701268503498	0.513612988025295	0.514566750618875	0.506973913543107	0.518128759186887	0.519258766448463	0.51527100853452	0.532818079597347	0.526109254621482	0.522809213363772	0.51921949148145	0.525476183319674	0.527629545490859	0.523766053081544	0.516098005810672	0.533538285044229	0.518716797995059	0.521848251659956	0.521475383538382	0.516290113710794	0.529772524786973	0.519958343490389	0.514730413868495	0.51803083350527	0.515868436430047	0.523402641581243	0.523202009267142	0.528135428068445
"8"	0.0043966081566881	0.0822880270249778	0.00343057692534266	-0.0459308569374375	-0.0973263928453449	-0.111081673519669	-0.101454777097939	-0.192836476245747	-0.153065730966432	-0.202041588948003	-0.217570480174076	-0.23557531934775	-0.235821863787345	-0.217434820264048	-0.280708735350987	-0.302188158320705	-0.31935203231093	-0.321954231328417	-0.32249121711939	-0.326992660984573	-0.327265025550064	-0.347133462095929	-0.367202468630664	-0.33667820806832	-0.320232877301096	-0.317407196621487	-0.35502527507607	-0.344295275505198	-0.390508450314479	-0.371389945448776	-0.386920329340281	-0.363596536563471	-0.370309629438053	-0.415756012279	-0.370605833878304	-0.400795956011923	-0.427838360337196	-0.452257909164798	-0.433960320839591	-0.457547629760308	-0.44377308177022	-0.432396968260964	-0.469735316425155	-0.451962668960666	-0.43630484628835	-0.47674542371016	-0.480330755249173	-0.454369661678812	-0.46962823144095	-0.496649523233293	-0.493771568745665	-0.45612324800632	-0.490362625720123	-0.475735039495406	-0.482757440786785	-0.463758901192728	-0.487030399638673	-0.471408393616004	-0.467004091201224	-0.49202541592887	-0.495998925013308	-0.498283470700325	-0.504773483352618	-0.522929502441576	-0.511722363972391	-0.505453860788405	-0.512253780821505	-0.506176295981408	-0.484735560564503	-0.497038607914136	-0.506481478752284	-0.501013125836479	-0.524905666141517	-0.518092941457334	-0.544209792659564	-0.549543258481188	-0.527333657310656	-0.537993662490304	-0.529560041145168	-0.538954869568385	-0.514242387479373	-0.548782551172695	-0.552552734648491	-0.500176870069784	-0.514393592224923	-0.539953145018878	-0.544495878320509	-0.5236602158721	-0.538788050711978	-0.519567903909334	-0.52055242047915	-0.545823341311146	-0.559733933668742	-0.567780723256797	-0.541027029227414	-0.544931651463846	-0.550868800618227	-0.557433366675255	-0.540676358959324	-0.582681723216061	-0.544383524127459	-0.552337054930513	-0.572584933168081	-0.565736004338031	-0.565875262251946	-0.566521129629195	-0.566953142030591	-0.563991397784472	-0.548750509892026	-0.55365751704727	-0.566457770145728	-0.562811600831267	-0.593756828017679	-0.576529738301837	-0.596250875259785	-0.588557792844297	-0.55002801998814	-0.595406394634453	-0.576555681808156	-0.577193993514042	-0.58202704645977	-0.577197477704228	-0.575475333895196	-0.582620482245533	-0.588226403693534	-0.575559664205588	-0.574991940998208	-0.58056164761515	-0.596288415377422	-0.609651841160071	-0.587169836781065	-0.572660607608397	-0.590314744856657	-0.614048700357263	-0.593150314916142	-0.610159078307796	-0.60898541513549	-0.585616465680765	-0.612722174480927	-0.602061152474963	-0.62428476096767	-0.620053036100816	-0.623790030023618	-0.622361226102317	-0.619113633296249	-0.625615255220041	-0.59874348455467	-0.601897535401666	-0.596841040670256	-0.623709854391805	-0.62677181678301	-0.599018223293735	-0.621060810805405	-0.620639378143063	-0.62911510470352	-0.617503794328317	-0.632844708967078	-0.613230416451859	-0.625689975491229	-0.617104295633065	-0.62196030006057	-0.62877025793709	-0.633112215146756	-0.612003807033086	-0.61483745040502	-0.625372340347372	-0.61910188727274	-0.6085958929132	-0.623061433902591	-0.614859526981436	-0.608648355366415	-0.618204420372927	-0.611953687998704	-0.623601758800106	-0.591214831248965	-0.652484780574813	-0.607535615576987	-0.609559800446339	-0.599101621584663	-0.600029597643547	-0.622305384386032	-0.610666171712624	-0.634752619622091	-0.627105497298175	-0.625213546683123	-0.619779117301742	-0.62809299678975	-0.608003298564046	-0.625460752458433	-0.616388931541848	-0.614076700313753	-0.622639918241222	-0.621900624447328	-0.604783721282818	-0.614353120635779	-0.615498932391033	-0.603094482955119	-0.608152398256271	-0.615552662962969	-0.604628640336843	-0.62079912799406	-0.621453897955419	-0.610978710904196	-0.630685214288263	-0.622787498559167	-0.615222948131826	-0.622340157619641	-0.608969183019308	-0.64537692396886	-0.629135909064625	-0.621244175440027	-0.632002931601889	-0.619793770578404	-0.637479611789836	-0.620174641602493	-0.633596942882097	-0.617607258809284	-0.630755428606529	-0.622656611889362	-0.609899875100006	-0.625609622856564	-0.619693685387296	-0.619768979393788	-0.61565192764516	-0.644750152814676	-0.635437171796486	-0.614636218367777	-0.642910405141312	-0.623205956776591	-0.634112091185024	-0.66459515399124	-0.644518007356744	-0.646212010141946	-0.655464874134932	-0.652116442082622	-0.671084212542465	-0.639162838059503	-0.645096080765041	-0.641677843089907	-0.644188217071916	-0.639500021559717	-0.652965591070121	-0.622715548484687	-0.646872778398508	-0.633134640426717	-0.633412398861359	-0.634190085558085	-0.641195507610065	-0.646353893441396	-0.638038363518642	-0.654459740659586	-0.636461368219451	-0.644664760655287	-0.63348819453996	-0.62985921177381	-0.627179149480899	-0.626123463999143	-0.648416308013278	-0.631343436194463	-0.635914817524319	-0.641971404332949	-0.642620245193396	-0.643427483842852	-0.619408409341482	-0.645650732828496	-0.658511243191927	-0.655582282682117	-0.648804842298787	-0.64702591947152	-0.643294670973919	-0.637746687316436	-0.649662736196603	-0.660972723166219	-0.640878344875977	-0.639157836119788	-0.626771566048637	-0.651157728620388	-0.646380770642734	-0.66195659370419	-0.650634918374119	-0.663454676785634	-0.64225471496668	-0.654711572482361	-0.659284895664413	-0.637378264816208	-0.646995296157151	-0.663567584866673	-0.669623681803606	-0.655502709870688	-0.674893632418245	-0.665963613505656	-0.636579760411014	-0.665286029559751	-0.661832909182689	-0.651341519185185	-0.655807013845603	-0.667832598792686	-0.655785107466819	-0.663109832208179	-0.68822473564469	-0.685262063125147	-0.658653140964606	-0.672842547573427	-0.661842621442263	-0.671654097513271	-0.662613440698847	-0.661828897853714	-0.651582523328784	-0.653915447902691	-0.672481617801765	-0.66388813574353	-0.66755182153143	-0.663481707578537	-0.681784496468661	-0.671106089890321	-0.673832193693444	-0.667967892328596	-0.658523663330186	-0.652951890812034	-0.664182522788862	-0.671544512160185	-0.659272991590677	-0.667958778804687	-0.661150235288082	-0.676808982891907	-0.679078787340601	-0.66728808554946	-0.669181651045056	-0.663232260335547	-0.673741453277533	-0.661087432447035	-0.678435842072014	-0.679484462108314	-0.653004668726404	-0.654345781891736	-0.675291243887299	-0.676779963521661	-0.659128004968003	-0.664703576251819	-0.658418789029779	-0.654182069985732	-0.665974456138839	-0.673243205763681	-0.678378500993754	-0.674245321400694	-0.67070392657185	-0.670216115749363	-0.673582578017704	-0.656863087688697	-0.690583051074061	-0.665413371841363	-0.674300280421903	-0.684764126662187	-0.686126146334207	-0.68823427766326	-0.683855307951731	-0.677292042324098	-0.66188560913067	-0.663354890147724	-0.664887720550302	-0.671418178213059	-0.670066612231866	-0.673741739553106	-0.6859767964883	-0.682913135652919	-0.687826735883229	-0.657595958281362	-0.692022064160504	-0.685401179170595	-0.680311197221986	-0.682172985847314	-0.686840793708035	-0.684810149132371	-0.682631316327934	-0.683588148240266	-0.687103803445849	-0.675471661401308	-0.672190024812196	-0.676754603059525	-0.695669096015043	-0.679171239107618	-0.670542988115701	-0.684736393655304	-0.689794974698511	-0.685466910319942	-0.696004087028299	-0.701151082873903	-0.6782549334243	-0.694450273326925	-0.692502857419156	-0.705748072337693	-0.706147425045273	-0.706998173512101	-0.708101157695193	-0.705491212741305	-0.704298201860599	-0.68611688403698	-0.690659346963943	-0.680826381950174	-0.705660941042667	-0.70826036617308	-0.688321086520239	-0.702499369010478	-0.703860430221409	-0.718301694709126	-0.700784082777585	-0.708477986298165	-0.701234886763151	-0.698298096718654	-0.701312018241612	-0.697874808189137	-0.708113426763403	-0.710900028462906	-0.697046493714445	-0.701578225228372	-0.705852252424961	-0.700768224492192	-0.685470368947804	-0.707944262933469	-0.698636970789042	-0.692298541523168	-0.708761135829981	-0.699204871314368	-0.707139199339904	-0.679712388503335	-0.726262300596082	-0.692215200293312	-0.695712757385363	-0.69018879840115	-0.685661632852075	-0.708646153803087	-0.695222676955177	-0.707312602097636	-0.703877879764481	-0.704895403817218	-0.695088416308064	-0.701748965960453	-0.691748552836677	-0.707413837018296	-0.695829420123122	-0.703256197398815	-0.706169669887747	-0.708448084917276	-0.687613209950742	-0.698289206370371	-0.703080805336554	-0.68559957009797	-0.69283624807727	-0.708205148101594	-0.714327707028976	-0.706465854019849	-0.705092664962059	-0.703398762357711	-0.709574746774584	-0.700719460394223	-0.694696615910242	-0.700419123538637	-0.699407611531703	-0.722343347966147	-0.704200969028193	-0.717316529995846	-0.719906544799003	-0.703671194184668	-0.722167845957387	-0.708606411644588	-0.715457916548868	-0.703780530670134	-0.711413039957131	-0.712838568989998	-0.704889870616999	-0.714115923456278	-0.707555294761163	-0.701613932623771	-0.713866503630909	-0.717234812919263	-0.719544727054614	-0.70178986433377	-0.724286843577468	-0.719896115755331	-0.714765057634561	-0.753859902999257	-0.738268444241648	-0.723806962882405	-0.730020898376046	-0.72512594545486	-0.749901744348933	-0.724599853726111	-0.73044935037066	-0.733876757184228	-0.736300385039702	-0.725503310988766	-0.74113702102922	-0.717486016515202	-0.738091152936805	-0.713142403592806	-0.721430957614037	-0.721958702593197	-0.723134358646883	-0.741146989159525	-0.731215028453665	-0.740329687609946
"9"	-0.583024660327208	-0.168892338302962	-0.242832321825425	-0.219180118046715	-0.237306677759057	-0.216836036627428	-0.222241656747003	-0.223871146094237	-0.210742331781193	-0.196487630022122	-0.202079802474825	-0.181788926213873	-0.177691060943539	-0.168017529301654	-0.132435240012777	-0.130439231298712	-0.0902244404860303	-0.0856741731969094	-0.0917135369091245	-0.0531624454138213	-0.0385450826511387	-0.0352714476568112	-0.00550136088926187	-0.0318884025862499	-0.0141958676318438	0.0266994529292089	0.0219043200339031	0.0410513752922797	0.0350099712120204	0.0544215703853902	0.0555718895118747	0.0781676737202558	0.0901836002572888	0.0867200842323341	0.113132496563055	0.118259027145728	0.125894411109621	0.138182482723883	0.136857314879148	0.129240513818732	0.169522759805399	0.177973426744383	0.197323814309172	0.180160712594078	0.195191115549197	0.20300968462094	0.222882329271817	0.237438729287014	0.232298753029695	0.226917527568372	0.226373217848947	0.25517452217	0.267020131503083	0.261590741765358	0.2871168422123	0.284468286880256	0.29705419849508	0.300289957954646	0.307214732588863	0.321713322193694	0.349750658404699	0.334237987734295	0.360328485535621	0.351670212399285	0.381446608474884	0.382678013504339	0.369675242992869	0.388394816298593	0.390815289969215	0.40768167146851	0.414781705967648	0.426102944851383	0.425554486168127	0.434861608303182	0.439740556899241	0.455147090874722	0.455439655282896	0.4637851448129	0.464704375741838	0.464985355411424	0.478318310195244	0.471036555502532	0.479854506414584	0.488681278695346	0.499490442072261	0.501617082066236	0.521591172932763	0.516284025862954	0.52447581123307	0.531522126526124	0.544717334287695	0.551025508252157	0.538402750631587	0.573788470685198	0.559563681605316	0.56438203931234	0.567547542234375	0.579698722582357	0.591755235076143	0.583366525816213	0.592015079973816	0.593465479820229	0.591491248556041	0.60695230930964	0.626920920077326	0.624579475152556	0.616395134668848	0.631658850273059	0.635596182385246	0.650790782105546	0.65031494243479	0.648115330317045	0.662531763996227	0.67202073983745	0.676359703004829	0.679378368011782	0.676403733362793	0.695157110289459	0.694658003742767	0.704229870374277	0.698686889920524	0.709745915697162	0.728306549942213	0.725051965453951	0.727355821429233	0.729441865516491	0.740860151862837	0.744450495736241	0.739496073281433	0.742560749650128	0.745126389212954	0.76655380378796	0.784403259621292	0.760531885549623	0.766020524953501	0.776688351695214	0.772611907549666	0.787014112336069	0.801045747944916	0.786809669967604	0.789812803826833	0.78155125073577	0.79721831905341	0.810825007904908	0.825535503883689	0.810892646730734	0.81269003629738	0.822461527294138	0.828200766196958	0.831118962775992	0.844425831374814	0.845327258027975	0.845138450067867	0.839193775734688	0.840962133216026	0.851606547543839	0.870139934603642	0.858792134563725	0.866267695835151	0.877129268161064	0.876945137115061	0.876976233766901	0.881902726303981	0.895303323581419	0.891161277009668	0.88781082380652	0.898098512855726	0.898382404288941	0.90320059248019	0.907636191308415	0.91150504706218	0.928008964948655	0.924780265321266	0.919384591573316	0.924192431286498	0.922203760132342	0.946024156400082	0.943746811474278	0.945048612569934	0.949757053923011	0.954910159925039	0.951978291768223	0.951899063451955	0.963070714614085	0.965494027247691	0.971398568241018	0.98166046555831	0.973579784376244	0.976485718135552	0.987584610890109	0.992455705073149	0.998346016829736	0.990908368013706	0.981414972470457	1.00386112198821	0.997707313730909	1.00455884895333	1.00790650324207	1.01576169980296	1.01965582405987	1.03733464647231	1.03301441276635	1.04177632271836	1.04478695571569	1.04329159534074	1.04961197404327	1.03961523196211	1.05813711341908	1.04396369973356	1.05313945986521	1.06044701830427	1.06114184576894	1.0734103620146	1.07778731412553	1.06551498226971	1.07958466805123	1.0750160882258	1.07961905329331	1.07781190130258	1.08420495580545	1.09136495072986	1.09214620759345	1.09935314635162	1.10059668683447	1.09751104767488	1.11170889457826	1.10549965037418	1.10856139823128	1.11326655427688	1.11963158090072	1.11522244238917	1.12334653170518	1.12967163954329	1.13099353619699	1.14136111449552	1.12754994400766	1.14881682765695	1.13442885637536	1.14234821848246	1.15706613175774	1.14995790772044	1.15389399788874	1.16037441839485	1.15643364239012	1.16061027450385	1.16488050610332	1.16626249795624	1.17474124908364	1.17407037872565	1.17763096316702	1.17318026540646	1.1756034652724	1.1812115692677	1.18400597377182	1.18571743736836	1.19147510453314	1.1993852344232	1.19506732037286	1.20596456643846	1.20345198540938	1.19091753600021	1.20391995208356	1.20131585518617	1.20041863767024	1.21994174608216	1.21525609355872	1.22259660954982	1.21865453672252	1.20589415437717	1.22867368094582	1.23780767861948	1.23447457512424	1.22783899044202	1.23449114336814	1.22834911583061	1.24284853773845	1.24170650906711	1.2558357317273	1.25130388400314	1.24802933143674	1.24647348392012	1.25960932887967	1.26142329794945	1.25991037210994	1.27248967758557	1.27448511167183	1.26541314317149	1.27663725571281	1.27389026145252	1.27077685718617	1.29180929628396	1.28835659866936	1.29286086357023	1.28732584929683	1.29017659220591	1.29094441170854	1.29637071709683	1.31541429662011	1.29812260351923	1.29514640233697	1.30125172156706	1.30579028540452	1.30083097648122	1.30867906631523	1.32345735180559	1.32601827503712	1.32563804375319	1.31574307145656	1.32357698116663	1.32725243629042	1.33475022290456	1.31886912729977	1.33009250158115	1.329392697203	1.33844616480707	1.34913743221301	1.32783618445109	1.33941988195022	1.34368800405394	1.35347615168505	1.35436290435706	1.35353966121233	1.35306223524881	1.36014317731249	1.36797721622793	1.37446727946497	1.37428183218476	1.36405008561012	1.37480934203505	1.37266781022886	1.38131406956054	1.37259087418563	1.37878424189333	1.3841710494025	1.38500642277119	1.39171848768877	1.39201837335651	1.39273284054219	1.38581764543698	1.38817420867578	1.40062069869118	1.40618082988976	1.39720246880947	1.40264342759208	1.40325037373904	1.39935432054861	1.41056866928693	1.40057130684823	1.41219149376655	1.4150781734079	1.41437961666928	1.42018100096318	1.41739128447759	1.41729710391567	1.42544706208433	1.42905099460485	1.41934985279775	1.43319813876248	1.43104052389896	1.43592850919933	1.42977952666291	1.43502934095266	1.43033463670767	1.45108995124448	1.440506455186	1.44675945215964	1.44763597884478	1.44699187622838	1.45270234233464	1.45465641452057	1.45115368592697	1.46640909366936	1.47002580696842	1.46124162146318	1.4657200227837	1.4690948109663	1.46684259126098	1.47817909975239	1.46630416876132	1.46663237481186	1.46869649044814	1.48057022426141	1.48813009087428	1.47805224147201	1.48191982231751	1.49155259536078	1.49001104600861	1.48959450423378	1.49077372849764	1.49695006641432	1.49333033248346	1.49032545376142	1.49826371147558	1.50558599683984	1.50588686043247	1.5083185338652	1.49991105461122	1.50828110885165	1.51271893606329	1.51956667018741	1.5140758407855	1.51761403609366	1.50555131210676	1.52032400862482	1.52019534891177	1.51556814603835	1.52529925642375	1.52465281653872	1.51999698775865	1.52590436764761	1.51952906318273	1.52825257541141	1.5292582750767	1.54406348360362	1.52715904457991	1.53437813255901	1.53790857658316	1.53343497990135	1.54360379898057	1.537787993586	1.54312203080295	1.54941471438487	1.53979509566357	1.54439613460686	1.54796942264734	1.54088045029309	1.55360753614525	1.55624223386721	1.55491751897879	1.55519657451444	1.55628042626502	1.5607878166125	1.55642553609696	1.56464731151473	1.56188410367229	1.56411428565518	1.56259726690743	1.5547298689259	1.57210770079476	1.57407964798309	1.57985423377155	1.57179236118901	1.57990608485375	1.57337516265962	1.58121923588897	1.57832850519041	1.58458640866237	1.58403956805679	1.59151996942848	1.59314970130777	1.59376001684606	1.60514196019679	1.5996632839747	1.59554615993292	1.60051816857778	1.60229264099018	1.60147056658364	1.60830128462223	1.60471256772278	1.61309359813509	1.61288101000021	1.61529902837852	1.61701868101428	1.61737129894082	1.61147664691374	1.61906233037582	1.62261133673395	1.6227672628302	1.61331331546588	1.62979362311324	1.62770456255414	1.63168597612945	1.62966927576381	1.63657785918519	1.62731302158752	1.63473107996536	1.63738128372541	1.63462610501037	1.63469184484546	1.63422848974552	1.63223173113492	1.64032143112841	1.63827021858789	1.64326097354049	1.63539983238071	1.64043934853195	1.65413393634014	1.6465355727364	1.65026005303109	1.65921890605302	1.65060518622073	1.66037192310441	1.66300300320476	1.6598691561749	1.65352364402665	1.65325637050977	1.66112844733849	1.66629081521708	1.67088320101064	1.67040002698441	1.6679485447029
"10"	0.16326811016744	0.267719387809257	0.22038006253035	0.10614814398554	0.0613417165255492	0.0437109075551924	0.029673012743945	0.0820074425984029	0.0466517486358094	0.0102925997080922	0.0364150995847158	0.00501878432950814	-0.0210172967516491	-0.0281062811068423	-0.0761732080369753	-0.073377126867219	-0.10315438007635	-0.123922395649014	-0.138284054799062	-0.160918145074109	-0.157370404258827	-0.221355879995791	-0.216236124681191	-0.22764880819771	-0.233754538221129	-0.294998367589956	-0.293153915253506	-0.334860852802829	-0.30155054012838	-0.334586113959655	-0.330464812708782	-0.355584356328971	-0.367731530658474	-0.369207438717745	-0.394753124571061	-0.416365881807637	-0.427468499808489	-0.42671529344826	-0.412983345706052	-0.406287365698646	-0.433029036412391	-0.460365426960576	-0.466508090653355	-0.453321100849952	-0.495294476163634	-0.464181378758593	-0.524764531453686	-0.538105481155586	-0.530046096084572	-0.505314808720554	-0.508465899870467	-0.564289623595662	-0.572868026123462	-0.567682537960764	-0.610656773467502	-0.58871986297504	-0.603252989972657	-0.614853615165038	-0.613931098760044	-0.642184457684281	-0.659428500709766	-0.633367767909618	-0.670474181794573	-0.66801373707124	-0.690968260818007	-0.681896611401174	-0.660734127286891	-0.715327810548556	-0.702374460911928	-0.735720934482177	-0.732323606534465	-0.756260369095226	-0.748821291287639	-0.752112740992929	-0.757334209046498	-0.794549238389165	-0.775764596169737	-0.795992699528421	-0.802014310866998	-0.836340055633699	-0.840575456923043	-0.817192954268819	-0.822419527965113	-0.850745319767946	-0.848728313967807	-0.858257939702811	-0.867869296474583	-0.874573521196074	-0.87386471218878	-0.89385429160553	-0.914139870709008	-0.897207787144452	-0.910168826455708	-0.892087815124409	-0.909642526013011	-0.904067585341847	-0.914272933620348	-0.920976989748633	-0.9303797234315	-0.91068551570853	-0.932381071028115	-0.960789718158023	-0.926077131465632	-0.96057107903017	-0.986215132312207	-0.979056869998928	-0.966698020130243	-1.00585166117298	-0.9956373864951	-1.01865953164369	-1.02116120967525	-1.04046029301768	-1.03717136069153	-1.05050592955668	-1.03053707065698	-1.02872895495597	-1.03361802058101	-1.05220555643573	-1.05432066157028	-1.05862566593783	-1.05696988495996	-1.08846574187197	-1.09586186904252	-1.09196785937627	-1.10299754747195	-1.10186961803414	-1.11101963194277	-1.12216001486909	-1.09481575992067	-1.10640676051912	-1.10581127192016	-1.13054772360737	-1.16061574219654	-1.11752833760462	-1.13531999957582	-1.13817897063185	-1.1409284452169	-1.16291589110288	-1.1625902751143	-1.17073404666025	-1.14938804283687	-1.15404819778951	-1.18412416449586	-1.19116348019091	-1.21861475491452	-1.19667210792369	-1.1925660652089	-1.1991988917017	-1.22812720139266	-1.19672338933166	-1.22038652522317	-1.2429273428853	-1.2271216950944	-1.22559235855789	-1.22772159863044	-1.24735485500405	-1.2592166252447	-1.26873334323094	-1.25766241370716	-1.26361664499928	-1.2514815004702	-1.27749832284209	-1.27314687283676	-1.29574615240857	-1.30675190631516	-1.27925015489521	-1.31112862237185	-1.31459351908811	-1.31885226883854	-1.33340970370958	-1.34379823937174	-1.34984983847523	-1.33021734162054	-1.33520156244826	-1.35072719359079	-1.32365263113085	-1.37466069261443	-1.37277938830362	-1.36087057315388	-1.38896044430514	-1.37631696002873	-1.36891871222216	-1.35296689622905	-1.37595295887232	-1.37496505805186	-1.38986086752835	-1.41036978073121	-1.38879785247256	-1.39142271979315	-1.39751293083427	-1.40361802737124	-1.42444873276147	-1.41972759847495	-1.41851565819053	-1.44571076101029	-1.43440018284541	-1.47206951587744	-1.46722512155533	-1.4685982963377	-1.47735183473026	-1.47894697977549	-1.48069555724993	-1.48440377514078	-1.4971522327629	-1.50669692225462	-1.51427120275553	-1.47928458367223	-1.50462880500848	-1.4767394059623	-1.5210118819598	-1.51405898270232	-1.51531088309091	-1.53479693735928	-1.52715042176156	-1.53100531547964	-1.53448489855864	-1.53698663702378	-1.53411467233226	-1.5276842116063	-1.54755128734399	-1.53972787108593	-1.55857282908197	-1.58312658859293	-1.56989549409993	-1.55088295997237	-1.56716920116506	-1.57207628943302	-1.56737104185794	-1.58867818662605	-1.57984980634818	-1.55522404776664	-1.58019106034383	-1.58449766519395	-1.59690322958929	-1.60402811266357	-1.59140836137438	-1.60346394819797	-1.6066996661112	-1.62161927455842	-1.6237020612186	-1.62275208729836	-1.61168474910156	-1.62558360053678	-1.6316082940756	-1.64347796252426	-1.63821120840135	-1.64413910360172	-1.66230274303884	-1.64905973649659	-1.65045964196022	-1.63650397629428	-1.6419589976561	-1.64525936333855	-1.66737541183178	-1.66873792243773	-1.68183580151848	-1.67608820359245	-1.66540851818506	-1.67616251505336	-1.66827992080301	-1.66792364680079	-1.67817359546771	-1.67279792182945	-1.67249054800024	-1.68033072142538	-1.6790174479202	-1.69634055829094	-1.69297671481593	-1.68147567651194	-1.69751989246443	-1.71544287797059	-1.72368485865599	-1.71480722738385	-1.7129358247751	-1.70986297991044	-1.74625638079834	-1.73818000929778	-1.76292764790046	-1.72903592645251	-1.74129607745628	-1.72328597383791	-1.73841501624969	-1.75998382178515	-1.74038091146352	-1.76959551957997	-1.76850587610956	-1.77931055554123	-1.77489678215666	-1.76643697603304	-1.76129551367623	-1.77727102193294	-1.78833016615708	-1.78252714954999	-1.77497872392514	-1.79839014143813	-1.76688673894853	-1.79628713944181	-1.81175620000112	-1.79805800823959	-1.7880963225884	-1.78028051597038	-1.81124851688358	-1.80996802293321	-1.80269867792553	-1.82755511437434	-1.81127925588403	-1.81552867318973	-1.81616840700353	-1.81521619741355	-1.83368054737788	-1.83671731452708	-1.82451657461185	-1.83949333868494	-1.82793734721796	-1.83799945009167	-1.83885610524188	-1.82805340632882	-1.84599354384356	-1.84903949581798	-1.86106550699574	-1.86475620330588	-1.8716596749672	-1.87511438433703	-1.85990268004805	-1.87481895961176	-1.89467389039562	-1.86450329927539	-1.8837520986982	-1.88542409796219	-1.91456622577975	-1.9126856184853	-1.88451192796077	-1.89578211612582	-1.91092206493681	-1.90768116667802	-1.9055315429271	-1.90751944403479	-1.91033269069878	-1.9010625050328	-1.91269836328471	-1.93014207995348	-1.92337738924481	-1.92364413160991	-1.91731918356827	-1.93565538304736	-1.91753185420657	-1.93083370615722	-1.93033919774677	-1.935986676376	-1.91384374362245	-1.93465276598145	-1.9448566433179	-1.92470887229664	-1.93424837148677	-1.95193309607458	-1.95158077354335	-1.93810606534888	-1.96227855748427	-1.95125899483322	-1.97040393855318	-1.96686922055753	-1.97279895926864	-1.96891770645957	-1.98623204076501	-1.97222189179296	-1.96983334643814	-1.96914330804036	-1.98157619036739	-1.98367070877438	-1.9910244694746	-1.98640437698317	-2.00809611382044	-2.00632620508606	-1.99817404926189	-2.01451527409193	-2.01660602280915	-2.01064716901454	-2.01731540914198	-1.99264590239878	-1.99377231201126	-2.00550479627815	-2.02458298496625	-2.034642549823	-2.00401634296581	-2.01138331336208	-2.02588208331461	-2.02528358407944	-2.0326102616653	-2.0232127875788	-2.03108536833723	-2.01587312266221	-2.0197153906195	-2.03105856243166	-2.04481873294462	-2.05612878395276	-2.03642083179388	-2.03715798399731	-2.03594861023714	-2.06351732148974	-2.04672242311464	-2.04954222990359	-2.0655422083821	-2.05512358520412	-2.05075022168962	-2.0616318815265	-2.07104569233705	-2.07376820954786	-2.07756467078827	-2.07070579510766	-2.07629229636745	-2.06525906628154	-2.07390847692254	-2.07590641386067	-2.08984024652275	-2.09430995400755	-2.07210439204478	-2.09600026350962	-2.09806340034059	-2.09875744215989	-2.09950323520119	-2.11173995981593	-2.11699844993286	-2.09856594605749	-2.10067835998926	-2.11939995966435	-2.09174467371986	-2.12624135599927	-2.12772891946334	-2.12165308345329	-2.12289756787779	-2.12227667805365	-2.11244263121661	-2.11041499844456	-2.11755535458174	-2.11565169555099	-2.12577571352188	-2.14114948966309	-2.11465847861381	-2.12690463054053	-2.12968249166655	-2.1352811173054	-2.14455204187829	-2.14663710218049	-2.14100746467537	-2.15537895738299	-2.14689381396442	-2.16866749075001	-2.16751432114537	-2.16801527906975	-2.17898710153173	-2.17263961225553	-2.18746953976461	-2.18588146030976	-2.18322904598063	-2.18846672371336	-2.20247078466195	-2.17288461206209	-2.19697469408834	-2.17195861193804	-2.20115834806489	-2.19842282545614	-2.19611396875776	-2.21889682797579	-2.20652719748402	-2.21178925474048	-2.20668021694352	-2.21306704675558	-2.20536576588716	-2.20132814465737	-2.2209665667928	-2.20889880146727	-2.22582519314594	-2.2356155896875	-2.23580817709646	-2.21654020199624	-2.22930772887079	-2.22736668940295	-2.22835879869564	-2.23493884808385	-2.22479691878723	-2.21905757682796	-2.23299032814814	-2.23066676495476	-2.23170707309948	-2.24020806142401	-2.23575750093319	-2.23960894747953	-2.24213264997364	-2.26008461873603	-2.25805841509863	-2.25858610057234	-2.25101383032985	-2.25998857051345	-2.26986149457237	-2.26496029771717	-2.26012145283488	-2.27077850920402	-2.27470312458461	-2.27622333517999	-2.2648176153847	-2.26147253579276
